<?xml version="1.0"?>
<opencv_storage>
<opencv_ml_svm>
  <format>3</format>
  <svmType>C_SVC</svmType>
  <kernel>
    <type>RBF</type>
    <gamma>1.</gamma></kernel>
  <C>1.</C>
  <term_criteria><epsilon>1.1920928955078125e-07</epsilon>
    <iterations>1000</iterations></term_criteria>
  <var_count>9</var_count>
  <class_count>2</class_count>
  <class_labels type_id="opencv-matrix">
    <rows>2</rows>
    <cols>1</cols>
    <dt>i</dt>
    <data>
      -1 1</data></class_labels>
  <sv_total>2000</sv_total>
  <support_vectors>
    <_>
      9.58252996e-02 6.33624420e-02 8.31610709e-02 9.65809822e-02
      2.10067093e-01 1.08471662e-01 6.59673661e-02 5.88697381e-02
      9.34906676e-02</_>
    <_>
      1.95939749e-01 1.36664838e-01 4.88083065e-02 1.78293642e-02
      1.16979428e-01 1.44936051e-02 3.61199714e-02 9.11745280e-02
      1.92106679e-01</_>
    <_>
      9.90971103e-02 7.01699927e-02 7.07250610e-02 7.74553642e-02
      2.23882198e-01 6.57309070e-02 6.05239905e-02 7.86357298e-02
      1.05828919e-01</_>
    <_>
      1.82589814e-01 9.04920474e-02 1.04934543e-01 3.36256810e-02
      1.96775243e-01 4.03230302e-02 1.01801239e-01 9.32177007e-02
      1.94866121e-01</_>
    <_>
      1.95057288e-01 1.38911754e-01 9.89457816e-02 5.79392798e-02
      4.42669131e-02 4.88463864e-02 6.64961413e-02 1.16102517e-01
      1.69971794e-01</_>
    <_>
      1.76696390e-01 1.09515451e-01 5.31513467e-02 5.19057103e-02
      1.07048742e-01 5.93781434e-02 5.57149723e-02 1.11833073e-01
      1.90915823e-01</_>
    <_>
      1.63019612e-01 1.43965542e-01 7.94144124e-02 5.46898171e-02
      7.02330843e-02 7.74379671e-02 9.35794488e-02 1.11500390e-01
      1.33266598e-01</_>
    <_>
      1.78481624e-01 1.32475019e-01 1.13658346e-01 6.73019662e-02
      6.52261227e-02 3.78343239e-02 7.60419443e-02 9.61810499e-02
      1.74289122e-01</_>
    <_>
      8.50330889e-02 6.17348850e-02 9.04931948e-02 1.04705006e-01
      2.16013506e-01 1.31113261e-01 9.88148078e-02 5.75392172e-02
      9.33689773e-02</_>
    <_>
      9.11783278e-02 6.22488931e-02 7.51398429e-02 1.23201400e-01
      1.62498027e-01 1.46177456e-01 8.71033967e-02 6.68943077e-02
      9.43433419e-02</_>
    <_>
      1.69407830e-01 6.29215613e-02 4.62529324e-02 7.06265867e-02
      1.05787508e-01 8.16982687e-02 6.21589161e-02 8.95647034e-02
      1.83902815e-01</_>
    <_>
      1.08875275e-01 5.26135750e-02 6.31407797e-02 6.13801219e-02
      2.47568712e-01 4.82018292e-02 6.46564141e-02 7.05896318e-02
      1.01627953e-01</_>
    <_>
      1.93724126e-01 4.67585474e-02 4.81176525e-02 3.95571515e-02
      9.37740430e-02 4.00117002e-02 6.90811276e-02 7.88968056e-02
      2.17405066e-01</_>
    <_>
      1.62375629e-01 9.67529938e-02 3.66439521e-02 4.10832539e-02
      8.98417458e-02 4.47613783e-02 4.61929776e-02 1.42096445e-01
      2.04969376e-01</_>
    <_>
      1.89780176e-01 1.24803007e-01 7.09225386e-02 6.62100986e-02
      9.51706916e-02 6.26623482e-02 7.48724863e-02 1.15392342e-01
      1.92931607e-01</_>
    <_>
      7.35196173e-02 7.14092106e-02 9.69927236e-02 1.08478382e-01
      2.05120072e-01 9.76226106e-02 8.39159191e-02 6.32525682e-02
      7.40619153e-02</_>
    <_>
      1.24380663e-01 2.49186680e-02 6.05939627e-02 1.16412088e-01
      3.13258529e-01 9.86850932e-02 5.22385240e-02 1.86890010e-02
      1.24380663e-01</_>
    <_>
      8.93880501e-02 1.11922011e-01 1.52514711e-01 1.15926728e-01
      1.01520047e-01 7.99177065e-02 1.15002625e-01 8.92530084e-02
      8.47544372e-02</_>
    <_>
      1.07686266e-01 9.66537669e-02 7.97907710e-02 9.39332023e-02
      2.22276449e-01 9.39803943e-02 7.57855624e-02 9.47893858e-02
      1.09064616e-01</_>
    <_>
      2.43456602e-01 7.86057711e-02 3.44273522e-02 5.97297633e-03
      4.83574532e-02 6.87099528e-03 3.32452282e-02 7.49563649e-02
      2.73982406e-01</_>
    <_>
      5.47854602e-02 5.20631857e-02 6.76725879e-02 1.28699392e-01
      2.48418689e-01 9.79074314e-02 5.47889732e-02 4.91260700e-02
      5.58059625e-02</_>
    <_>
      7.52859637e-02 5.86801730e-02 9.47834849e-02 1.11914866e-01
      2.26805240e-01 8.01545978e-02 5.52361123e-02 5.52294031e-02
      7.59029239e-02</_>
    <_>
      1.39704451e-01 4.49137911e-02 4.29503508e-02 1.11626618e-01
      2.04031646e-01 7.56136775e-02 4.67748493e-02 5.01842201e-02
      1.37377143e-01</_>
    <_>
      2.10814089e-01 4.85834181e-02 6.65702820e-02 7.15933219e-02
      8.32392499e-02 5.32016046e-02 5.54177761e-02 3.63925323e-02
      2.04564139e-01</_>
    <_>
      1.88804969e-01 9.87498313e-02 7.58132935e-02 6.16595224e-02
      8.04843456e-02 7.27144256e-02 7.96977878e-02 9.88820866e-02
      1.81441292e-01</_>
    <_>
      8.92266482e-02 8.45110789e-02 1.20149963e-01 1.03844494e-01
      1.34213269e-01 8.97671580e-02 1.07117325e-01 7.45146498e-02
      8.62267613e-02</_>
    <_>
      9.11978781e-02 6.31585568e-02 8.33717436e-02 9.80362073e-02
      1.95274100e-01 9.64840576e-02 7.35762715e-02 6.50447458e-02
      9.16571766e-02</_>
    <_>
      1.52502283e-01 4.90551032e-02 4.46498692e-02 4.05695997e-02
      7.14932606e-02 4.19347435e-02 5.42084686e-02 6.28137514e-02
      1.60968855e-01</_>
    <_>
      1.88932255e-01 8.71276557e-02 8.33881050e-02 6.89105988e-02
      7.46780708e-02 6.36327490e-02 6.14987463e-02 6.93355650e-02
      1.67963728e-01</_>
    <_>
      1.98955402e-01 7.13216662e-02 5.63931800e-02 5.54327741e-02
      1.16244443e-01 6.56449720e-02 4.35249135e-02 4.08021584e-02
      1.87901884e-01</_>
    <_>
      1.73966572e-01 5.74412197e-02 5.90084568e-02 6.90220892e-02
      1.28362954e-01 5.14509007e-02 5.15344180e-02 5.34144938e-02
      1.76898584e-01</_>
    <_>
      1.87035114e-01 8.27105939e-02 6.92536980e-02 6.38892725e-02
      9.76655930e-02 6.10183515e-02 5.98197766e-02 6.68284073e-02
      1.88237503e-01</_>
    <_>
      2.28077814e-01 9.34755281e-02 4.61801142e-02 4.09495980e-02
      8.09640661e-02 5.42872436e-02 6.19457103e-02 8.05146471e-02
      2.08397463e-01</_>
    <_>
      4.71114404e-02 6.44926801e-02 8.52304325e-02 7.74822459e-02
      1.74921706e-01 9.22239870e-02 1.35932937e-01 9.73352417e-02
      4.82187495e-02</_>
    <_>
      9.42203328e-02 4.37291637e-02 7.84291625e-02 1.09192863e-01
      1.41755730e-01 1.52321488e-01 1.07497498e-01 5.45056909e-02
      9.94757861e-02</_>
    <_>
      1.85765252e-01 6.89800605e-02 5.10667115e-02 7.11699501e-02
      1.48175657e-01 6.11033514e-02 5.36267757e-02 7.04375952e-02
      1.99844494e-01</_>
    <_>
      4.99526300e-02 5.25103211e-02 5.34441732e-02 1.64222196e-01
      2.80674011e-01 1.53247207e-01 7.67763332e-02 6.01997972e-02
      5.93556128e-02</_>
    <_>
      1.62963793e-01 4.25162688e-02 3.90718207e-02 5.27684577e-02
      1.41862884e-01 6.72472045e-02 4.58978340e-02 3.99544537e-02
      1.58049345e-01</_>
    <_>
      2.21869797e-01 5.12279123e-02 4.16449793e-02 6.21130839e-02
      9.97719914e-02 5.65149672e-02 4.60024402e-02 5.60202785e-02
      2.18400776e-01</_>
    <_>
      2.00989947e-01 4.94511649e-02 5.28748445e-02 6.06846325e-02
      1.13176510e-01 5.28039820e-02 3.32994498e-02 3.49913239e-02
      1.92762956e-01</_>
    <_>
      1.99613050e-01 9.13853273e-02 7.73851499e-02 4.56153601e-02
      8.15307274e-02 5.95939495e-02 6.89037368e-02 8.53357390e-02
      1.93649411e-01</_>
    <_>
      1.02295414e-01 1.06475413e-01 1.19251505e-01 6.60303161e-02
      1.28402680e-01 9.17501301e-02 1.08270727e-01 8.36809054e-02
      8.78184661e-02</_>
    <_>
      1.16519988e-01 5.36742769e-02 5.20014130e-02 8.22821483e-02
      2.13236555e-01 9.18385983e-02 6.42709807e-02 5.78042753e-02
      1.14534035e-01</_>
    <_>
      1.94733784e-01 6.93327338e-02 5.13754375e-02 5.15243448e-02
      9.83344838e-02 3.47756632e-02 3.83828729e-02 6.22918718e-02
      1.96245313e-01</_>
    <_>
      5.68963178e-02 8.99478495e-02 1.17398031e-01 1.42015859e-01
      2.23976716e-01 1.25726804e-01 6.95805326e-02 5.90713024e-02
      5.03216684e-02</_>
    <_>
      9.22648832e-02 4.46801782e-02 9.76411030e-02 1.25163898e-01
      2.17631623e-01 6.94788024e-02 3.88114043e-02 3.75314280e-02
      9.66652036e-02</_>
    <_>
      1.64876357e-01 7.80393034e-02 4.58979979e-02 3.50251943e-02
      9.24858674e-02 3.88295017e-02 7.38949850e-02 1.35479301e-01
      1.83224857e-01</_>
    <_>
      9.36428756e-02 3.69696245e-02 5.07739745e-02 9.26720127e-02
      2.26478547e-01 1.00822806e-01 7.18395188e-02 5.85640483e-02
      1.01533748e-01</_>
    <_>
      8.71444717e-02 6.34768233e-02 4.35298048e-02 8.52913260e-02
      2.31772780e-01 8.47999230e-02 4.50244248e-02 5.75393699e-02
      8.45179632e-02</_>
    <_>
      2.15327352e-01 1.26974270e-01 6.72761127e-02 3.14144008e-02
      8.81183371e-02 3.11215259e-02 5.23929857e-02 6.95760325e-02
      1.65448904e-01</_>
    <_>
      1.82308704e-01 4.07009646e-02 3.06917299e-02 6.03477582e-02
      1.84168071e-01 6.51283339e-02 3.62013541e-02 3.97409722e-02
      1.78049549e-01</_>
    <_>
      2.24637121e-01 5.42199612e-02 5.78682572e-02 3.45428288e-02
      9.41001475e-02 3.89715806e-02 5.33231869e-02 6.97160512e-02
      2.42278621e-01</_>
    <_>
      1.17126688e-01 4.05868255e-02 4.48036380e-02 8.62425715e-02
      2.48650953e-01 6.92471266e-02 2.71605402e-02 1.66240018e-02
      1.09954700e-01</_>
    <_>
      1.23856954e-01 1.08333834e-01 1.01681083e-01 7.61676952e-02
      7.69003555e-02 8.72072130e-02 1.24720022e-01 1.14008732e-01
      1.28134340e-01</_>
    <_>
      2.46843696e-01 1.18949279e-01 4.59174477e-02 4.49710935e-02
      9.90878567e-02 3.58427577e-02 4.26720753e-02 4.46134172e-02
      1.76230565e-01</_>
    <_>
      1.51209071e-01 5.61260581e-02 4.75167222e-02 6.77348897e-02
      1.92622617e-01 6.46390542e-02 6.04585297e-02 5.22927903e-02
      1.55158862e-01</_>
    <_>
      1.64196938e-01 8.73001441e-02 9.92094204e-02 5.62862344e-02
      1.19221672e-01 7.09500611e-02 1.13245390e-01 9.66081470e-02
      1.55691877e-01</_>
    <_>
      6.81484342e-02 3.48404311e-02 4.77526821e-02 4.21977378e-02
      1.55163005e-01 4.78507131e-02 5.58613800e-02 3.73850614e-02
      6.36074543e-02</_>
    <_>
      1.20800212e-01 5.89083768e-02 5.11109531e-02 7.88358748e-02
      2.23680124e-01 8.19245875e-02 4.68095317e-02 4.89378162e-02
      1.24601327e-01</_>
    <_>
      1.32960513e-01 4.91631478e-02 4.38956544e-02 1.17521629e-01
      2.15527013e-01 1.00801036e-01 3.98165956e-02 5.72088771e-02
      1.34220809e-01</_>
    <_>
      1.82175204e-01 1.09878406e-01 6.58907816e-02 5.43031991e-02
      1.30078405e-01 4.96461466e-02 4.57959920e-02 9.75560322e-02
      1.73842117e-01</_>
    <_>
      2.44016260e-01 7.81167969e-02 4.42167297e-02 4.12624888e-02
      8.17011520e-02 3.57324369e-02 3.73784713e-02 7.35551640e-02
      2.21441016e-01</_>
    <_>
      2.30016530e-01 7.66783953e-02 4.51710448e-02 2.54590251e-02
      1.02289163e-01 2.70018242e-02 4.22065184e-02 7.63371214e-02
      2.29099721e-01</_>
    <_>
      3.26524764e-01 0. 0. 0. 1.37930900e-01 0. 0. 0. 3.48632365e-01</_>
    <_>
      7.77010024e-02 4.33607213e-02 7.69214779e-02 1.17146350e-01
      1.80021226e-01 9.61910263e-02 1.02522045e-01 8.32423940e-02
      8.49343315e-02</_>
    <_>
      2.03516975e-01 7.83279017e-02 5.96869402e-02 3.78383696e-02
      1.13768987e-01 6.79246932e-02 6.79226667e-02 8.37919191e-02
      1.98044240e-01</_>
    <_>
      1.27118245e-01 3.35079357e-02 3.65290828e-02 8.04176703e-02
      2.35566989e-01 9.32381228e-02 4.08251993e-02 3.63377705e-02
      1.18160039e-01</_>
    <_>
      1.48280799e-01 5.72788641e-02 4.69176844e-02 5.02095185e-02
      2.28899732e-01 7.50123635e-02 5.23261353e-02 4.53551337e-02
      1.43730134e-01</_>
    <_>
      5.48290573e-02 4.35286462e-02 1.65636942e-01 9.20333415e-02
      2.52781928e-01 8.81729499e-02 1.57403186e-01 3.71161886e-02
      6.05175532e-02</_>
    <_>
      1.81273565e-01 4.17097658e-02 6.48606047e-02 8.27308893e-02
      1.34491518e-01 5.49199320e-02 4.55484912e-02 4.08432372e-02
      1.89186886e-01</_>
    <_>
      2.00748429e-01 8.12059492e-02 2.71674711e-02 6.26232475e-02
      1.26264691e-01 5.68057932e-02 3.23752649e-02 6.15875199e-02
      1.71999827e-01</_>
    <_>
      1.60592914e-01 4.99726459e-02 4.50847372e-02 3.17646228e-02
      8.57252106e-02 3.38523835e-02 4.37015258e-02 6.45259842e-02
      1.65570483e-01</_>
    <_>
      9.55287218e-02 9.74931568e-02 1.09331787e-01 1.27172902e-01
      2.46858865e-01 1.34097070e-01 1.03064105e-01 9.94051397e-02
      9.72724706e-02</_>
    <_>
      9.40627083e-02 7.81604499e-02 8.06715637e-02 8.04286674e-02
      2.22496122e-01 1.14889838e-01 7.54156560e-02 5.60851172e-02
      8.10959414e-02</_>
    <_>
      9.37507078e-02 1.11590713e-01 1.36847124e-01 1.02218747e-01
      1.42532483e-01 1.06453843e-01 1.09637350e-01 7.36816376e-02
      1.05160229e-01</_>
    <_>
      1.52759120e-01 9.20647681e-02 6.73803240e-02 5.19441292e-02
      9.12806913e-02 7.27681890e-02 9.93812308e-02 8.12508240e-02
      1.43860981e-01</_>
    <_>
      1.65214717e-01 1.00691296e-01 8.27138275e-02 4.87504639e-02
      1.18367963e-01 9.17436182e-02 8.88116658e-02 6.41744733e-02
      1.41901195e-01</_>
    <_>
      1.02629125e-01 6.78676218e-02 7.27711543e-02 1.25456035e-01
      1.90178275e-01 8.77951086e-02 4.89296652e-02 4.80563007e-02
      1.01584531e-01</_>
    <_>
      8.63081068e-02 7.40450621e-02 1.12282187e-01 1.26130193e-01
      1.92428231e-01 1.00085832e-01 7.38506764e-02 5.53197414e-02
      7.94859901e-02</_>
    <_>
      2.18413293e-01 6.97909594e-02 4.65811677e-02 4.12723161e-02
      9.15286690e-02 4.02106494e-02 5.62642813e-02 9.04135853e-02
      2.25144267e-01</_>
    <_>
      2.67249137e-01 3.88908722e-02 2.82074902e-02 1.36156734e-02
      9.99058560e-02 1.55089749e-02 2.19518896e-02 2.56102569e-02
      2.60472089e-01</_>
    <_>
      2.08878338e-01 8.28859508e-02 4.52900380e-02 4.37717475e-02
      1.07322939e-01 5.99734373e-02 4.75443378e-02 6.17388934e-02
      1.87451318e-01</_>
    <_>
      1.46765366e-01 8.34508315e-02 3.72197889e-02 7.04984069e-02
      1.90909714e-01 4.01328057e-02 3.33786644e-02 5.00548035e-02
      1.34934813e-01</_>
    <_>
      1.56485781e-01 6.54930919e-02 6.56010136e-02 5.16530052e-02
      1.04613326e-01 5.57476990e-02 8.65422934e-02 8.85692611e-02
      1.82272777e-01</_>
    <_>
      1.16126500e-01 5.34164384e-02 6.18908294e-02 8.17529932e-02
      2.43846983e-01 6.64587766e-02 4.75424416e-02 3.38761918e-02
      1.06171891e-01</_>
    <_>
      1.68469414e-01 1.33276567e-01 8.73933956e-02 4.59255911e-02
      8.46400186e-02 4.23515849e-02 5.62738217e-02 9.68388394e-02
      1.67498946e-01</_>
    <_>
      2.09453821e-01 7.23749623e-02 6.13548979e-02 4.26925756e-02
      1.08767539e-01 4.14260291e-02 4.09080870e-02 5.33989333e-02
      2.07202569e-01</_>
    <_>
      7.22801611e-02 6.64318576e-02 9.03047994e-02 8.92811194e-02
      2.05776513e-01 8.40687454e-02 6.06497452e-02 4.63321321e-02
      7.05391318e-02</_>
    <_>
      8.39970782e-02 8.69682878e-02 1.20781921e-01 1.19382262e-01
      1.89815417e-01 1.46577775e-01 9.51028019e-02 6.38310835e-02
      8.17843154e-02</_>
    <_>
      1.47669047e-01 3.77211794e-02 4.32051532e-02 4.32051867e-02
      1.62586272e-01 7.20575675e-02 5.03524467e-02 4.01179865e-02
      1.48842320e-01</_>
    <_>
      6.69977888e-02 7.87218958e-02 1.04606710e-01 1.24742009e-01
      1.77876070e-01 1.21074729e-01 7.73802996e-02 7.05102459e-02
      6.92634806e-02</_>
    <_>
      1.89756453e-01 8.35499763e-02 6.62736893e-02 6.86652586e-02
      1.42764419e-01 5.93816042e-02 5.32806106e-02 4.67063263e-02
      1.60347983e-01</_>
    <_>
      1.37380898e-01 2.89591067e-02 5.99763766e-02 6.14491962e-02
      8.90063196e-02 3.15581672e-02 3.74219902e-02 2.83623599e-02
      1.36546686e-01</_>
    <_>
      5.21920901e-03 8.67817202e-04 1.73950829e-02 8.98324177e-02
      4.51076835e-01 8.39913264e-02 1.39206089e-02 7.58447859e-04
      4.93821222e-03</_>
    <_>
      1.18813790e-01 6.04381151e-02 5.99663444e-02 8.53640065e-02
      2.43873179e-01 9.85315889e-02 4.14008461e-02 5.36687858e-02
      1.12349987e-01</_>
    <_>
      1.87572852e-01 8.60656574e-02 7.01398849e-02 6.52668625e-02
      1.01284690e-01 5.97666055e-02 6.28796443e-02 7.76771829e-02
      1.79857373e-01</_>
    <_>
      2.27699101e-01 1.32402971e-01 5.45799024e-02 4.77108657e-02
      9.60845128e-02 4.14728560e-02 5.51882386e-02 6.66060224e-02
      1.75042912e-01</_>
    <_>
      2.01978967e-01 4.32126857e-02 3.91719453e-02 4.92239594e-02
      7.75142387e-02 6.81178570e-02 7.44855255e-02 6.16080128e-02
      2.09056959e-01</_>
    <_>
      1.63954526e-01 1.20325200e-01 9.32457894e-02 7.89734647e-02
      9.58652347e-02 6.59130141e-02 7.39050582e-02 8.04366246e-02
      1.44646704e-01</_>
    <_>
      7.74390846e-02 6.62238598e-02 1.02731213e-01 1.10654011e-01
      1.84304342e-01 8.74347538e-02 8.37595537e-02 6.33479282e-02
      7.56749511e-02</_>
    <_>
      1.73643991e-01 1.15085833e-01 9.35860425e-02 7.38520026e-02
      8.76458809e-02 8.43751580e-02 8.68013874e-02 9.09016654e-02
      1.66915566e-01</_>
    <_>
      1.60830051e-01 1.09097682e-01 4.51417044e-02 3.97653133e-02
      1.40712380e-01 4.27749231e-02 3.25477086e-02 1.18838139e-01
      1.76713049e-01</_>
    <_>
      9.57100838e-02 5.33838309e-02 4.93222773e-02 9.71934274e-02
      2.50581771e-01 9.04733017e-02 4.68256213e-02 5.58539554e-02
      9.57273692e-02</_>
    <_>
      3.14833343e-01 8.99147764e-02 0. 0. 4.83805388e-02 0. 0.
      7.93885440e-02 2.99389094e-01</_>
    <_>
      2.39004210e-01 4.74755280e-02 7.03506246e-02 3.46197896e-02
      1.38881654e-01 3.60303633e-02 6.59153312e-02 5.92392050e-02
      2.41397306e-01</_>
    <_>
      1.76645964e-01 7.36265555e-02 7.84804896e-02 5.37753552e-02
      1.00953408e-01 5.80001399e-02 6.00234903e-02 5.11525087e-02
      1.68281332e-01</_>
    <_>
      6.38413355e-02 6.04333207e-02 1.28863528e-01 1.22328401e-01
      1.96829304e-01 9.03493315e-02 8.76389071e-02 4.53065038e-02
      6.81624189e-02</_>
    <_>
      8.25093240e-02 7.07031935e-02 1.28583282e-01 1.46404386e-01
      1.79073736e-01 1.02892965e-01 8.16694275e-02 6.71540275e-02
      7.41293579e-02</_>
    <_>
      8.67061168e-02 5.75524829e-02 1.19561963e-01 1.55443326e-01
      1.83057070e-01 6.33771792e-02 4.54030074e-02 3.98492776e-02
      8.02358910e-02</_>
    <_>
      7.25553185e-02 3.68841700e-02 4.69114147e-02 8.91211405e-02
      2.13305086e-01 7.75308758e-02 4.22452800e-02 3.73114198e-02
      7.58552104e-02</_>
    <_>
      2.52224892e-01 2.46855076e-02 2.15961616e-02 2.89467741e-02
      2.93790758e-01 2.53188554e-02 2.27420460e-02 2.59953719e-02
      2.40251064e-01</_>
    <_>
      3.20706785e-01 1.59050263e-02 4.56706956e-02 4.80090734e-03
      8.68207961e-02 5.00094518e-03 4.78648618e-02 1.71175506e-02
      3.09482932e-01</_>
    <_>
      1.98672622e-01 3.04094423e-02 6.05813675e-02 8.31003860e-02
      9.92465243e-02 6.40199408e-02 4.09095511e-02 2.99143288e-02
      2.03963220e-01</_>
    <_>
      1.12396844e-01 4.85404432e-02 5.06225675e-02 5.10040820e-02
      2.54761964e-01 6.05451688e-02 3.30494754e-02 3.74851227e-02
      1.07811287e-01</_>
    <_>
      9.28475857e-02 5.83017878e-02 6.86872229e-02 1.56847030e-01
      2.00202078e-01 7.02213198e-02 5.44113517e-02 5.45403138e-02
      9.93834212e-02</_>
    <_>
      1.92240372e-01 6.60093799e-02 4.72123623e-02 6.96190670e-02
      1.06341809e-01 8.48877504e-02 4.51719351e-02 7.62438476e-02
      1.87110782e-01</_>
    <_>
      8.14833120e-02 7.46681467e-02 7.67927617e-02 1.16000295e-01
      2.05062717e-01 1.13666989e-01 8.52472186e-02 6.91413656e-02
      7.39529133e-02</_>
    <_>
      1.88589543e-01 7.18103945e-02 8.06827098e-02 5.28980680e-02
      7.58983493e-02 3.62210050e-02 4.24569212e-02 5.68707436e-02
      1.93763986e-01</_>
    <_>
      2.06179053e-01 7.08949864e-02 7.33340383e-02 5.94824143e-02
      8.61248598e-02 4.81930822e-02 4.89996150e-02 5.66189475e-02
      2.07440108e-01</_>
    <_>
      1.74175888e-01 6.62240013e-02 5.00735156e-02 5.82483895e-02
      1.33248985e-01 4.98798527e-02 4.11452428e-02 3.96198072e-02
      1.61274344e-01</_>
    <_>
      1.03930131e-01 6.36863634e-02 4.46717441e-02 6.13913983e-02
      1.98896617e-01 6.59145266e-02 4.06186618e-02 4.98498045e-02
      1.10603094e-01</_>
    <_>
      7.90692642e-02 9.43609402e-02 9.27582383e-02 1.09370604e-01
      2.01359913e-01 1.13530636e-01 9.19305682e-02 7.17796013e-02
      7.21185729e-02</_>
    <_>
      1.21332169e-01 4.70786616e-02 4.78131399e-02 5.29765896e-02
      2.03128308e-01 5.50188534e-02 4.21627946e-02 4.49449271e-02
      1.22502849e-01</_>
    <_>
      1.84118211e-01 6.89788014e-02 5.94102815e-02 5.84819205e-02
      9.83901471e-02 5.75612672e-02 5.71116805e-02 7.17930645e-02
      1.86212391e-01</_>
    <_>
      1.06112093e-01 1.13383792e-01 1.11673169e-01 4.97749150e-02
      1.00237578e-01 5.05006798e-02 1.13651149e-01 1.05551437e-01
      1.14411809e-01</_>
    <_>
      1.20525755e-01 7.28459135e-02 5.76699711e-02 6.66237921e-02
      2.38278329e-01 7.13896453e-02 5.55895306e-02 5.78314997e-02
      1.09039873e-01</_>
    <_>
      8.87262374e-02 5.56673370e-02 6.65633306e-02 9.59163234e-02
      2.24877119e-01 9.24448222e-02 7.36600906e-02 6.57387152e-02
      8.49223137e-02</_>
    <_>
      2.72130907e-01 4.55991253e-02 2.58502550e-02 2.29922719e-02
      3.40377688e-02 1.86532252e-02 2.18515527e-02 5.15255406e-02
      2.80439585e-01</_>
    <_>
      8.00158530e-02 3.88429686e-02 4.57988270e-02 5.39666750e-02
      1.24747179e-01 4.37262617e-02 3.12862508e-02 2.36864202e-02
      7.01663792e-02</_>
    <_>
      1.07738875e-01 5.49079068e-02 4.51194011e-02 3.19803655e-02
      1.00798227e-01 3.65046114e-02 4.58302088e-02 4.98077534e-02
      9.71265286e-02</_>
    <_>
      2.71341223e-02 6.86545670e-02 1.06238797e-01 1.38874143e-01
      3.59119624e-01 1.44609973e-01 1.10462412e-01 6.86989278e-02
      2.71341223e-02</_>
    <_>
      9.77905095e-02 8.59690905e-02 8.89600739e-02 9.53157172e-02
      1.95572287e-01 1.27267823e-01 1.03534527e-01 1.13872729e-01
      1.08093530e-01</_>
    <_>
      1.72063887e-01 1.05248801e-01 8.32883641e-02 7.06940591e-02
      9.08856913e-02 8.08065385e-02 9.71627831e-02 9.56386998e-02
      1.52273819e-01</_>
    <_>
      1.62950501e-01 5.06104901e-02 4.12988290e-02 5.25265709e-02
      1.01031661e-01 7.04242066e-02 6.24959543e-02 4.63542156e-02
      1.36206463e-01</_>
    <_>
      1.21894889e-01 5.17458878e-02 5.50269820e-02 9.20646042e-02
      1.94153845e-01 8.74817371e-02 4.68444675e-02 4.90502827e-02
      1.27221644e-01</_>
    <_>
      1.94311202e-01 5.14072217e-02 5.51490225e-02 6.08230755e-02
      1.15126491e-01 7.30614662e-02 5.83598725e-02 5.90877458e-02
      1.95009828e-01</_>
    <_>
      7.62974545e-02 6.30101711e-02 8.95971209e-02 1.25369325e-01
      2.25050896e-01 9.14882049e-02 4.68750522e-02 4.11229543e-02
      7.33723938e-02</_>
    <_>
      1.60933584e-01 8.57229978e-02 7.52427951e-02 7.80864581e-02
      1.81104779e-01 6.60633296e-02 6.08447418e-02 8.25346410e-02
      1.60981983e-01</_>
    <_>
      8.05268362e-02 2.28125211e-02 1.11205339e-01 1.40512258e-01
      2.17996433e-01 1.13956518e-01 8.10763091e-02 1.49928993e-02
      8.38793889e-02</_>
    <_>
      9.29963961e-02 8.44524726e-02 7.96905160e-02 9.51233059e-02
      2.11884215e-01 8.70796070e-02 5.23233414e-02 6.45973012e-02
      9.50602666e-02</_>
    <_>
      4.73550931e-02 4.49643768e-02 6.85899854e-02 1.13722637e-01
      2.23685175e-01 1.38798445e-01 6.80980012e-02 4.34309430e-02
      4.38884050e-02</_>
    <_>
      6.31746128e-02 6.07222095e-02 8.83182138e-02 1.20195121e-01
      2.28310779e-01 9.99668390e-02 6.98633119e-02 6.04975559e-02
      6.93492442e-02</_>
    <_>
      1.96181476e-01 1.11630924e-01 7.60450214e-02 5.33099808e-02
      8.96699876e-02 6.60927966e-02 6.65231571e-02 1.00974470e-01
      1.88358858e-01</_>
    <_>
      1.89818010e-01 9.90611389e-02 3.22402082e-02 2.73349937e-02
      9.34349671e-02 3.61849368e-02 4.90966439e-02 1.39354855e-01
      2.28380442e-01</_>
    <_>
      6.94485381e-02 1.22668684e-01 1.07163809e-01 9.81655270e-02
      1.52095765e-01 1.11601882e-01 1.18714049e-01 1.26221076e-01
      6.43337443e-02</_>
    <_>
      1.97191074e-01 5.21235317e-02 4.41552810e-02 7.80140236e-02
      1.43122986e-01 6.88363463e-02 4.93408777e-02 4.66987453e-02
      2.07187042e-01</_>
    <_>
      1.03889219e-01 8.10240135e-02 5.38724847e-02 8.55502635e-02
      2.26026282e-01 8.41972902e-02 5.49001060e-02 8.48020315e-02
      1.06363669e-01</_>
    <_>
      7.91495591e-02 5.82970269e-02 7.69887045e-02 8.39730054e-02
      1.35899901e-01 9.78946760e-02 1.36746570e-01 9.08863842e-02
      8.59195217e-02</_>
    <_>
      1.76639885e-01 5.76029979e-02 5.33900969e-02 5.18676862e-02
      1.30451456e-01 4.89533842e-02 5.17364405e-02 5.81654534e-02
      1.83135480e-01</_>
    <_>
      8.82592052e-02 5.81467375e-02 8.89725834e-02 1.09058179e-01
      2.02061251e-01 1.09485008e-01 8.52281600e-02 6.61254674e-02
      1.00580215e-01</_>
    <_>
      1.69458762e-01 5.39254360e-02 5.00367284e-02 3.82680595e-02
      1.17108069e-01 5.56956902e-02 6.27908111e-02 5.80137968e-02
      1.76592231e-01</_>
    <_>
      1.96289614e-01 7.04932660e-02 6.14599325e-02 7.61571303e-02
      1.24623127e-01 7.97109231e-02 4.35048826e-02 5.41718863e-02
      1.79392561e-01</_>
    <_>
      1.79248005e-01 1.26941517e-01 9.11118388e-02 6.83880225e-02
      8.79428089e-02 6.62828684e-02 6.37712479e-02 7.72940591e-02
      1.56893596e-01</_>
    <_>
      8.34501013e-02 1.06888704e-01 1.10569857e-01 9.73261446e-02
      1.93411961e-01 9.98342708e-02 6.69854432e-02 5.94259948e-02
      6.94415793e-02</_>
    <_>
      6.17543831e-02 5.35836592e-02 5.85003309e-02 1.14818729e-01
      2.76445597e-01 1.24095395e-01 5.76609597e-02 4.75632623e-02
      5.77263497e-02</_>
    <_>
      4.17304412e-02 5.44445664e-02 9.40373540e-02 1.27985388e-01
      2.48406470e-01 1.26096234e-01 8.52328613e-02 5.40016219e-02
      3.97594981e-02</_>
    <_>
      1.69312149e-01 6.00895472e-02 7.30142891e-02 6.73718229e-02
      1.07395209e-01 4.82810214e-02 5.39326705e-02 7.33747929e-02
      1.78789690e-01</_>
    <_>
      1.87850624e-01 7.27578402e-02 5.28286882e-02 6.79105967e-02
      1.04518026e-01 5.93813024e-02 5.04710265e-02 6.41759709e-02
      1.89907789e-01</_>
    <_>
      7.04104304e-02 3.79413478e-02 9.69871581e-02 9.80311111e-02
      2.12357834e-01 9.71828699e-02 1.09977260e-01 5.10275252e-02
      7.59554803e-02</_>
    <_>
      1.19866520e-01 8.42968822e-02 8.34708288e-02 1.07490011e-01
      1.82589039e-01 8.60642567e-02 5.17214090e-02 4.46300469e-02
      9.17250812e-02</_>
    <_>
      8.29075873e-02 5.37691489e-02 5.18423766e-02 8.02171752e-02
      2.70651639e-01 8.25007483e-02 4.77455407e-02 4.69590873e-02
      8.80334601e-02</_>
    <_>
      9.94484872e-02 5.29371426e-02 7.06896037e-02 9.97917205e-02
      2.32897058e-01 8.98239762e-02 4.91061136e-02 4.30893078e-02
      9.37926620e-02</_>
    <_>
      5.05909175e-02 4.90526110e-02 4.00894172e-02 8.74967352e-02
      2.81995058e-01 9.68265831e-02 4.80038002e-02 4.67909351e-02
      5.25258072e-02</_>
    <_>
      1.69878364e-01 7.60342032e-02 5.97522855e-02 3.54067013e-02
      7.10446164e-02 3.73308882e-02 4.76501510e-02 6.43592775e-02
      1.59705490e-01</_>
    <_>
      7.43603036e-02 4.46393155e-02 5.59361652e-02 8.31910819e-02
      2.69283831e-01 7.68174678e-02 5.41729294e-02 4.99135554e-02
      7.57376403e-02</_>
    <_>
      1.05027311e-01 6.78859055e-02 6.04138821e-02 8.29579383e-02
      1.80589855e-01 8.28835815e-02 5.87051548e-02 5.96641190e-02
      9.99263972e-02</_>
    <_>
      1.72320470e-01 9.50985476e-02 8.80261436e-02 2.93757692e-02
      7.50147030e-02 4.98311967e-02 1.36682287e-01 1.18551008e-01
      1.86088562e-01</_>
    <_>
      1.00533165e-01 6.59344718e-02 6.94522262e-02 9.72542390e-02
      2.24294081e-01 1.03210546e-01 6.11497685e-02 6.47028387e-02
      1.03044108e-01</_>
    <_>
      2.00802907e-01 6.27733469e-02 4.87963334e-02 6.02506921e-02
      1.18074052e-01 5.59819974e-02 5.14542945e-02 6.56651109e-02
      1.89196810e-01</_>
    <_>
      2.09698394e-01 9.37260166e-02 7.27518722e-02 5.83973639e-02
      5.73748089e-02 4.77811992e-02 8.33377615e-02 9.03623477e-02
      2.04011202e-01</_>
    <_>
      7.08882511e-02 2.12268587e-02 7.55389705e-02 1.70886561e-01
      2.33608618e-01 9.87368450e-02 5.44400029e-02 4.28698249e-02
      8.14576149e-02</_>
    <_>
      1.53282911e-01 6.76426217e-02 5.67511469e-02 5.26770353e-02
      1.15372010e-01 5.90250380e-02 7.61410892e-02 1.11740470e-01
      1.93086043e-01</_>
    <_>
      9.37693417e-02 7.20807537e-02 7.57405087e-02 9.97206420e-02
      1.94937095e-01 1.07857592e-01 1.03029482e-01 6.98229969e-02
      8.67991969e-02</_>
    <_>
      8.37191269e-02 5.62953390e-02 7.82657117e-02 1.58686087e-01
      1.82566762e-01 1.06607139e-01 5.37945218e-02 5.15720136e-02
      7.77106062e-02</_>
    <_>
      8.82097036e-02 7.13592917e-02 8.84912834e-02 1.12983629e-01
      2.18306139e-01 9.78671908e-02 4.81704697e-02 3.92318666e-02
      8.10936391e-02</_>
    <_>
      1.40639976e-01 4.43792269e-02 5.05057760e-02 6.75919130e-02
      2.09091738e-01 7.93937445e-02 5.99417165e-02 5.49042001e-02
      1.39901966e-01</_>
    <_>
      2.09665179e-01 6.77513257e-02 4.99806739e-02 4.29715440e-02
      1.12618312e-01 4.44669165e-02 4.98036556e-02 5.83723783e-02
      2.00497031e-01</_>
    <_>
      8.68758559e-02 4.11313809e-02 4.66438420e-02 6.32930100e-02
      2.36495122e-01 8.83583426e-02 6.11678809e-02 4.28307988e-02
      8.26320872e-02</_>
    <_>
      8.93767029e-02 2.18596216e-02 2.38497332e-02 4.73717526e-02
      1.99083582e-01 5.69818579e-02 3.47608253e-02 2.92678569e-02
      9.31995660e-02</_>
    <_>
      1.01178899e-01 3.32075283e-02 4.07986082e-02 6.01335205e-02
      1.95889622e-01 7.02403635e-02 4.32321168e-02 3.37849408e-02
      9.30949822e-02</_>
    <_>
      2.04100817e-01 4.99880053e-02 5.88603802e-02 5.31736650e-02
      1.06014811e-01 4.44339029e-02 4.35034074e-02 4.28932607e-02
      1.97443351e-01</_>
    <_>
      7.07753003e-02 3.97302136e-02 4.16060165e-02 8.42449516e-02
      2.47815400e-01 7.71995708e-02 3.83273363e-02 3.11077330e-02
      6.90699294e-02</_>
    <_>
      9.14360732e-02 6.13777936e-02 6.11788295e-02 1.07848287e-01
      2.20319077e-01 8.95731524e-02 7.03855753e-02 5.99462204e-02
      9.64981839e-02</_>
    <_>
      1.09124273e-01 7.02631399e-02 6.04491942e-02 9.21476558e-02
      2.17352256e-01 8.78787935e-02 5.36742061e-02 6.16440699e-02
      1.07126892e-01</_>
    <_>
      9.65721384e-02 4.76557277e-02 4.69715223e-02 5.46663851e-02
      1.88732237e-01 5.49996532e-02 4.58028950e-02 3.95369343e-02
      9.65079889e-02</_>
    <_>
      1.00839525e-01 5.09285443e-02 5.44957109e-02 8.37831721e-02
      2.42950976e-01 9.17542800e-02 5.44456989e-02 5.16932458e-02
      1.00689270e-01</_>
    <_>
      1.83202162e-01 7.34630749e-02 5.17209023e-02 7.63735101e-02
      1.44461140e-01 7.13843405e-02 4.66728844e-02 6.66528046e-02
      1.78101540e-01</_>
    <_>
      1.74245343e-01 5.44603206e-02 5.93344234e-02 7.10395649e-02
      1.69464916e-01 6.34958372e-02 4.44630198e-02 4.83703166e-02
      1.71562091e-01</_>
    <_>
      1.02189720e-01 5.34901395e-02 6.60187900e-02 1.18606560e-01
      2.32038632e-01 9.97855589e-02 5.62451370e-02 5.02903387e-02
      9.84755978e-02</_>
    <_>
      1.17649563e-01 5.45299798e-02 6.20423742e-02 8.65704715e-02
      2.11273611e-01 8.97757113e-02 5.27780429e-02 6.47431239e-02
      1.36711851e-01</_>
    <_>
      1.43551707e-01 5.45468740e-02 4.46737222e-02 7.36301094e-02
      2.18240827e-01 8.95650387e-02 4.69409190e-02 4.94524874e-02
      1.43033981e-01</_>
    <_>
      8.76568332e-02 8.92254859e-02 7.76345059e-02 9.25144404e-02
      1.57722056e-01 1.13559574e-01 1.06586218e-01 1.01335414e-01
      9.43641886e-02</_>
    <_>
      9.55323726e-02 5.78984208e-02 3.66009064e-02 8.65025222e-02
      2.38456607e-01 1.15582421e-01 5.42334095e-02 4.94658649e-02
      8.42007175e-02</_>
    <_>
      1.37274146e-01 1.04819588e-01 1.09792560e-01 8.90841782e-02
      9.62714031e-02 7.81963989e-02 8.63569975e-02 9.41674709e-02
      1.35779098e-01</_>
    <_>
      1.83608085e-01 1.35678321e-01 6.10878132e-02 5.05482033e-02
      8.31456184e-02 4.47540618e-02 6.01124167e-02 1.34319529e-01
      1.78238973e-01</_>
    <_>
      2.33658075e-01 8.52193013e-02 4.66725007e-02 3.15530524e-02
      9.50118452e-02 3.33925746e-02 4.19768728e-02 5.89824803e-02
      2.12772161e-01</_>
    <_>
      1.14742398e-01 5.47586158e-02 5.27326874e-02 1.06373556e-01
      2.19783485e-01 6.34415448e-02 5.06007373e-02 5.27694784e-02
      1.07515194e-01</_>
    <_>
      1.27731860e-01 4.83031720e-02 5.74827157e-02 7.93648511e-02
      2.13025391e-01 7.39721283e-02 4.73043881e-02 3.93129289e-02
      1.23729847e-01</_>
    <_>
      1.23112805e-01 6.78906739e-02 7.77758881e-02 1.29893243e-01
      2.07822993e-01 7.28982389e-02 4.60379869e-02 5.68195805e-02
      1.22591190e-01</_>
    <_>
      7.52234161e-02 4.84190397e-02 6.37922361e-02 1.18263945e-01
      2.59489328e-01 9.33363512e-02 5.46185374e-02 4.46027480e-02
      7.45738894e-02</_>
    <_>
      1.09204091e-01 5.58409430e-02 6.02120124e-02 8.94483626e-02
      2.39533663e-01 9.96625572e-02 5.51275760e-02 5.36923110e-02
      1.12419568e-01</_>
    <_>
      9.93362665e-02 8.00325647e-02 6.03745282e-02 8.18635300e-02
      2.66443461e-01 8.18335935e-02 5.27155809e-02 6.27349615e-02
      9.17889550e-02</_>
    <_>
      1.64684594e-01 9.51128826e-02 1.03127956e-01 6.50750250e-02
      1.21297486e-01 4.22259048e-02 4.72492538e-02 6.15543649e-02
      1.62076265e-01</_>
    <_>
      1.84131518e-01 7.08769634e-02 5.91887385e-02 5.62004000e-02
      9.05632302e-02 6.97877333e-02 8.71181265e-02 9.10631716e-02
      1.80094272e-01</_>
    <_>
      1.87922537e-01 1.17881961e-01 7.60469139e-02 5.13451807e-02
      7.09543377e-02 4.33216766e-02 6.39598221e-02 9.24361050e-02
      1.69117779e-01</_>
    <_>
      1.17330827e-01 5.56207001e-02 6.67359754e-02 7.74188861e-02
      2.54657954e-01 7.63153136e-02 5.48397861e-02 5.31264804e-02
      1.19627364e-01</_>
    <_>
      1.39529735e-01 4.02920358e-02 3.23292166e-02 6.84438348e-02
      2.32241079e-01 6.53566420e-02 3.69043499e-02 4.83323038e-02
      1.42885506e-01</_>
    <_>
      2.47388557e-01 5.78433238e-02 5.65714054e-02 5.47796600e-02
      5.85295819e-02 5.18887080e-02 6.63164183e-02 5.71017414e-02
      2.51464278e-01</_>
    <_>
      1.08609155e-01 4.87744473e-02 5.03265150e-02 7.11121857e-02
      2.40059331e-01 7.70383626e-02 5.47910146e-02 5.83459996e-02
      1.10862628e-01</_>
    <_>
      9.95060354e-02 7.99965709e-02 9.27191898e-02 1.19207025e-01
      2.08049625e-01 1.04823641e-01 6.53383806e-02 5.54025918e-02
      8.22784081e-02</_>
    <_>
      1.69830903e-01 1.52728871e-01 8.67063031e-02 6.20677322e-02
      1.16515078e-01 9.47866142e-02 8.39429051e-02 7.81761557e-02
      1.03925928e-01</_>
    <_>
      1.74360543e-01 1.53007522e-01 1.10079616e-01 5.71191646e-02
      8.57232437e-02 7.13739097e-02 8.15586075e-02 8.21394846e-02
      1.39763951e-01</_>
    <_>
      1.77611619e-01 1.29612967e-01 1.08261824e-01 6.57679066e-02
      9.85514820e-02 6.61789179e-02 8.80045220e-02 9.18434858e-02
      1.54320061e-01</_>
    <_>
      1.51070490e-01 1.04016528e-01 8.09940472e-02 9.01144296e-02
      1.06512569e-01 8.36328194e-02 8.05487335e-02 8.91175568e-02
      1.41835079e-01</_>
    <_>
      2.00985849e-01 5.96063584e-02 4.71978001e-02 5.85224032e-02
      1.49050981e-01 6.37746751e-02 3.51134948e-02 3.89124490e-02
      1.92047253e-01</_>
    <_>
      8.54025260e-02 8.27547759e-02 1.07370593e-01 1.08102903e-01
      1.58350974e-01 9.73607600e-02 1.13382503e-01 1.02550834e-01
      8.99838954e-02</_>
    <_>
      1.71927139e-01 7.36892745e-02 6.10463731e-02 5.99046163e-02
      1.05108395e-01 5.80413528e-02 6.54115155e-02 7.83434063e-02
      1.71637133e-01</_>
    <_>
      1.99121922e-01 1.00233190e-01 6.02309257e-02 5.44676036e-02
      8.70442167e-02 6.77123517e-02 5.88205867e-02 8.64850879e-02
      1.79454580e-01</_>
    <_>
      1.25864491e-01 1.37506410e-01 1.30846232e-01 8.13503489e-02
      1.27116680e-01 7.72745758e-02 8.64854753e-02 6.16820678e-02
      1.11026481e-01</_>
    <_>
      2.09554449e-01 1.17311448e-01 9.35548693e-02 4.11002412e-02
      7.33525008e-02 4.55536358e-02 6.07431680e-02 8.25165808e-02
      1.95975199e-01</_>
    <_>
      1.12998068e-01 5.23053706e-02 7.60251731e-02 8.88682231e-02
      2.21523717e-01 6.80476353e-02 5.93051277e-02 5.75564988e-02
      1.14614241e-01</_>
    <_>
      1.50034711e-01 8.30288231e-02 3.68037149e-02 8.49904194e-02
      2.50738561e-01 8.89015719e-02 2.22493652e-02 5.54834567e-02
      1.33242205e-01</_>
    <_>
      1.12224773e-01 6.78412467e-02 3.68464328e-02 1.11943759e-01
      2.64457703e-01 1.34656772e-01 5.20584770e-02 7.29955211e-02
      1.11972928e-01</_>
    <_>
      1.59002542e-01 1.29739314e-01 1.07136257e-01 1.01298295e-01
      1.20730221e-01 9.54724029e-02 8.85264501e-02 9.71570089e-02
      1.50063321e-01</_>
    <_>
      1.57610089e-01 9.06524137e-02 8.40692744e-02 5.85187748e-02
      9.00887325e-02 5.59115298e-02 6.40322939e-02 6.57864138e-02
      1.45753905e-01</_>
    <_>
      1.87533051e-01 8.72891173e-02 7.47917518e-02 6.59616739e-02
      1.05849050e-01 7.28932992e-02 7.61856660e-02 9.24822688e-02
      1.94477111e-01</_>
    <_>
      1.75644681e-01 7.77395070e-02 5.51369078e-02 6.64209053e-02
      1.24669321e-01 8.71062428e-02 6.11901544e-02 8.47735032e-02
      1.79746822e-01</_>
    <_>
      1.67401120e-01 1.12453789e-01 7.31048658e-02 6.08109497e-02
      9.19180065e-02 6.01247996e-02 8.01861212e-02 1.14124238e-01
      1.72068581e-01</_>
    <_>
      2.01082900e-01 1.83101967e-01 7.84784332e-02 2.57470999e-02
      7.56864399e-02 4.24830317e-02 7.62858465e-02 1.14757001e-01
      1.66437775e-01</_>
    <_>
      8.79216045e-02 1.06853157e-01 1.04811125e-01 1.02488607e-01
      2.13699013e-01 7.37215579e-02 8.69318396e-02 6.80274740e-02
      8.99293795e-02</_>
    <_>
      1.70719862e-01 1.24008387e-01 9.11026970e-02 6.20801449e-02
      1.00924738e-01 6.34549186e-02 1.02490552e-01 1.29528567e-01
      1.61963686e-01</_>
    <_>
      5.30800037e-02 4.10287194e-02 3.35319713e-02 1.07879572e-01
      2.95899838e-01 1.17091469e-01 3.02734952e-02 3.76449935e-02
      5.44390641e-02</_>
    <_>
      8.81613940e-02 5.63091300e-02 7.92492479e-02 1.03051730e-01
      1.56223983e-01 1.00902244e-01 1.35963842e-01 9.99063179e-02
      9.48567688e-02</_>
    <_>
      2.13936403e-01 1.35153756e-01 7.24917427e-02 4.55836505e-02
      6.20864332e-02 4.94108871e-02 7.24715069e-02 8.50397795e-02
      1.69285521e-01</_>
    <_>
      1.82237551e-01 4.66597527e-02 4.32003438e-02 6.75883889e-02
      1.55545741e-01 6.65631592e-02 5.26099652e-02 4.48627658e-02
      1.77629665e-01</_>
    <_>
      1.85957938e-01 5.41948602e-02 4.50939238e-02 6.11724332e-02
      1.51332304e-01 7.00757056e-02 4.31377776e-02 4.59068902e-02
      1.83966488e-01</_>
    <_>
      7.84791484e-02 3.97223271e-02 7.03119189e-02 1.06750824e-01
      1.80149779e-01 8.05937126e-02 6.69850707e-02 5.02618626e-02
      8.53436962e-02</_>
    <_>
      8.45551193e-02 6.50822744e-02 8.56991336e-02 1.62246153e-01
      1.78827032e-01 1.60228595e-01 9.24736261e-02 6.75404668e-02
      8.76798928e-02</_>
    <_>
      1.92931235e-01 1.00683101e-01 6.70118630e-02 6.30552024e-02
      8.90097544e-02 7.39383996e-02 8.56093392e-02 9.03184339e-02
      1.70829892e-01</_>
    <_>
      8.49229097e-02 7.34741613e-02 7.05578700e-02 1.03698641e-01
      2.15656489e-01 1.03844821e-01 7.32365102e-02 7.35576749e-02
      8.29599202e-02</_>
    <_>
      1.86629921e-01 5.77059872e-02 5.08811958e-02 5.01814485e-02
      9.32392254e-02 6.28877431e-02 6.98789805e-02 4.33953926e-02
      1.68786258e-01</_>
    <_>
      1.75399616e-01 1.20210811e-01 9.48492214e-02 5.23488745e-02
      9.88631397e-02 4.75946292e-02 6.91053718e-02 7.62533322e-02
      1.48529679e-01</_>
    <_>
      1.87736928e-01 6.37287423e-02 5.96245378e-02 5.28207272e-02
      9.80770439e-02 6.16674498e-02 7.81514049e-02 8.88862461e-02
      1.94143936e-01</_>
    <_>
      9.76940766e-02 7.29230791e-02 9.69143063e-02 8.76161605e-02
      1.87728703e-01 7.19814599e-02 5.76685369e-02 4.27011624e-02
      7.96955973e-02</_>
    <_>
      1.64418548e-01 1.08051285e-01 9.06107351e-02 9.67454761e-02
      1.27791345e-01 9.79883745e-02 9.34025720e-02 1.00790828e-01
      1.68955639e-01</_>
    <_>
      1.15400858e-01 3.80975157e-02 2.13262141e-02 7.58431777e-02
      2.98566639e-01 7.83808529e-02 2.01108642e-02 2.80916616e-02
      1.09421290e-01</_>
    <_>
      1.07001916e-01 1.09746419e-01 1.18199505e-01 5.63840345e-02
      1.46137536e-01 7.37676322e-02 1.32875308e-01 1.08614907e-01
      9.82804894e-02</_>
    <_>
      2.00752124e-01 1.40629083e-01 7.08670914e-02 4.81468625e-02
      8.46236795e-02 5.94075359e-02 5.82724996e-02 8.09174031e-02
      1.54302731e-01</_>
    <_>
      7.24492744e-02 8.53624046e-02 8.35828483e-02 9.83108506e-02
      2.30827883e-01 1.14726186e-01 9.20164362e-02 6.08851649e-02
      5.45478016e-02</_>
    <_>
      1.50223538e-01 1.04160570e-01 1.02259137e-01 4.21455093e-02
      1.59930095e-01 5.27575798e-02 8.40810016e-02 1.22269280e-01
      1.60316899e-01</_>
    <_>
      1.01961002e-01 8.42236280e-02 1.01920933e-01 1.22204803e-01
      1.92271188e-01 1.25935853e-01 1.04824230e-01 6.78985268e-02
      9.24485028e-02</_>
    <_>
      2.19465747e-01 6.32089004e-02 5.34578003e-02 5.39020784e-02
      9.15618464e-02 6.39640763e-02 6.30510077e-02 5.26542999e-02
      1.97816700e-01</_>
    <_>
      1.29079357e-01 3.57275791e-02 2.83562113e-02 6.66065291e-02
      2.48948708e-01 6.36095703e-02 3.89843322e-02 3.93179059e-02
      1.37461290e-01</_>
    <_>
      1.05535641e-01 1.09029599e-01 1.15644515e-01 1.22197881e-01
      1.87562928e-01 8.27784315e-02 5.42973727e-02 4.72824872e-02
      7.82332346e-02</_>
    <_>
      1.83030233e-01 8.86000842e-02 8.08271915e-02 4.89471592e-02
      1.17691167e-01 4.70883250e-02 5.71639761e-02 6.23282120e-02
      1.70057401e-01</_>
    <_>
      1.39475599e-01 1.33970022e-01 1.35218412e-01 1.21584177e-01
      1.35603011e-01 7.99698010e-02 8.63128677e-02 9.06027406e-02
      1.10584423e-01</_>
    <_>
      1.42407924e-01 1.41966477e-01 1.04837991e-01 5.48735708e-02
      6.98200390e-02 5.38083911e-02 1.42943352e-01 1.72068313e-01
      1.50637046e-01</_>
    <_>
      3.30026388e-01 3.09612975e-02 5.23267593e-03 7.09708268e-03
      5.58439409e-03 6.59086928e-03 5.73930750e-03 3.34857553e-02
      3.31178784e-01</_>
    <_>
      2.60824621e-01 8.52316394e-02 3.04179993e-02 4.28042151e-02
      4.90746163e-02 4.17402051e-02 2.87036281e-02 8.48297998e-02
      2.68785357e-01</_>
    <_>
      1.99015200e-01 4.96451445e-02 7.87753612e-02 1.14780299e-01
      1.53190300e-01 1.08118825e-01 6.44757822e-02 4.44905721e-02
      1.87453806e-01</_>
    <_>
      1.06208995e-01 8.96636546e-02 1.25891194e-01 4.50517647e-02
      4.13832515e-02 9.20669287e-02 1.83088034e-01 1.48087904e-01
      1.30159661e-01</_>
    <_>
      3.42612416e-01 1.79863367e-02 8.27105064e-03 1.78938048e-04
      3.69278924e-03 2.07319637e-04 8.39938316e-03 1.65098254e-02
      3.43563378e-01</_>
    <_>
      3.40817660e-01 1.12086264e-02 6.16389001e-03 3.33934161e-03
      6.70376839e-03 4.12090821e-03 6.70941919e-03 1.14105446e-02
      3.35449249e-01</_>
    <_>
      1.36388704e-01 1.58595532e-01 9.88806263e-02 6.79442808e-02
      8.89326930e-02 8.46752897e-02 9.33120623e-02 1.10264391e-01
      1.04370132e-01</_>
    <_>
      1.14800856e-01 1.20127253e-01 1.28295109e-01 9.67649892e-02
      1.43907994e-01 1.01408243e-01 1.08595707e-01 1.01029076e-01
      1.20596662e-01</_>
    <_>
      1.24597952e-01 6.73575476e-02 1.14448301e-01 1.23739056e-01
      1.42113715e-01 1.37018785e-01 1.07760124e-01 7.31307566e-02
      1.23099633e-01</_>
    <_>
      9.68754739e-02 4.69588563e-02 5.02496436e-02 7.46296719e-02
      2.43095636e-01 6.65642843e-02 4.60770652e-02 4.58829515e-02
      9.88510326e-02</_>
    <_>
      1.77006394e-01 5.64020053e-02 4.97718491e-02 5.49074337e-02
      1.14532843e-01 5.50834835e-02 5.01732603e-02 4.85304631e-02
      1.67227566e-01</_>
    <_>
      9.14235935e-02 4.89196330e-02 5.28555773e-02 1.29830986e-01
      2.26912782e-01 6.37461022e-02 4.55874503e-02 7.66167864e-02
      1.13179602e-01</_>
    <_>
      2.00883690e-02 0. 1.92708418e-01 1.68315500e-01 2.81374097e-01
      1.61582962e-01 1.92708403e-01 0. 2.00883690e-02</_>
    <_>
      1.88901678e-01 5.80086745e-02 6.63554668e-02 6.58827201e-02
      1.29450411e-01 7.13926181e-02 8.55854526e-02 8.12462121e-02
      1.80965573e-01</_>
    <_>
      8.99502039e-02 3.63415442e-02 3.70251425e-02 3.86069864e-02
      1.04407661e-01 3.52623500e-02 3.69434655e-02 3.38203199e-02
      8.80270302e-02</_>
    <_>
      1.83463469e-01 4.45060395e-02 3.90299894e-02 5.40480651e-02
      1.74507752e-01 4.77823205e-02 4.12483811e-02 4.40496616e-02
      1.82506591e-01</_>
    <_>
      9.37338844e-02 4.59217243e-02 5.24475351e-02 5.89894168e-02
      2.13138521e-01 5.50830774e-02 5.33535704e-02 4.69797663e-02
      9.35239568e-02</_>
    <_>
      1.14991307e-01 4.95815091e-02 3.54619697e-02 3.43901850e-02
      1.10570900e-01 3.86830792e-02 3.46309952e-02 4.08938266e-02
      1.13120772e-01</_>
    <_>
      7.78551847e-02 4.27211784e-02 5.20110540e-02 7.97519311e-02
      2.15055242e-01 1.47524178e-01 1.06729321e-01 5.20637967e-02
      7.59190992e-02</_>
    <_>
      1.50170818e-01 0. 0. 8.72818232e-02 4.23798472e-01 9.09186378e-02
      0. 0. 1.50170818e-01</_>
    <_>
      6.77846000e-02 3.38294134e-02 7.37924501e-02 8.62627178e-02
      2.41015717e-01 1.09750524e-01 7.17721581e-02 3.96299250e-02
      6.80927113e-02</_>
    <_>
      1.54405192e-01 1.18539311e-01 1.06364734e-01 5.99834546e-02
      9.47986767e-02 6.58090636e-02 9.47715417e-02 1.01598687e-01
      1.52149662e-01</_>
    <_>
      8.70305449e-02 6.29803836e-02 9.51864719e-02 1.18084393e-01
      2.00282365e-01 7.83687308e-02 6.84715435e-02 6.17692284e-02
      8.52995440e-02</_>
    <_>
      1.00098811e-01 8.09324682e-02 8.93563256e-02 1.03555940e-01
      1.40066057e-01 8.47308338e-02 9.38357189e-02 7.91689828e-02
      9.64326859e-02</_>
    <_>
      2.18984231e-01 1.26350507e-01 7.57674724e-02 7.49670640e-02
      1.07233055e-01 6.26595244e-02 5.04996777e-02 5.96599095e-02
      1.68727592e-01</_>
    <_>
      7.98760429e-02 9.29124877e-02 1.29234269e-01 7.56013244e-02
      1.59907669e-01 7.49033839e-02 1.09345771e-01 8.32110420e-02
      6.52435794e-02</_>
    <_>
      7.81398416e-02 6.35964945e-02 1.08895250e-01 9.79297310e-02
      2.47521356e-01 8.36268365e-02 8.20305124e-02 7.14695603e-02
      7.89361671e-02</_>
    <_>
      5.99004030e-02 4.01318781e-02 6.98971823e-02 7.13035166e-02
      2.84951955e-01 8.27322751e-02 6.26240969e-02 2.65370235e-02
      5.86633533e-02</_>
    <_>
      8.98952261e-02 5.97672462e-02 8.27125087e-02 1.16355240e-01
      2.10008815e-01 8.06165636e-02 7.70040303e-02 7.24819452e-02
      8.49741250e-02</_>
    <_>
      4.42878753e-02 3.17709558e-02 3.54585983e-02 1.14370994e-01
      3.13760400e-01 1.13797463e-01 3.99424210e-02 2.96241660e-02
      4.14749868e-02</_>
    <_>
      2.05874946e-02 2.72184052e-02 8.04882869e-02 1.62515789e-01
      3.39567840e-01 1.55697614e-01 9.33628380e-02 2.19442360e-02
      1.87431090e-02</_>
    <_>
      1.00621797e-01 9.72522497e-02 1.19480364e-01 1.00074433e-01
      1.62008241e-01 7.18310997e-02 9.08484086e-02 8.21949914e-02
      1.00621797e-01</_>
    <_>
      7.06115216e-02 3.55154425e-02 5.10644913e-02 8.56695250e-02
      2.11280286e-01 6.72359839e-02 5.04247099e-02 3.10636479e-02
      6.42632842e-02</_>
    <_>
      1.12192497e-01 3.49161215e-02 4.68178540e-02 8.94867107e-02
      2.55169570e-01 8.50929692e-02 4.60894257e-02 2.76582558e-02
      1.11602098e-01</_>
    <_>
      1.03466511e-02 4.14634636e-03 1.76060442e-02 1.25910819e-01
      4.16314483e-01 1.14802726e-01 1.87786240e-02 5.52846165e-03
      1.04671828e-02</_>
    <_>
      1.80761799e-01 1.12769701e-01 9.02525410e-02 6.50950149e-02
      8.95733535e-02 7.92646408e-02 1.13193542e-01 1.49772123e-01
      2.00307578e-01</_>
    <_>
      1.85013577e-01 6.26183823e-02 6.74176887e-02 5.70749082e-02
      1.04174338e-01 5.40601015e-02 5.93676530e-02 6.49584308e-02
      1.85220763e-01</_>
    <_>
      8.85835811e-02 3.36481296e-02 5.62853888e-02 1.13477483e-01
      2.20950857e-01 1.05959937e-01 8.72041136e-02 5.19648269e-02
      1.04459092e-01</_>
    <_>
      1.21055581e-01 9.85414982e-02 9.95308086e-02 9.42789316e-02
      1.29744589e-01 8.68863836e-02 8.87692273e-02 9.05795619e-02
      1.19400702e-01</_>
    <_>
      5.69897555e-02 6.48941770e-02 1.07213221e-01 1.05671503e-01
      1.60363227e-01 1.33158028e-01 1.08885974e-01 6.30934909e-02
      4.80488986e-02</_>
    <_>
      6.86541498e-02 7.21437261e-02 1.01683550e-01 9.37979594e-02
      1.76883131e-01 1.01636596e-01 1.03663675e-01 6.50755540e-02
      6.43150881e-02</_>
    <_>
      9.79662389e-02 9.51691121e-02 1.32062629e-01 6.30883425e-02
      1.85138017e-01 7.13625997e-02 1.06737174e-01 1.13951631e-01
      1.01072609e-01</_>
    <_>
      1.86316416e-01 1.10277750e-01 7.30079710e-02 1.95302237e-02
      5.36208898e-02 1.41151976e-02 5.67879751e-02 1.24659173e-01
      2.00427696e-01</_>
    <_>
      1.01575486e-01 5.99065274e-02 1.10409178e-01 1.13316834e-01
      2.28738591e-01 9.31097344e-02 6.13299720e-02 4.41555195e-02
      1.02983683e-01</_>
    <_>
      1.69565544e-01 6.46545589e-02 4.25958671e-02 4.44294102e-02
      1.05525024e-01 4.35383804e-02 3.51123586e-02 5.25949299e-02
      1.55410185e-01</_>
    <_>
      7.87089579e-03 0. 1.43737674e-01 1.52433902e-01 3.08790803e-01
      1.51506186e-01 1.45745918e-01 0. 7.87089579e-03</_>
    <_>
      8.47656280e-02 5.58030829e-02 5.33333905e-02 7.03994706e-02
      2.80607015e-01 7.73783028e-02 5.49581647e-02 5.38213849e-02
      8.05658177e-02</_>
    <_>
      1.00006901e-01 8.25036392e-02 1.19700372e-01 1.23593003e-01
      1.48945913e-01 1.14230633e-01 8.07354152e-02 5.47926724e-02
      9.77776572e-02</_>
    <_>
      1.43180653e-01 9.49609652e-02 9.29990336e-02 1.23304158e-01
      1.87288970e-01 1.06521279e-01 8.88375938e-02 9.42917392e-02
      1.37003422e-01</_>
    <_>
      8.10345337e-02 5.36745004e-02 9.49347019e-02 1.18564509e-01
      2.05313563e-01 8.04247856e-02 5.61496131e-02 4.63293344e-02
      7.66127110e-02</_>
    <_>
      1.03715442e-01 9.27044451e-02 1.19164921e-01 9.29808170e-02
      1.30544752e-01 9.05088410e-02 1.29334167e-01 9.71369445e-02
      1.09142326e-01</_>
    <_>
      6.43296018e-02 6.70231581e-02 7.50119910e-02 1.28487393e-01
      2.41300181e-01 1.20403141e-01 6.42832741e-02 7.20406100e-02
      7.65674040e-02</_>
    <_>
      7.42096081e-02 3.73593718e-02 4.51299511e-02 1.20587483e-01
      2.57267922e-01 1.39123112e-01 6.88144788e-02 3.67072113e-02
      7.31904656e-02</_>
    <_>
      1.98971599e-01 2.32292693e-02 2.83267144e-02 4.11157794e-02
      1.57017335e-01 3.91221419e-02 1.75766107e-02 2.40106620e-02
      2.10606217e-01</_>
    <_>
      1.92528531e-01 1.23627692e-01 8.04650933e-02 4.09207866e-02
      6.17774948e-02 4.26908731e-02 6.93394318e-02 9.62106809e-02
      1.79501489e-01</_>
    <_>
      1.92737371e-01 7.91703314e-02 6.12177178e-02 4.85267974e-02
      1.08252198e-01 6.24442510e-02 6.58280030e-02 8.32920596e-02
      1.81713969e-01</_>
    <_>
      8.83272737e-02 9.23005193e-02 1.06470071e-01 9.94482711e-02
      1.81610957e-01 8.59383196e-02 8.19253623e-02 5.63828200e-02
      7.49370456e-02</_>
    <_>
      1.96908429e-01 1.04771338e-01 6.75177872e-02 8.21882412e-02
      1.14990056e-01 6.83998615e-02 5.55729270e-02 1.02925532e-01
      1.85310215e-01</_>
    <_>
      1.73170507e-01 9.84451473e-02 7.37405196e-02 7.49664977e-02
      1.20474510e-01 6.52300194e-02 6.33611903e-02 6.30632266e-02
      1.50367185e-01</_>
    <_>
      1.63556263e-01 9.05948579e-02 9.36542824e-02 1.07645638e-01
      1.07004613e-01 7.92592540e-02 7.43619055e-02 7.85718113e-02
      1.64644390e-01</_>
    <_>
      2.72682607e-01 5.66861872e-03 0. 2.92599350e-02 2.05636099e-01
      2.70591434e-02 0. 7.55815860e-03 2.75983453e-01</_>
    <_>
      6.01287819e-02 7.77643397e-02 9.42408741e-02 9.60923359e-02
      2.32416555e-01 8.94458294e-02 7.51230046e-02 5.53003810e-02
      5.76546304e-02</_>
    <_>
      1.03040166e-01 9.36530679e-02 1.23428151e-01 1.38441384e-01
      1.47088498e-01 1.57217115e-01 1.27384663e-01 9.98666137e-02
      1.08748451e-01</_>
    <_>
      1.66048676e-01 5.68405464e-02 5.18004596e-02 7.24633113e-02
      1.91255674e-01 6.81351796e-02 5.43166772e-02 5.98931685e-02
      1.64908439e-01</_>
    <_>
      6.68862984e-02 4.66568694e-02 7.62129426e-02 1.12352245e-01
      2.25052476e-01 5.21286950e-02 3.63702811e-02 3.36920135e-02
      6.45316988e-02</_>
    <_>
      1.45148546e-01 5.43861128e-02 1.04077328e-02 6.37488067e-02
      2.71295160e-01 6.95903525e-02 1.15145463e-02 4.60198782e-02
      1.49964795e-01</_>
    <_>
      9.03116390e-02 5.51219881e-02 8.40413198e-02 1.13769069e-01
      1.88648671e-01 9.75336656e-02 8.97201002e-02 5.68890646e-02
      7.99910128e-02</_>
    <_>
      1.51270404e-01 1.25897154e-01 6.58590496e-02 5.13785370e-02
      1.18758589e-01 5.26751876e-02 6.01956248e-02 7.58098289e-02
      1.13514833e-01</_>
    <_>
      1.86491534e-01 9.05995965e-02 8.64139646e-02 6.20052479e-02
      8.13306123e-02 5.61294034e-02 8.54567289e-02 8.93396065e-02
      1.84600905e-01</_>
    <_>
      4.86986749e-02 6.07215427e-02 1.01358540e-01 1.05585158e-01
      1.67670295e-01 1.09640755e-01 1.35921761e-01 8.22342709e-02
      5.36515526e-02</_>
    <_>
      1.97316363e-01 1.24195874e-01 9.82986689e-02 8.63715410e-02
      1.12067610e-01 7.95716867e-02 9.69777256e-02 1.16774671e-01
      1.85950071e-01</_>
    <_>
      1.35826856e-01 9.23165902e-02 8.10123235e-02 1.05481148e-01
      1.38005346e-01 1.21317551e-01 1.33505628e-01 1.19943202e-01
      1.43831760e-01</_>
    <_>
      8.46033469e-02 9.90101323e-02 1.28946468e-01 1.00152649e-01
      1.47378325e-01 8.82774442e-02 9.31305811e-02 7.79403523e-02
      8.20532590e-02</_>
    <_>
      2.34098032e-01 9.89463851e-02 3.79890613e-02 2.57464275e-02
      5.96567839e-02 2.56262869e-02 4.58918735e-02 9.07419622e-02
      2.16599002e-01</_>
    <_>
      6.55196086e-02 4.69383933e-02 8.08667839e-02 8.45514312e-02
      2.04352006e-01 6.01903871e-02 3.86901386e-02 2.56462172e-02
      6.26238659e-02</_>
    <_>
      1.92576289e-01 1.00156702e-01 4.52573895e-02 7.05190152e-02
      9.42477584e-02 9.18541476e-02 6.12399280e-02 7.87263215e-02
      1.74775735e-01</_>
    <_>
      2.39222661e-01 5.91967516e-02 5.50941043e-02 2.70660389e-02
      8.90882760e-02 3.97611186e-02 5.84672503e-02 6.44026697e-02
      2.39496782e-01</_>
    <_>
      1.19861737e-01 3.95475402e-02 5.61570600e-02 4.91753519e-02
      2.12965205e-01 6.43400252e-02 5.45870736e-02 5.60192615e-02
      1.21173009e-01</_>
    <_>
      1.07125044e-01 1.20325722e-01 1.23943552e-01 7.27863386e-02
      1.16620891e-01 7.56690949e-02 1.18373483e-01 1.07087247e-01
      1.00489341e-01</_>
    <_>
      1.45265058e-01 1.60527989e-01 6.96601942e-02 2.93422937e-02
      9.52798948e-02 3.13398354e-02 9.62130055e-02 1.89268336e-01
      1.46092996e-01</_>
    <_>
      1.85740948e-01 8.76423419e-02 5.07033877e-02 5.48513085e-02
      1.15798198e-01 6.11599088e-02 6.34407327e-02 7.44915903e-02
      1.67628542e-01</_>
    <_>
      1.70769855e-01 1.62834838e-01 1.76562712e-01 9.10396799e-02
      4.33095545e-02 9.24215168e-02 1.77710563e-01 1.62774667e-01
      1.65741190e-01</_>
    <_>
      7.70344883e-02 6.80854917e-02 1.63767084e-01 1.47724450e-01
      1.72118932e-01 7.49012977e-02 9.11007971e-02 4.97631431e-02
      7.67847672e-02</_>
    <_>
      9.24655348e-02 7.83591047e-02 1.14958152e-01 1.08767599e-01
      2.03024194e-01 5.63017391e-02 5.52217029e-02 4.08566371e-02
      8.78970549e-02</_>
    <_>
      1.37274683e-01 8.34121332e-02 6.16221242e-02 4.63296175e-02
      9.59249660e-02 6.01425096e-02 7.02055469e-02 1.24289922e-01
      1.76345184e-01</_>
    <_>
      8.94040614e-03 1.98515016e-03 2.18830649e-02 1.82316676e-01
      3.54408354e-01 1.85318306e-01 2.04259213e-02 2.14840006e-03
      9.83740110e-03</_>
    <_>
      7.55513236e-02 6.05306141e-02 7.52179995e-02 7.98827335e-02
      2.30562955e-01 9.16672200e-02 6.95644468e-02 7.04540089e-02
      9.27723050e-02</_>
    <_>
      1.68446317e-01 1.06221274e-01 1.02787249e-01 4.87392135e-02
      7.49472827e-02 3.93486582e-02 4.83654626e-02 6.07203990e-02
      1.49514586e-01</_>
    <_>
      1.62644818e-01 1.16929956e-01 1.04741342e-01 1.18002102e-01
      1.09408334e-01 1.12449721e-01 1.07833542e-01 1.14314213e-01
      1.39059901e-01</_>
    <_>
      9.14242715e-02 4.92723733e-02 8.14647004e-02 1.31736323e-01
      1.93470851e-01 1.21250235e-01 5.98903224e-02 5.49668372e-02
      9.38460082e-02</_>
    <_>
      8.74857754e-02 2.80143507e-02 5.95374182e-02 8.02167952e-02
      2.18165785e-01 7.26868883e-02 6.68337718e-02 4.21148017e-02
      8.46373141e-02</_>
    <_>
      1.02104023e-01 7.78092220e-02 1.19457446e-01 9.67144370e-02
      1.29436493e-01 9.77610275e-02 1.09947048e-01 9.08028334e-02
      1.08885303e-01</_>
    <_>
      1.73439145e-01 5.44551350e-02 4.55774218e-02 7.69312009e-02
      1.73442781e-01 6.82576448e-02 4.16894481e-02 4.93139364e-02
      1.64956018e-01</_>
    <_>
      1.46873534e-01 4.75957170e-02 4.31327038e-02 6.89696819e-02
      2.09856644e-01 8.69389698e-02 5.25478050e-02 5.96974641e-02
      1.34990394e-01</_>
    <_>
      1.46787837e-01 5.22861704e-02 6.23905659e-02 8.29092860e-02
      2.02049673e-01 7.88688883e-02 4.62229140e-02 4.18276526e-02
      1.35922953e-01</_>
    <_>
      1.84112176e-01 3.59012783e-02 3.77431586e-02 3.01788598e-02
      1.04859486e-01 3.47120352e-02 3.99256870e-02 4.80359234e-02
      1.90968424e-01</_>
    <_>
      3.05566639e-01 2.42149234e-02 0. 0. 2.56919026e-01 0. 0.
      2.32464280e-02 2.74303705e-01</_>
    <_>
      1.08559571e-01 1.87503770e-02 4.52404134e-02 1.28176019e-01
      2.64453560e-01 1.43000633e-01 4.13028039e-02 2.02093981e-02
      1.09796003e-01</_>
    <_>
      1.29092410e-01 8.41827244e-02 7.73282722e-02 9.85541940e-02
      1.97626725e-01 7.94550553e-02 4.79819402e-02 5.26316576e-02
      1.20495692e-01</_>
    <_>
      1.20619081e-01 4.59142625e-02 5.07004485e-02 1.00972749e-01
      2.09791213e-01 6.29247576e-02 6.47837594e-02 5.46559729e-02
      1.27169564e-01</_>
    <_>
      2.26906419e-01 8.40084776e-02 4.56665903e-02 2.16319375e-02
      8.59000534e-02 2.13967245e-02 4.63192537e-02 7.28243813e-02
      2.22514197e-01</_>
    <_>
      8.82989466e-02 3.58073525e-02 5.48788905e-02 7.64756203e-02
      1.19892478e-01 5.41949160e-02 4.73440476e-02 3.60397622e-02
      9.33476686e-02</_>
    <_>
      8.94444287e-02 9.02531072e-02 1.08011208e-01 1.54252917e-01
      2.17229709e-01 1.25980467e-01 7.07008839e-02 6.54920638e-02
      7.75574446e-02</_>
    <_>
      1.25856638e-01 7.85186142e-02 8.09618831e-02 8.51553231e-02
      1.84945062e-01 1.13169089e-01 1.02926746e-01 8.10204446e-02
      1.20498784e-01</_>
    <_>
      6.82242140e-02 8.42950568e-02 1.08566962e-01 1.00552224e-01
      2.02300563e-01 7.53169879e-02 7.29199722e-02 5.44615574e-02
      6.64627627e-02</_>
    <_>
      2.03516528e-01 4.98157665e-02 3.74608263e-02 3.19297202e-02
      2.09475130e-01 5.16293049e-02 5.04847281e-02 7.18319342e-02
      2.11379364e-01</_>
    <_>
      6.27020597e-02 6.55156076e-02 1.04390576e-01 1.10657617e-01
      2.22187430e-01 9.45689678e-02 7.68775940e-02 5.83698079e-02
      6.26061261e-02</_>
    <_>
      2.14645535e-01 6.99950382e-02 3.98787558e-02 2.15829015e-02
      4.61033285e-02 4.55539078e-02 7.11568817e-02 1.29708320e-01
      2.50351429e-01</_>
    <_>
      1.03559628e-01 8.57888088e-02 1.09125234e-01 1.31142780e-01
      2.00766444e-01 1.13696650e-01 8.42861757e-02 7.64371380e-02
      1.03047743e-01</_>
    <_>
      8.82779732e-02 1.22010961e-01 1.24218926e-01 5.36180250e-02
      1.63814113e-01 4.99101765e-02 1.15365282e-01 1.26077414e-01
      9.10617113e-02</_>
    <_>
      2.14597508e-01 1.04963124e-01 7.33705983e-02 6.61935098e-03
      8.77608582e-02 4.15761210e-03 4.80894893e-02 9.85709652e-02
      1.95924446e-01</_>
    <_>
      1.60647333e-01 1.00461215e-01 6.68723434e-02 5.07993177e-02
      1.36946902e-01 4.52231243e-02 4.96710315e-02 6.71786815e-02
      1.45584673e-01</_>
    <_>
      1.63154364e-01 4.25829850e-02 3.95047516e-02 7.82525912e-02
      1.93937778e-01 7.01243356e-02 4.41792235e-02 4.94178310e-02
      1.70368537e-01</_>
    <_>
      1.10329352e-01 8.35580900e-02 8.72792229e-02 1.09302372e-01
      2.05814481e-01 1.14678316e-01 1.03746876e-01 8.51765722e-02
      1.03283025e-01</_>
    <_>
      1.99386418e-01 1.38311595e-01 3.86001505e-02 6.48795664e-02
      1.56553984e-01 8.13224688e-02 4.87668104e-02 1.10250078e-01
      1.88052297e-01</_>
    <_>
      8.44181925e-02 4.93052080e-02 7.39064664e-02 8.94475505e-02
      2.40314975e-01 9.99683589e-02 7.24444687e-02 4.98532988e-02
      9.03009698e-02</_>
    <_>
      7.67009035e-02 9.74235162e-02 1.24672346e-01 1.03949293e-01
      1.36254296e-01 1.18248329e-01 1.14000507e-01 5.77467233e-02
      6.46804422e-02</_>
    <_>
      2.33873576e-02 4.88803955e-04 1.46268203e-03 2.92441547e-02
      4.74887013e-01 2.98190173e-02 1.95024302e-03 6.51738606e-04
      1.90226156e-02</_>
    <_>
      5.45245148e-02 3.47210616e-02 8.26587155e-02 1.33827969e-01
      2.58894891e-01 1.36527240e-01 6.51928112e-02 4.19337414e-02
      5.73811345e-02</_>
    <_>
      9.37321186e-02 5.37958220e-02 7.73329362e-02 7.89573640e-02
      1.44495696e-01 1.31182417e-01 1.47925705e-01 7.07024634e-02
      9.50134099e-02</_>
    <_>
      2.32724950e-01 1.18445732e-01 6.56986907e-02 5.05087562e-02
      8.23953226e-02 4.04483154e-02 4.46408987e-02 5.09473793e-02
      1.78846166e-01</_>
    <_>
      1.94358885e-01 8.08127448e-02 8.77847150e-02 7.13053569e-02
      1.12213679e-01 7.89552554e-02 7.50634894e-02 6.31436706e-02
      1.90752298e-01</_>
    <_>
      1.05290696e-01 5.23907840e-02 7.24639148e-02 9.99366790e-02
      1.90100312e-01 7.21164048e-02 7.02705011e-02 6.94341213e-02
      1.22478798e-01</_>
    <_>
      2.14523062e-01 8.97776410e-02 6.82861432e-02 2.36027483e-02
      5.63483462e-02 2.25184895e-02 5.20041622e-02 7.66129568e-02
      2.19414726e-01</_>
    <_>
      1.12391330e-01 5.36345132e-02 6.82667941e-02 1.16122924e-01
      2.11438611e-01 7.94352442e-02 6.79114386e-02 4.57768813e-02
      9.82319117e-02</_>
    <_>
      1.26506351e-02 1.53699107e-02 8.55133832e-02 2.38400519e-01
      3.16730767e-01 1.70089513e-01 4.29989770e-02 2.00175326e-02
      1.24482540e-02</_>
    <_>
      1.87103391e-01 9.36876237e-02 1.54451400e-01 6.32452816e-02
      1.62048951e-01 6.15572706e-02 1.44510135e-01 9.45038795e-02
      1.87675729e-01</_>
    <_>
      1.81319058e-01 3.28051373e-02 4.01152186e-02 7.51864314e-02
      1.61894232e-01 7.28340596e-02 4.66067418e-02 4.39312160e-02
      1.77619129e-01</_>
    <_>
      1.12128049e-01 4.26221304e-02 4.03630659e-02 9.35178548e-02
      1.98015898e-01 5.09677008e-02 4.03630063e-02 4.32774797e-02
      1.08640783e-01</_>
    <_>
      1.60298139e-01 4.83822525e-02 4.89589386e-02 4.85840179e-02
      1.77461073e-01 5.49503751e-02 5.01143411e-02 4.94511314e-02
      1.63528755e-01</_>
    <_>
      7.24369437e-02 2.45877765e-02 4.72676605e-02 9.53966528e-02
      1.98346883e-01 4.97396477e-02 3.31054255e-02 3.46395783e-02
      9.21951234e-02</_>
    <_>
      9.29487571e-02 4.87763286e-02 6.51271641e-02 1.07934579e-01
      2.06368715e-01 1.14684388e-01 6.56209439e-02 4.46523577e-02
      8.71119946e-02</_>
    <_>
      2.08053589e-01 1.72750831e-01 9.21956375e-02 5.68517074e-02
      8.25147703e-02 4.97817248e-02 5.89612275e-02 1.10722356e-01
      1.57284603e-01</_>
    <_>
      8.10648203e-02 5.37474528e-02 6.35122359e-02 8.75617415e-02
      2.11548209e-01 1.36052310e-01 9.05205682e-02 5.37007563e-02
      7.41683319e-02</_>
    <_>
      2.04501212e-01 7.52046183e-02 6.31735027e-02 1.65283456e-02
      4.34698202e-02 2.27983203e-02 8.73925015e-02 9.71842110e-02
      2.07980096e-01</_>
    <_>
      5.02103753e-02 7.87496939e-03 8.36436450e-02 1.27135679e-01
      2.65661061e-01 1.34289593e-01 9.77656916e-02 1.57201383e-02
      4.74276319e-02</_>
    <_>
      7.73580745e-02 7.28410110e-02 1.08599700e-01 1.29335672e-01
      1.86384439e-01 8.57406631e-02 6.20386079e-02 6.03871867e-02
      7.38938451e-02</_>
    <_>
      9.28291604e-02 6.87760189e-02 1.29746631e-01 1.13605425e-01
      1.55964002e-01 8.23244005e-02 8.60867277e-02 5.36363795e-02
      8.94156471e-02</_>
    <_>
      8.39329287e-02 5.00292890e-02 6.35303035e-02 6.87619597e-02
      2.39648297e-01 1.01947889e-01 6.68415874e-02 3.59492414e-02
      7.79545531e-02</_>
    <_>
      8.61383975e-02 8.99385661e-02 1.24506876e-01 1.02515735e-01
      1.44155651e-01 7.77676925e-02 8.01079497e-02 7.33467862e-02
      9.23525020e-02</_>
    <_>
      6.95048496e-02 3.12200077e-02 4.73762192e-02 1.58819154e-01
      2.89508700e-01 7.61886761e-02 4.35111709e-02 2.47015897e-02
      6.80627450e-02</_>
    <_>
      1.03738502e-01 5.77425100e-02 6.07762970e-02 7.56029040e-02
      2.24180788e-01 7.57005289e-02 5.33612520e-02 5.06098345e-02
      1.01017609e-01</_>
    <_>
      7.59733394e-02 8.27315301e-02 1.01373300e-01 8.60903934e-02
      1.54227659e-01 1.32279336e-01 1.11200966e-01 4.81474660e-02
      7.26650059e-02</_>
    <_>
      1.09515205e-01 2.74456907e-02 3.55009809e-02 8.89998749e-02
      3.02454442e-01 9.69774202e-02 2.22532917e-02 2.74494793e-02
      1.18783347e-01</_>
    <_>
      3.33831787e-01 9.49234702e-03 7.96783192e-04 3.04289977e-04
      2.49854214e-02 3.81263089e-04 1.20537181e-03 1.26364185e-02
      3.46501499e-01</_>
    <_>
      2.01889053e-01 6.70997426e-02 5.91737404e-02 5.80348223e-02
      8.89383554e-02 4.84944806e-02 7.16039389e-02 1.00703202e-01
      2.16629654e-01</_>
    <_>
      1.76136121e-01 1.83260992e-01 1.45923480e-01 8.31064954e-02
      1.05132103e-01 6.74082264e-02 5.56749366e-02 6.45657480e-02
      9.93578583e-02</_>
    <_>
      1.74840972e-01 6.01736270e-02 5.63163795e-02 5.39873615e-02
      1.26306370e-01 4.88685258e-02 5.06434217e-02 5.62658310e-02
      1.60624534e-01</_>
    <_>
      2.87554562e-01 2.30179783e-02 1.20394025e-02 1.55501189e-02
      1.15539670e-01 1.49072837e-02 1.39768776e-02 2.51240470e-02
      2.97532350e-01</_>
    <_>
      1.40613601e-01 9.80067402e-02 8.24230835e-02 1.49105176e-01
      1.76031396e-01 1.53711691e-01 7.69068524e-02 7.59257376e-02
      1.40590832e-01</_>
    <_>
      1.65200174e-01 1.28052682e-01 6.39100373e-02 8.88092890e-02
      1.34938672e-01 1.04671866e-01 6.86987489e-02 1.19894795e-01
      1.92398891e-01</_>
    <_>
      1.09002456e-01 9.80985165e-02 1.33571029e-01 1.13863848e-01
      1.10531874e-01 8.93409103e-02 1.07357331e-01 7.78294727e-02
      1.02156557e-01</_>
    <_>
      1.00346796e-01 6.92453012e-02 6.76313117e-02 1.05532981e-01
      2.04400748e-01 9.26850364e-02 5.73977008e-02 6.77217618e-02
      9.97204557e-02</_>
    <_>
      2.31774732e-01 5.11769056e-02 3.48666832e-02 3.88819575e-02
      1.20446034e-01 3.70813012e-02 2.71450989e-02 3.87813635e-02
      2.22579151e-01</_>
    <_>
      1.91975072e-01 1.24093682e-01 9.93247405e-02 1.11902468e-01
      1.07063286e-01 1.13593966e-01 9.26761925e-02 1.02663957e-01
      1.84469149e-01</_>
    <_>
      3.00404012e-01 4.94274087e-02 1.13367587e-02 1.70564950e-02
      3.33240554e-02 1.02494266e-02 6.50215661e-03 5.23143373e-02
      2.89480537e-01</_>
    <_>
      8.41287896e-02 3.59396674e-02 2.63781454e-02 7.96348229e-02
      2.60225177e-01 9.70974267e-02 4.97021787e-02 4.73421514e-02
      8.50177184e-02</_>
    <_>
      1.43213332e-01 9.36603546e-02 6.22740425e-02 9.23934653e-02
      1.99495032e-01 8.64561200e-02 4.87594791e-02 4.64272536e-02
      1.16646461e-01</_>
    <_>
      1.11230977e-01 3.35933976e-02 2.59005930e-02 7.42201731e-02
      2.84396231e-01 7.67947137e-02 2.08636392e-02 2.75205001e-02
      1.11077659e-01</_>
    <_>
      1.16858765e-01 5.55427186e-02 5.12416288e-02 8.79634097e-02
      2.30142504e-01 8.55980963e-02 5.11511639e-02 6.17881417e-02
      1.18829191e-01</_>
    <_>
      1.74655005e-01 8.31632465e-02 6.00013100e-02 4.42826338e-02
      1.11437954e-01 6.26912192e-02 8.39122236e-02 1.00839227e-01
      1.64644673e-01</_>
    <_>
      8.98253247e-02 7.19312429e-02 7.17464462e-02 1.57465786e-01
      2.03063160e-01 1.26390278e-01 6.80112764e-02 6.05535321e-02
      8.73373300e-02</_>
    <_>
      1.49677962e-01 9.11819041e-02 9.94054228e-02 1.56436607e-01
      1.82576656e-01 1.51911542e-01 8.61716047e-02 8.67988244e-02
      1.45598456e-01</_>
    <_>
      8.33719894e-02 7.11043626e-02 1.06602505e-01 1.37215674e-01
      1.79295510e-01 1.11346051e-01 9.96264070e-02 7.01016411e-02
      7.79811218e-02</_>
    <_>
      7.26114288e-02 8.36222246e-02 1.26859471e-01 1.21332921e-01
      2.01216727e-01 1.13912985e-01 6.32006526e-02 5.62916994e-02
      7.54552111e-02</_>
    <_>
      2.79252648e-01 4.82794307e-02 1.97351538e-02 0. 1.63409457e-01 0.
      1.48013616e-02 3.12993266e-02 2.92225182e-01</_>
    <_>
      1.16198286e-01 4.34224196e-02 4.97356057e-02 4.65210117e-02
      1.09495558e-01 3.53872143e-02 4.54691015e-02 4.28557172e-02
      1.18789598e-01</_>
    <_>
      7.43585676e-02 7.56998137e-02 1.11885183e-01 1.02770478e-01
      1.51200607e-01 1.21843748e-01 9.74489078e-02 5.66752255e-02
      7.49233961e-02</_>
    <_>
      6.92128688e-02 4.29391600e-02 5.50254062e-02 1.18495144e-01
      2.40675777e-01 1.10703640e-01 5.08337580e-02 5.30292243e-02
      8.55239183e-02</_>
    <_>
      2.00540274e-01 7.65057877e-02 5.38216792e-02 3.64146046e-02
      6.11838065e-02 4.65623178e-02 5.48067987e-02 8.76239836e-02
      2.13381290e-01</_>
    <_>
      1.89438254e-01 4.65950258e-02 4.68580015e-02 3.93470116e-02
      1.14271685e-01 3.20489034e-02 3.34825478e-02 3.24728489e-02
      1.74364731e-01</_>
    <_>
      1.21286057e-01 7.42253363e-02 9.73459110e-02 7.05597028e-02
      1.06126964e-01 8.17933008e-02 1.19557135e-01 1.07430756e-01
      1.30214095e-01</_>
    <_>
      9.82981175e-02 6.17449097e-02 7.87299722e-02 9.01820734e-02
      2.21517608e-01 8.39084238e-02 6.34646416e-02 4.95935529e-02
      8.65711644e-02</_>
    <_>
      1.96042284e-01 5.30141555e-02 5.59349395e-02 4.03845720e-02
      1.59896955e-01 3.99484560e-02 4.42857146e-02 4.36020494e-02
      2.00230613e-01</_>
    <_>
      1.80826724e-01 1.33071706e-01 8.33997726e-02 4.70192805e-02
      9.74527970e-02 4.43240143e-02 6.62868693e-02 9.93057117e-02
      1.47172019e-01</_>
    <_>
      2.41230860e-01 5.75451590e-02 2.90084351e-02 4.30675596e-02
      7.74815157e-02 3.80680412e-02 3.04523483e-02 4.88807410e-02
      2.37720460e-01</_>
    <_>
      1.40789092e-01 3.44057567e-02 4.26367559e-02 8.13198388e-02
      1.93148434e-01 7.44629651e-02 4.91428077e-02 3.30841392e-02
      1.54899403e-01</_>
    <_>
      2.78627098e-01 3.07420343e-02 1.12584410e-02 7.85449147e-03
      8.32898989e-02 7.81032862e-03 3.13389525e-02 5.24051301e-02
      2.93718189e-01</_>
    <_>
      1.22273937e-01 7.05464408e-02 9.49914530e-02 8.27164873e-02
      2.18378142e-01 5.87723404e-02 5.46236299e-02 5.03565185e-02
      1.14435233e-01</_>
    <_>
      1.60985783e-01 6.31502122e-02 5.83737083e-02 3.00466456e-02
      7.55733475e-02 3.22929807e-02 5.76011874e-02 5.83093278e-02
      1.79368854e-01</_>
    <_>
      2.13533610e-01 7.90061131e-02 7.08295032e-02 5.98317012e-02
      7.38611072e-02 5.89256547e-02 5.98251447e-02 6.71347082e-02
      2.09816501e-01</_>
    <_>
      8.11953470e-02 1.00820497e-01 1.28006503e-01 1.02698818e-01
      1.67973354e-01 7.79216960e-02 8.41625109e-02 6.48312643e-02
      7.06367269e-02</_>
    <_>
      1.59851208e-01 1.34816885e-01 9.42528397e-02 9.19402465e-02
      1.10226952e-01 7.75714666e-02 7.33584538e-02 9.84119773e-02
      1.41936302e-01</_>
    <_>
      1.40225977e-01 1.17848352e-01 9.07135531e-02 4.70592454e-02
      6.83546439e-02 4.76312563e-02 1.08122014e-01 1.10024527e-01
      1.28174052e-01</_>
    <_>
      1.79678842e-01 1.29204392e-01 7.41745532e-02 7.67615139e-02
      8.72292295e-02 6.04815297e-02 8.49594921e-02 1.26719609e-01
      1.60253406e-01</_>
    <_>
      2.05632642e-01 1.30206302e-01 7.88088366e-02 7.44174272e-02
      1.00085758e-01 7.04452172e-02 6.50144070e-02 9.84324366e-02
      1.83692738e-01</_>
    <_>
      2.21229807e-01 9.84992608e-02 9.78943780e-02 7.04893917e-02
      5.91457598e-02 6.95524216e-02 1.15278013e-01 9.69951078e-02
      2.16896668e-01</_>
    <_>
      1.17505141e-01 3.91600765e-02 3.41644734e-02 8.16895738e-02
      2.60066062e-01 6.96849898e-02 4.04510833e-02 3.98935899e-02
      1.30574673e-01</_>
    <_>
      1.09390177e-01 7.71978125e-02 7.02777207e-02 1.36278287e-01
      2.00979427e-01 1.41597062e-01 7.90997669e-02 7.90368021e-02
      1.05149232e-01</_>
    <_>
      1.01458490e-01 1.14460714e-01 1.12003423e-01 8.59491974e-02
      1.97057664e-01 9.47871357e-02 6.47018850e-02 5.60805649e-02
      7.85241053e-02</_>
    <_>
      9.95078310e-02 6.20615333e-02 9.00239274e-02 1.32586196e-01
      2.24430457e-01 9.63076130e-02 8.65375847e-02 6.99424595e-02
      9.50004160e-02</_>
    <_>
      1.24966525e-01 4.98202927e-02 4.50455509e-02 6.00064099e-02
      2.18153358e-01 7.41707310e-02 5.98650388e-02 5.26532941e-02
      1.10906124e-01</_>
    <_>
      1.99781254e-01 1.26293465e-01 1.46756470e-01 4.08814214e-02
      1.14172868e-01 3.94924954e-02 1.45228237e-01 1.17005937e-01
      1.99781254e-01</_>
    <_>
      9.83222649e-02 5.30699641e-02 8.20551664e-02 7.62460157e-02
      2.32657954e-01 7.00199530e-02 4.31822538e-02 3.62010114e-02
      9.82239544e-02</_>
    <_>
      8.78313705e-02 6.08186834e-02 6.09962009e-02 3.79833877e-02
      1.02660596e-01 2.24990118e-02 2.90977266e-02 2.72935871e-02
      7.27184042e-02</_>
    <_>
      2.14061618e-01 7.62030706e-02 7.93308392e-02 2.89019067e-02
      1.58512369e-01 2.30025519e-02 6.02464527e-02 6.36336431e-02
      2.24093840e-01</_>
    <_>
      1.28182262e-01 7.42674321e-02 6.15716465e-02 6.36026189e-02
      9.23892856e-02 1.12867229e-01 1.18333124e-01 1.52362615e-01
      1.47829637e-01</_>
    <_>
      2.52606511e-01 1.12804279e-01 6.79103509e-02 2.71048788e-02
      4.99873236e-02 3.35303731e-02 7.22434297e-02 1.44642755e-01
      2.36996129e-01</_>
    <_>
      9.12049040e-02 4.50916514e-02 7.56688341e-02 1.24307044e-01
      2.32082397e-01 9.27672237e-02 5.23738302e-02 4.15090062e-02
      9.21838284e-02</_>
    <_>
      2.56678283e-01 6.62273541e-02 3.89235355e-02 3.68198529e-02
      8.49030316e-02 2.55579203e-02 3.34719457e-02 4.49419171e-02
      2.22761929e-01</_>
    <_>
      1.14326991e-01 7.07344413e-02 4.27481309e-02 7.99284354e-02
      2.46601745e-01 5.00333235e-02 4.95574214e-02 6.15456030e-02
      9.63912904e-02</_>
    <_>
      1.66530311e-01 3.68010849e-02 4.32748534e-02 5.89048266e-02
      1.02751791e-01 5.40834703e-02 4.60742526e-02 4.01854627e-02
      1.72740087e-01</_>
    <_>
      1.11978553e-01 8.49967748e-02 8.11821595e-02 1.13504827e-01
      2.00227231e-01 1.19642578e-01 7.18258768e-02 7.31096119e-02
      1.10203087e-01</_>
    <_>
      1.90852195e-01 1.17463827e-01 9.50653702e-02 7.00722784e-02
      8.27384442e-02 8.08131322e-02 9.37984139e-02 1.34920597e-01
      2.03033239e-01</_>
    <_>
      1.54708415e-01 8.27573389e-02 8.62481818e-02 7.90030956e-02
      1.17108539e-01 7.65054077e-02 1.03734292e-01 9.11139622e-02
      1.57015920e-01</_>
    <_>
      1.94582567e-01 1.45868555e-01 5.26243374e-02 4.50223573e-02
      8.74839872e-02 3.13447416e-02 4.91597056e-02 8.95109698e-02
      1.58982992e-01</_>
    <_>
      1.10962033e-01 1.11716859e-01 1.18759364e-01 1.01928264e-01
      1.56865701e-01 8.23990032e-02 7.30769262e-02 5.91463074e-02
      8.35985467e-02</_>
    <_>
      1.74056500e-01 1.07331440e-01 9.23254639e-02 2.67548598e-02
      7.26870745e-02 2.67339107e-02 9.90033522e-02 1.01724878e-01
      1.65489241e-01</_>
    <_>
      9.31990519e-02 8.11704919e-02 1.09953299e-01 1.08830653e-01
      1.58663839e-01 1.24294132e-01 1.13852620e-01 7.80467987e-02
      1.02490850e-01</_>
    <_>
      8.46870989e-02 6.43954724e-02 7.37854391e-02 1.09867983e-01
      2.17065573e-01 1.05552457e-01 6.99063987e-02 6.08506054e-02
      8.27594548e-02</_>
    <_>
      9.18393508e-02 4.58069183e-02 4.97090816e-02 1.07116722e-01
      2.20706239e-01 1.35186702e-01 8.86821151e-02 5.57289980e-02
      8.93839225e-02</_>
    <_>
      9.54693779e-02 7.19563738e-02 9.03993919e-02 1.09237902e-01
      1.55000687e-01 1.09501712e-01 9.50235799e-02 7.60115907e-02
      9.82424244e-02</_>
    <_>
      1.00804254e-01 9.60708931e-02 1.05165377e-01 8.45223814e-02
      1.52975723e-01 8.86601135e-02 8.26120377e-02 7.48219267e-02
      9.14686024e-02</_>
    <_>
      4.88842390e-02 6.69019073e-02 1.07807405e-01 1.06547512e-01
      2.28366509e-01 8.99301246e-02 6.47532493e-02 4.11161967e-02
      4.20654453e-02</_>
    <_>
      5.17856926e-02 4.91210259e-02 1.08319327e-01 1.59535214e-01
      2.01964229e-01 8.57340768e-02 6.90593347e-02 3.66218351e-02
      4.64400351e-02</_>
    <_>
      1.86408162e-01 5.98293096e-02 7.04183355e-02 8.54938105e-02
      1.25028417e-01 7.42278546e-02 6.33791238e-02 7.63138756e-02
      1.91119775e-01</_>
    <_>
      8.35928991e-02 5.50310612e-02 7.08383992e-02 1.35582611e-01
      2.14940488e-01 5.88255413e-02 4.77297008e-02 4.14891727e-02
      8.10464323e-02</_>
    <_>
      9.56355780e-02 6.11294433e-02 7.60403275e-02 1.11059532e-01
      2.13885203e-01 9.29933265e-02 6.26522303e-02 6.03996329e-02
      1.00489646e-01</_>
    <_>
      8.72551426e-02 5.71672358e-02 7.28115216e-02 6.50625974e-02
      2.14264423e-01 1.06983922e-01 7.61759505e-02 6.00915179e-02
      9.11330879e-02</_>
    <_>
      1.00664824e-01 5.18433042e-02 7.75329620e-02 6.23825006e-02
      1.15256004e-01 3.91939729e-02 4.25625145e-02 3.63056473e-02
      9.59366858e-02</_>
    <_>
      1.66124046e-01 1.12901598e-01 8.82251859e-02 2.16621198e-02
      8.69868696e-02 2.25618798e-02 8.77717212e-02 9.83942822e-02
      1.70860916e-01</_>
    <_>
      9.55812633e-02 7.27275908e-02 8.92999470e-02 1.40927464e-01
      1.99796528e-01 1.01295955e-01 6.84104338e-02 6.64370432e-02
      1.02372020e-01</_>
    <_>
      1.66439191e-01 1.08117364e-01 1.05825968e-01 4.35406603e-02
      5.45844622e-02 3.94577123e-02 1.08397119e-01 1.12589121e-01
      1.67202294e-01</_>
    <_>
      2.40207121e-01 8.36028680e-02 6.36904687e-02 9.45776477e-02
      8.73813853e-02 8.57209191e-02 7.27770925e-02 8.82365704e-02
      2.34060958e-01</_>
    <_>
      2.71916360e-01 2.64500696e-02 3.52461822e-02 3.54899466e-02
      7.56013840e-02 3.72510627e-02 2.69256067e-02 1.63674131e-02
      2.62737691e-01</_>
    <_>
      1.99017361e-01 9.37514603e-02 1.18974224e-01 5.84260225e-02
      1.47971883e-01 6.81229979e-02 1.07358806e-01 8.19681436e-02
      1.95783287e-01</_>
    <_>
      7.59626701e-02 3.66871208e-02 9.12488475e-02 1.13994256e-01
      2.27259234e-01 7.76534379e-02 6.64329380e-02 4.10183780e-02
      7.62195066e-02</_>
    <_>
      9.77175310e-02 5.78149445e-02 8.46273899e-02 1.30867034e-01
      2.01534584e-01 6.66331947e-02 5.55569120e-02 4.44913171e-02
      9.53171030e-02</_>
    <_>
      7.80670047e-02 4.97589223e-02 1.22737624e-01 1.34304598e-01
      1.48142323e-01 9.65901539e-02 1.01626776e-01 6.52805939e-02
      8.13809559e-02</_>
    <_>
      8.80331919e-02 7.45921284e-02 1.27544746e-01 1.32592291e-01
      1.53165102e-01 8.15607309e-02 6.74613267e-02 5.36483414e-02
      8.02197456e-02</_>
    <_>
      1.32630661e-01 6.08602948e-02 8.25395435e-02 6.64504319e-02
      8.52329209e-02 4.49653901e-02 5.44625036e-02 9.19556767e-02
      2.12224439e-01</_>
    <_>
      1.67968079e-01 1.05010919e-01 7.91921914e-02 9.89154577e-02
      1.06721260e-01 9.78761315e-02 8.20873976e-02 1.14622258e-01
      1.84900090e-01</_>
    <_>
      9.56519917e-02 5.39222769e-02 5.67941926e-02 1.47609413e-01
      2.07899690e-01 8.96933526e-02 6.62137195e-02 5.35660349e-02
      9.76049155e-02</_>
    <_>
      8.18515122e-02 6.94228783e-02 1.32183939e-01 1.19325988e-01
      1.63856268e-01 1.07732318e-01 1.05213694e-01 6.83599040e-02
      8.32825229e-02</_>
    <_>
      2.66155511e-01 2.64993012e-02 2.22221781e-02 2.20611002e-02
      3.48767117e-02 3.11320722e-02 3.20914537e-02 2.66496036e-02
      2.65649199e-01</_>
    <_>
      1.01102293e-01 5.20630069e-02 5.79276644e-02 8.68849978e-02
      2.08207473e-01 7.58896396e-02 6.83398768e-02 5.37334867e-02
      9.66564938e-02</_>
    <_>
      1.80242807e-01 6.36998639e-02 5.76952137e-02 6.23078234e-02
      1.22539796e-01 6.01107441e-02 5.05147986e-02 6.49387464e-02
      1.76236615e-01</_>
    <_>
      1.62128836e-01 1.40194505e-01 1.22777544e-01 3.88606489e-02
      8.84332582e-02 3.90896089e-02 6.18682131e-02 7.94409364e-02
      1.43166050e-01</_>
    <_>
      2.27822855e-01 8.59786198e-02 8.21962580e-02 1.83805302e-02
      2.81745382e-02 1.80068593e-02 8.51662904e-02 8.44879001e-02
      2.26181597e-01</_>
    <_>
      1.01881303e-01 7.17719346e-02 1.08906396e-01 1.03615694e-01
      1.75312862e-01 7.19252974e-02 6.66748658e-02 4.78167459e-02
      9.71704423e-02</_>
    <_>
      1.68096453e-01 1.23466969e-01 1.22249447e-01 6.36881515e-02
      9.10204351e-02 6.34856820e-02 1.10845312e-01 1.07889488e-01
      1.68096453e-01</_>
    <_>
      1.80593461e-01 5.63070998e-02 4.19597179e-02 5.47240973e-02
      1.05141863e-01 4.64681573e-02 5.46980947e-02 8.48877281e-02
      2.06934407e-01</_>
    <_>
      1.97459415e-01 6.69891015e-02 4.84980941e-02 4.73998711e-02
      6.37549311e-02 4.54942845e-02 4.48227488e-02 9.42113250e-02
      2.43435279e-01</_>
    <_>
      1.01654120e-01 1.33289784e-01 1.19870074e-01 9.04411376e-02
      1.34067774e-01 1.10799469e-01 1.19561024e-01 9.53605101e-02
      7.88177997e-02</_>
    <_>
      1.94576085e-01 8.97002146e-02 8.64664316e-02 5.46850227e-02
      9.11516622e-02 3.61752175e-02 4.30383459e-02 4.78625186e-02
      1.79240391e-01</_>
    <_>
      1.12171575e-01 7.91433826e-02 5.21296747e-02 8.52905437e-02
      2.15348616e-01 5.82829900e-02 5.76661043e-02 8.59253481e-02
      1.13195039e-01</_>
    <_>
      1.74393043e-01 3.79692055e-02 4.98731397e-02 6.66560233e-02
      1.38439104e-01 5.49885929e-02 4.38364372e-02 4.56355363e-02
      1.86709702e-01</_>
    <_>
      1.23783216e-01 3.60002145e-02 3.72322612e-02 1.07489273e-01
      2.19658107e-01 5.64225540e-02 3.80570889e-02 4.01959457e-02
      1.39548123e-01</_>
    <_>
      1.18569620e-01 7.11444393e-02 4.53193001e-02 6.91520274e-02
      2.44876891e-01 7.57610202e-02 4.81823161e-02 4.47614752e-02
      9.86517072e-02</_>
    <_>
      7.72928223e-02 4.22905274e-02 5.11389785e-02 1.09683476e-01
      2.49518186e-01 1.11423559e-01 6.10620119e-02 6.13653027e-02
      1.00794993e-01</_>
    <_>
      1.12090215e-01 8.17070082e-02 5.98915480e-02 1.01634935e-01
      2.30296731e-01 1.05948746e-01 5.64766265e-02 5.98220639e-02
      9.05240998e-02</_>
    <_>
      1.54229239e-01 4.19467799e-02 5.18383868e-02 1.12419330e-01
      1.48699105e-01 5.71433939e-02 4.63805385e-02 6.20191246e-02
      1.66396439e-01</_>
    <_>
      1.87155619e-01 4.45135348e-02 6.96140602e-02 8.98862407e-02
      1.09894894e-01 1.11494876e-01 8.04982111e-02 4.17451598e-02
      1.82997227e-01</_>
    <_>
      1.98356748e-01 9.19300690e-02 8.96047950e-02 6.55307844e-02
      4.61477675e-02 7.04106987e-02 9.65405479e-02 9.50614959e-02
      2.22727746e-01</_>
    <_>
      8.60474855e-02 3.16897109e-02 3.55338790e-02 5.20470142e-02
      2.58200258e-01 6.71130791e-02 4.76596095e-02 4.48669195e-02
      8.37063566e-02</_>
    <_>
      8.23727399e-02 7.60081336e-02 1.13935828e-01 9.77883041e-02
      1.67932034e-01 1.06088892e-01 9.10791159e-02 7.20808432e-02
      8.29754025e-02</_>
    <_>
      1.77189976e-01 2.71485224e-02 3.30232494e-02 2.80992463e-02
      9.52217355e-02 3.28935981e-02 4.43810411e-02 5.38055263e-02
      2.04359323e-01</_>
    <_>
      8.54327306e-02 1.08441718e-01 8.24596807e-02 7.60666803e-02
      2.32615411e-01 7.58747384e-02 4.86570597e-02 5.09347543e-02
      5.77548184e-02</_>
    <_>
      2.39385024e-01 5.47442958e-02 4.53424118e-02 1.08664180e-03
      8.24389160e-02 1.02386344e-03 4.80359308e-02 6.90221488e-02
      2.47283295e-01</_>
    <_>
      1.99551672e-01 6.87457547e-02 6.47312179e-02 4.69260216e-02
      9.85775962e-02 3.87459546e-02 4.32780981e-02 5.72890826e-02
      2.06374303e-01</_>
    <_>
      8.58431906e-02 8.62525851e-02 1.07623413e-01 1.24444261e-01
      2.02619463e-01 9.93376821e-02 5.58864214e-02 5.25949635e-02
      7.26282895e-02</_>
    <_>
      6.49668723e-02 1.02191105e-01 1.11120068e-01 8.17951560e-02
      2.58867294e-01 9.04251114e-02 1.12259820e-01 1.17979661e-01
      6.49499223e-02</_>
    <_>
      1.70177966e-01 8.16420317e-02 8.30172077e-02 8.35044757e-02
      9.85758901e-02 6.41247556e-02 6.83963671e-02 7.40489066e-02
      1.64728492e-01</_>
    <_>
      1.74940899e-01 6.68882579e-02 4.68510091e-02 4.91012782e-02
      6.97189569e-02 4.31932621e-02 4.38446701e-02 4.76111509e-02
      1.51550755e-01</_>
    <_>
      2.15632811e-01 6.03830628e-02 5.41275665e-02 5.17761633e-02
      7.02249557e-02 5.29117398e-02 6.81393966e-02 7.13925809e-02
      2.17106834e-01</_>
    <_>
      1.82057753e-01 8.99633989e-02 1.41266063e-01 6.12791181e-02
      9.11513492e-02 6.60416856e-02 1.44755974e-01 8.44888687e-02
      1.73367083e-01</_>
    <_>
      1.15150437e-01 5.35679385e-02 9.57400799e-02 1.25755608e-01
      2.07831666e-01 5.53126670e-02 3.80230658e-02 2.63214502e-02
      1.08229540e-01</_>
    <_>
      1.22739792e-01 6.39588684e-02 6.10621944e-02 7.93531165e-02
      2.05483764e-01 8.13279599e-02 5.32445386e-02 4.41402420e-02
      1.11106493e-01</_>
    <_>
      1.73957601e-01 7.68616274e-02 1.09852016e-01 5.91749772e-02
      6.57302961e-02 2.63921730e-02 3.40847559e-02 3.18130292e-02
      1.55774489e-01</_>
    <_>
      1.79668158e-01 9.42852944e-02 7.56937340e-02 5.98558187e-02
      7.37397000e-02 4.96459343e-02 6.80788085e-02 9.96678919e-02
      1.79200441e-01</_>
    <_>
      1.90251201e-01 6.36758208e-02 5.24023324e-02 6.06147796e-02
      7.72131532e-02 4.51055393e-02 4.91511598e-02 8.01276639e-02
      2.20792308e-01</_>
    <_>
      1.44122556e-01 1.22668713e-01 8.89107808e-02 7.41983056e-02
      1.19406104e-01 6.74642771e-02 6.69574961e-02 7.42582306e-02
      1.17749006e-01</_>
    <_>
      1.73617199e-01 4.95891273e-02 4.00797054e-02 5.58818318e-02
      2.26454690e-01 7.76650012e-02 4.75686453e-02 4.93768603e-02
      1.78024545e-01</_>
    <_>
      2.15638265e-01 2.02457607e-02 5.37314229e-02 5.09182401e-02
      5.57891615e-02 6.71516433e-02 6.89913332e-02 2.07281150e-02
      2.14484259e-01</_>
    <_>
      1.91402599e-01 6.61514401e-02 5.49937338e-02 5.38823307e-02
      1.08831294e-01 6.21904954e-02 5.50282821e-02 7.36185908e-02
      1.87655702e-01</_>
    <_>
      1.83127195e-01 1.57317296e-02 3.30644585e-02 2.07663588e-02
      1.09282084e-01 2.78798435e-02 2.20795628e-02 1.11801410e-02
      1.77323252e-01</_>
    <_>
      1.76071882e-01 1.27878442e-01 6.12325929e-02 4.36078310e-02
      1.33875474e-01 4.88571785e-02 6.48595467e-02 1.21846400e-01
      1.74622893e-01</_>
    <_>
      1.55013278e-01 6.48346692e-02 5.57441600e-02 7.90492296e-02
      1.78409785e-01 6.87897429e-02 4.13003899e-02 5.40008992e-02
      1.56474009e-01</_>
    <_>
      7.57445395e-02 5.25947921e-02 5.41730896e-02 1.03357911e-01
      2.73290724e-01 8.98139998e-02 5.22173196e-02 5.46056889e-02
      8.45554173e-02</_>
    <_>
      1.06200546e-01 1.26352876e-01 1.56048194e-01 1.35917217e-01
      1.47965878e-01 1.15619794e-01 8.42997730e-02 7.10279420e-02
      9.10998061e-02</_>
    <_>
      1.42809525e-01 1.00733019e-01 8.15523788e-02 5.96355684e-02
      1.03320099e-01 8.47701803e-02 9.13814679e-02 1.03975229e-01
      1.47463232e-01</_>
    <_>
      1.30082905e-01 4.94623967e-02 6.37286305e-02 7.26149306e-02
      2.21034497e-01 5.36559150e-02 5.21802306e-02 4.52669561e-02
      1.29634872e-01</_>
    <_>
      1.54875875e-01 3.64820734e-02 4.61980142e-02 6.44386262e-02
      2.15070277e-01 6.82793632e-02 4.57527749e-02 3.33608575e-02
      1.48288503e-01</_>
    <_>
      1.22257903e-01 2.56222971e-02 4.10159007e-02 7.00514168e-02
      2.47577384e-01 9.56609771e-02 4.27207015e-02 3.05136926e-02
      1.19022980e-01</_>
    <_>
      1.39234707e-01 9.73143578e-02 9.66883823e-02 7.37249926e-02
      8.88035223e-02 6.62883371e-02 8.04073364e-02 1.16553046e-01
      1.61339864e-01</_>
    <_>
      5.16791940e-02 3.88651043e-02 8.66820291e-02 1.13556854e-01
      3.34974647e-01 1.12148754e-01 7.35004768e-02 3.82078625e-02
      5.11206277e-02</_>
    <_>
      7.31373206e-02 8.18078965e-02 1.12821162e-01 1.18566088e-01
      1.51233092e-01 1.34120807e-01 9.32208076e-02 7.87980631e-02
      8.44464973e-02</_>
    <_>
      1.72126785e-01 5.54581732e-02 5.45044094e-02 7.29889050e-02
      1.40301451e-01 5.92874847e-02 4.05138023e-02 4.98746298e-02
      1.72112450e-01</_>
    <_>
      7.56185353e-02 6.22316562e-02 7.45113790e-02 1.51526257e-01
      2.09160089e-01 8.51929411e-02 4.27733213e-02 3.71414050e-02
      6.80786818e-02</_>
    <_>
      7.62840435e-02 5.34447432e-02 6.95093945e-02 9.94842574e-02
      2.05626070e-01 7.87667111e-02 6.97912127e-02 6.56194985e-02
      7.97466263e-02</_>
    <_>
      2.08211362e-01 1.26013651e-01 9.53996405e-02 2.62189638e-02
      1.12962484e-01 2.13727299e-02 6.65718913e-02 8.74380693e-02
      2.20474273e-01</_>
    <_>
      1.35060117e-01 4.88819778e-02 8.31640512e-02 1.23442031e-01
      1.51905566e-01 4.26721238e-02 5.14570177e-02 4.90928404e-02
      1.34468466e-01</_>
    <_>
      1.72149003e-01 5.39562181e-02 5.62733412e-02 4.73258235e-02
      1.01654656e-01 4.50124890e-02 5.29194102e-02 6.41472116e-02
      1.91417500e-01</_>
    <_>
      1.70948401e-01 7.79775158e-02 6.74860328e-02 4.76163477e-02
      1.19456016e-01 4.05604206e-02 4.95304875e-02 6.49812371e-02
      1.59553677e-01</_>
    <_>
      1.39555275e-01 1.16754219e-01 1.09930463e-01 8.86299610e-02
      9.97126549e-02 8.03108141e-02 8.66110921e-02 8.38847607e-02
      1.25448793e-01</_>
    <_>
      1.35037139e-01 4.00478654e-02 4.02252153e-02 7.96729624e-02
      1.31340653e-01 4.18370180e-02 3.40472758e-02 3.85667719e-02
      1.34103343e-01</_>
    <_>
      1.54937014e-01 5.06892987e-02 4.87339273e-02 8.66132900e-02
      1.76159605e-01 5.59617206e-02 4.21578474e-02 4.55661006e-02
      1.54158473e-01</_>
    <_>
      1.54125631e-01 4.70945984e-02 7.08587989e-02 1.01415023e-01
      1.28476918e-01 8.24500024e-02 5.57522699e-02 4.79471609e-02
      1.67658895e-01</_>
    <_>
      1.78369775e-01 7.65574649e-02 8.40372443e-02 7.26817101e-02
      9.93104428e-02 5.57209291e-02 6.47078380e-02 5.97258359e-02
      1.66577473e-01</_>
    <_>
      8.65283683e-02 5.44413850e-02 5.61398976e-02 9.07282680e-02
      2.38556772e-01 8.96125287e-02 6.40479475e-02 8.17172155e-02
      9.87533703e-02</_>
    <_>
      5.04942089e-02 3.07670068e-02 2.41757929e-02 7.05783442e-02
      3.65949839e-01 7.11469650e-02 1.81079283e-02 3.92578393e-02
      5.51075526e-02</_>
    <_>
      1.25947118e-01 5.70995808e-02 5.64274564e-02 5.09974100e-02
      1.10986106e-01 6.15592077e-02 9.64391381e-02 1.25913382e-01
      1.67783052e-01</_>
    <_>
      1.23283148e-01 1.82953492e-01 7.22094253e-02 1.91073492e-02
      5.11695594e-02 2.34683789e-02 6.88605309e-02 1.85432985e-01
      1.41834408e-01</_>
    <_>
      1.74927741e-01 6.35553673e-02 5.66069968e-02 3.20353322e-02
      1.40682623e-01 4.32968810e-02 5.17062470e-02 4.88644801e-02
      1.58787414e-01</_>
    <_>
      2.38209963e-01 9.02367458e-02 1.01973303e-01 8.56340677e-02
      5.77312261e-02 6.61701187e-02 8.83431509e-02 7.70144239e-02
      2.35055864e-01</_>
    <_>
      2.31263027e-01 8.35438073e-02 2.30657645e-02 4.97828983e-02
      1.39425443e-02 5.56956530e-02 2.28055343e-02 8.00138190e-02
      2.37420231e-01</_>
    <_>
      6.99322447e-02 8.61233994e-02 1.30648971e-01 1.31595895e-01
      1.72510192e-01 8.64329413e-02 9.74323079e-02 8.57730806e-02
      6.75066262e-02</_>
    <_>
      6.80534095e-02 9.02159140e-02 1.25845999e-01 1.05285533e-01
      1.61971286e-01 1.04823984e-01 1.05324671e-01 6.27406016e-02
      6.41755313e-02</_>
    <_>
      1.41256541e-01 7.32026696e-02 5.22557348e-02 5.38163967e-02
      9.30175856e-02 8.41539726e-02 1.17038727e-01 1.53079674e-01
      1.78287581e-01</_>
    <_>
      5.25167920e-02 7.97894076e-02 1.31124571e-01 7.88772181e-02
      8.32992867e-02 5.20828962e-02 1.15149580e-01 7.92719275e-02
      5.89475110e-02</_>
    <_>
      2.11213231e-01 1.01102188e-01 5.97508736e-02 5.91701940e-02
      7.84937069e-02 6.32599220e-02 8.31401050e-02 1.13231696e-01
      2.11744398e-01</_>
    <_>
      1.55207425e-01 5.16975001e-02 6.95724487e-02 5.60245551e-02
      9.45241526e-02 4.29889150e-02 4.67914529e-02 6.58666864e-02
      1.71560347e-01</_>
    <_>
      1.29459262e-01 9.93560404e-02 1.04904316e-01 1.36451930e-01
      1.98533326e-01 1.31121472e-01 9.24629569e-02 8.04432929e-02
      1.23871386e-01</_>
    <_>
      1.79859743e-01 9.61033627e-02 7.26915374e-02 6.83143511e-02
      1.10863738e-01 6.63182288e-02 6.58897534e-02 8.18173066e-02
      1.67446747e-01</_>
    <_>
      1.84727330e-02 3.72818150e-02 9.38000381e-02 1.56787664e-01
      2.57255524e-01 1.98440835e-01 8.87004733e-02 3.59653309e-02
      1.84944738e-02</_>
    <_>
      7.95361400e-02 7.99585134e-02 1.32468045e-01 1.15242958e-01
      1.37812510e-01 7.11937547e-02 8.77863318e-02 6.11673631e-02
      8.26232433e-02</_>
    <_>
      2.02966571e-01 8.31391439e-02 6.47690967e-02 6.55351207e-02
      1.22696064e-01 6.15965761e-02 6.44192323e-02 8.70629624e-02
      2.05606118e-01</_>
    <_>
      1.28196299e-01 2.64199749e-02 2.89364140e-02 6.40054718e-02
      2.40652412e-01 7.54271299e-02 4.41060476e-02 4.08090316e-02
      1.29848644e-01</_>
    <_>
      8.73530284e-02 6.39118776e-02 1.00321494e-01 1.32567137e-01
      2.15094209e-01 1.20522574e-01 7.96319768e-02 6.27763867e-02
      8.77662748e-02</_>
    <_>
      1.24296464e-01 3.00570745e-02 2.79094316e-02 5.96839935e-02
      2.53597289e-01 6.15838990e-02 3.15673761e-02 2.42800526e-02
      1.20440297e-01</_>
    <_>
      5.58750927e-02 2.83228438e-02 1.85184434e-01 1.36788622e-01
      1.00106247e-01 1.01831287e-01 1.35565445e-01 2.54321322e-02
      5.39130382e-02</_>
    <_>
      1.08241186e-01 8.36640745e-02 1.48851693e-01 1.59469232e-01
      1.45034775e-01 8.36434215e-02 6.26662895e-02 5.41217364e-02
      1.01312011e-01</_>
    <_>
      8.30315650e-02 6.64353743e-02 9.90714952e-02 1.29972532e-01
      1.81505203e-01 8.11592266e-02 4.91670892e-02 4.36915383e-02
      7.76109174e-02</_>
    <_>
      9.21699405e-02 7.36364201e-02 9.15165693e-02 1.30975485e-01
      2.14975923e-01 9.99536142e-02 5.42965606e-02 5.06035611e-02
      9.01774392e-02</_>
    <_>
      8.96238461e-02 4.73204069e-02 7.60113075e-02 1.40284449e-01
      2.55976886e-01 1.37284353e-01 7.33230710e-02 4.95158732e-02
      9.07723606e-02</_>
    <_>
      1.00950733e-01 6.25087544e-02 7.47415200e-02 1.18979394e-01
      2.19471470e-01 1.04298927e-01 5.91767132e-02 5.08158728e-02
      9.69628394e-02</_>
    <_>
      2.31042251e-01 5.88185079e-02 5.31946160e-02 9.59113054e-03
      4.83113974e-02 1.16687194e-02 3.49586494e-02 5.65852374e-02
      2.65276790e-01</_>
    <_>
      1.69364288e-01 1.07858762e-01 7.96837360e-02 5.71510345e-02
      1.04012758e-01 4.37101386e-02 7.89356157e-02 1.29390821e-01
      1.79940984e-01</_>
    <_>
      6.74611554e-02 3.90937664e-02 6.83266073e-02 1.39047891e-01
      2.80529797e-01 1.43685251e-01 7.24663809e-02 4.67087254e-02
      6.27257973e-02</_>
    <_>
      8.36549848e-02 7.74814710e-02 7.63997212e-02 1.21784821e-01
      2.23769993e-01 1.15944676e-01 8.70906562e-02 8.56522918e-02
      8.68122727e-02</_>
    <_>
      1.35366529e-01 3.73557955e-02 3.44580263e-02 7.24942610e-02
      2.29778484e-01 6.82145208e-02 3.38048078e-02 3.78337875e-02
      1.35309011e-01</_>
    <_>
      9.72715393e-02 4.82566319e-02 8.15278962e-02 8.21499452e-02
      2.96870142e-01 7.95619488e-02 6.66703507e-02 3.36716920e-02
      9.63009596e-02</_>
    <_>
      1.96718141e-01 1.20413966e-01 9.52034593e-02 6.71368688e-02
      1.09795950e-01 6.82186782e-02 7.61320218e-02 9.78549495e-02
      1.93297148e-01</_>
    <_>
      1.72692791e-01 3.99623811e-02 4.19766009e-02 6.67544529e-02
      1.90710112e-01 4.76706438e-02 4.11528237e-02 3.60899083e-02
      1.70383900e-01</_>
    <_>
      1.71946749e-01 3.66839580e-02 4.16403748e-02 7.73187652e-02
      1.83324993e-01 6.00648373e-02 4.08713408e-02 3.62600200e-02
      1.66403472e-01</_>
    <_>
      1.97391510e-01 3.10640112e-02 2.72875112e-02 5.56350760e-02
      1.52916059e-01 4.00355384e-02 3.02357972e-02 3.22182626e-02
      2.02036723e-01</_>
    <_>
      1.91934273e-01 3.19817737e-02 3.33552510e-02 6.22278154e-02
      1.66760385e-01 4.28750962e-02 3.46370414e-02 3.33835743e-02
      1.94270089e-01</_>
    <_>
      1.79886401e-01 3.46213430e-02 4.99494672e-02 8.52822810e-02
      2.17493773e-01 7.28662014e-02 3.80763747e-02 3.10273394e-02
      1.69905514e-01</_>
    <_>
      1.92046821e-01 3.61076705e-02 3.21502201e-02 6.12150170e-02
      1.58997774e-01 3.79239470e-02 2.93233451e-02 3.38156894e-02
      1.93227813e-01</_>
    <_>
      2.23304078e-01 4.14987393e-02 3.39573845e-02 5.27695939e-02
      1.23521522e-01 5.04002348e-02 2.93739568e-02 3.40565145e-02
      2.22210065e-01</_>
    <_>
      1.79292038e-01 3.71909849e-02 3.21212932e-02 7.15204775e-02
      1.79009005e-01 5.01543097e-02 3.65967825e-02 3.93627696e-02
      1.78411722e-01</_>
    <_>
      1.71324596e-01 4.55241501e-02 8.34338516e-02 7.21341074e-02
      9.22569558e-02 6.08001091e-02 5.84740601e-02 3.82045396e-02
      1.69013500e-01</_>
    <_>
      1.75708368e-01 1.06792174e-01 1.08435504e-01 6.17034957e-02
      9.33892727e-02 4.40128259e-02 4.88882512e-02 4.95018177e-02
      1.49975121e-01</_>
    <_>
      1.67849153e-01 6.35413229e-02 4.86215800e-02 8.57567117e-02
      1.46855712e-01 5.19313402e-02 3.94601896e-02 4.89913188e-02
      1.58433929e-01</_>
    <_>
      2.02350318e-01 9.18115973e-02 1.12788461e-01 5.81877120e-02
      4.87168133e-02 2.77538896e-02 3.56821828e-02 4.53164726e-02
      2.08304331e-01</_>
    <_>
      1.40394703e-01 3.72517407e-02 3.27973515e-02 4.87211458e-02
      1.60754189e-01 5.12791760e-02 3.87898348e-02 3.24477516e-02
      1.38621807e-01</_>
    <_>
      1.95739523e-01 5.97781762e-02 5.73061109e-02 4.51505370e-02
      1.16386458e-01 5.38529865e-02 5.79851270e-02 5.57178743e-02
      2.01478675e-01</_>
    <_>
      8.82492661e-02 3.78680639e-02 5.53150214e-02 1.00972883e-01
      2.20145673e-01 6.61650375e-02 1.03287220e-01 5.35860471e-02
      8.44245180e-02</_>
    <_>
