<?xml version="1.0"?>
<opencv_storage>
<opencv_ml_svm>
  <format>3</format>
  <svmType>C_SVC</svmType>
  <kernel>
    <type>RBF</type>
    <gamma>1.</gamma></kernel>
  <C>1.</C>
  <term_criteria><epsilon>1.1920928955078125e-07</epsilon>
    <iterations>1000</iterations></term_criteria>
  <var_count>9</var_count>
  <class_count>2</class_count>
  <class_labels type_id="opencv-matrix">
    <rows>2</rows>
    <cols>1</cols>
    <dt>i</dt>
    <data>
      -1 1</data></class_labels>
  <sv_total>2000</sv_total>
  <support_vectors>
    <_>
      2.83459812e-01 3.17892693e-02 1.19569432e-02 1.15983505e-02
      1.72508340e-02 3.23838033e-02 5.23747243e-02 7.86596164e-02
      2.93523490e-01</_>
    <_>
      2.39920821e-02 4.47409451e-02 6.68824390e-02 1.58223733e-01
      3.13637048e-01 1.58296421e-01 5.76415099e-02 4.85962667e-02
      2.45834794e-02</_>
    <_>
      4.53182459e-02 4.05496098e-02 8.52235779e-02 1.75843537e-01
      2.71616250e-01 1.33282438e-01 6.46140501e-02 3.62485237e-02
      4.23804969e-02</_>
    <_>
      2.60061789e-02 6.57077283e-02 1.69988766e-01 1.05836600e-01
      1.09324187e-01 8.51343945e-02 1.75281659e-01 7.73665905e-02
      2.60061789e-02</_>
    <_>
      1.31321251e-01 3.40022482e-02 2.15449054e-02 2.48023961e-02
      2.97914028e-01 2.55030971e-02 2.92267334e-02 3.87418456e-02
      1.38112083e-01</_>
    <_>
      7.88190886e-02 3.41556817e-02 9.64927971e-02 1.27066016e-01
      1.03274852e-01 1.85712084e-01 1.53968140e-01 2.71161422e-02
      7.44300708e-02</_>
    <_>
      1.13243446e-01 2.25638747e-02 3.05294599e-02 7.36138523e-02
      2.86241531e-01 7.07247406e-02 3.64327282e-02 2.86846571e-02
      1.17267311e-01</_>
    <_>
      6.62409887e-02 1.76909670e-01 1.12775572e-01 2.63914019e-02
      8.26974437e-02 3.00054271e-02 1.33271113e-01 1.74933061e-01
      9.77213755e-02</_>
    <_>
      2.90489849e-02 1.05591919e-02 3.02416682e-02 1.95494562e-01
      3.45141530e-01 1.34606063e-01 2.35956516e-02 7.87997525e-03
      2.83392780e-02</_>
    <_>
      2.38245368e-01 6.50397763e-02 4.95552123e-02 6.08431995e-02
      1.33177370e-01 4.80306707e-02 2.94906497e-02 3.42179276e-02
      2.09917128e-01</_>
    <_>
      1.39441015e-02 4.60523479e-02 8.22670311e-02 1.33782372e-01
      1.82654455e-01 1.55744150e-01 1.19109668e-01 5.66042326e-02
      1.65150519e-02</_>
    <_>
      9.08491611e-02 5.56680374e-02 5.03680520e-02 1.51247010e-01
      2.55181074e-01 1.47119820e-01 4.37627919e-02 5.20754494e-02
      8.29814002e-02</_>
    <_>
      2.34005883e-01 1.49365053e-01 2.15824693e-02 2.17970703e-02
      1.06817849e-01 2.24211961e-02 1.94335636e-02 1.12911820e-01
      2.08909959e-01</_>
    <_>
      5.05670346e-02 3.19432504e-02 3.51923928e-02 1.34427086e-01
      3.31140339e-01 1.53529733e-01 5.30095994e-02 3.96308117e-02
      5.39748855e-02</_>
    <_>
      3.39809842e-02 5.03833890e-02 1.36557505e-01 1.33963421e-01
      1.33066341e-01 1.57303765e-01 1.62774071e-01 7.53411576e-02
      3.75389270e-02</_>
    <_>
      2.19631746e-01 3.59028205e-02 2.68404540e-02 6.06693886e-02
      9.20769796e-02 4.12857309e-02 2.95951162e-02 4.45916280e-02
      2.54974693e-01</_>
    <_>
      2.44678721e-01 1.05843144e-02 4.88632284e-02 1.78779867e-02
      1.63115561e-01 1.94145702e-02 4.19089459e-02 1.07581308e-02
      2.40712985e-01</_>
    <_>
      2.26940468e-01 3.66347171e-02 3.75005081e-02 5.82083054e-02
      8.15375149e-02 5.43662310e-02 4.67204489e-02 5.27179092e-02
      2.30825350e-01</_>
    <_>
      2.51258165e-01 1.48166046e-01 1.56641956e-02 4.53250390e-03
      5.71506098e-02 7.19170831e-03 1.17864795e-02 9.70649049e-02
      2.04622850e-01</_>
    <_>
      4.90369983e-02 1.74636662e-01 1.75732493e-01 1.71446893e-02
      7.15271607e-02 1.08841648e-02 1.40461609e-01 1.51134774e-01
      5.29934317e-02</_>
    <_>
      6.47465140e-02 5.35514206e-03 2.38944683e-02 1.71347007e-01
      3.03535432e-01 1.02997117e-01 1.92979332e-02 6.68766396e-03
      6.65349886e-02</_>
    <_>
      2.82008108e-02 1.17437899e-01 1.19315431e-01 2.36381982e-02
      4.51877527e-02 4.83634472e-02 2.11052656e-01 1.96424544e-01
      4.18349504e-02</_>
    <_>
      1.42938299e-02 4.68188152e-02 1.65615812e-01 6.67608529e-02
      4.07502912e-02 1.01461835e-01 2.54632205e-01 7.32630789e-02
      1.48916738e-02</_>
    <_>
      6.19896911e-02 6.26557395e-02 1.85186848e-01 3.76116894e-02
      2.06662752e-02 4.84611280e-02 2.51218110e-01 9.06979218e-02
      6.24616481e-02</_>
    <_>
      2.53901314e-02 2.75057051e-02 7.80535564e-02 1.33944303e-01
      2.33425930e-01 1.89607516e-01 1.17138065e-01 2.59315744e-02
      2.92667635e-02</_>
    <_>
      3.18174139e-02 1.58531982e-02 9.02540237e-02 1.46786645e-01
      3.04516077e-01 1.42168224e-01 8.60584676e-02 1.68615654e-02
      3.52007225e-02</_>
    <_>
      2.80970633e-02 1.39282435e-01 1.77325964e-01 7.86260664e-02
      1.37486771e-01 6.96970001e-02 1.45497993e-01 1.08168788e-01
      2.67458912e-02</_>
    <_>
      4.25990783e-02 8.68532062e-02 1.22520775e-01 1.12458400e-01
      2.50555307e-01 1.15579687e-01 1.19061492e-01 8.01163241e-02
      4.29072715e-02</_>
    <_>
      7.46708587e-02 2.85928603e-02 5.97531013e-02 1.02355659e-01
      2.32778206e-01 1.78627416e-01 7.80549198e-02 1.75260231e-02
      6.25581890e-02</_>
    <_>
      3.71279605e-02 6.19959943e-02 1.86991677e-01 1.50967836e-01
      1.21217921e-01 9.55788195e-02 1.36559248e-01 4.83410470e-02
      3.29344012e-02</_>
    <_>
      5.11683226e-02 5.98108098e-02 8.69142637e-02 1.16152391e-01
      2.49204546e-01 8.67244303e-02 8.17953721e-02 4.94333170e-02
      5.18121161e-02</_>
    <_>
      2.51704082e-02 1.76709443e-02 3.65848728e-02 1.28261864e-01
      2.80861348e-01 1.59310997e-01 8.68698135e-02 5.78526519e-02
      2.47508306e-02</_>
    <_>
      2.11870208e-01 4.25057262e-02 1.05922408e-02 4.78234701e-02
      1.61061630e-01 4.86769825e-02 2.28827223e-02 5.83624430e-02
      2.24521577e-01</_>
    <_>
      2.26334095e-01 7.35818520e-02 6.22667409e-02 3.17934416e-02
      4.15547118e-02 3.99199761e-02 8.16495270e-02 8.29138011e-02
      2.00955480e-01</_>
    <_>
      4.66941856e-02 9.68562886e-02 1.70219123e-01 5.90259163e-03
      1.03076577e-01 7.27760606e-03 2.07644612e-01 1.26950771e-01
      4.70656231e-02</_>
    <_>
      2.62248237e-02 1.43806830e-01 1.54083103e-01 2.10175384e-02
      9.08509120e-02 2.55264770e-02 1.92969859e-01 1.70266882e-01
      2.84547228e-02</_>
    <_>
      5.85428365e-02 9.73282382e-02 1.69974923e-01 1.78223941e-02
      5.22394963e-02 1.68180782e-02 2.03715980e-01 1.09084368e-01
      5.82845360e-02</_>
    <_>
      2.02791765e-01 1.68986574e-01 9.76706520e-02 3.20682973e-02
      2.14321110e-02 2.44003069e-02 7.25116134e-02 1.15754731e-01
      1.64972648e-01</_>
    <_>
      2.64387932e-02 5.98629452e-02 1.38130948e-01 1.53860137e-01
      2.18369842e-01 1.39530286e-01 1.36134923e-01 7.87899420e-02
      2.66093239e-02</_>
    <_>
      1.63555115e-01 1.43265918e-01 4.37153950e-02 9.80441086e-03
      6.59593865e-02 4.46519535e-03 4.55190912e-02 1.89090773e-01
      2.04014227e-01</_>
    <_>
      5.45060188e-02 2.89403033e-02 6.25147372e-02 1.13440663e-01
      3.29869330e-01 9.83517617e-02 6.00285605e-02 4.87052090e-02
      5.48936650e-02</_>
    <_>
      2.57474296e-02 4.49612737e-02 6.67801350e-02 9.53492299e-02
      2.35323712e-01 1.16441876e-01 8.62367153e-02 5.35588264e-02
      2.64783390e-02</_>
    <_>
      1.55725688e-01 1.41121343e-01 4.44332622e-02 7.73824984e-03
      5.91325164e-02 1.58515852e-02 6.13254234e-02 2.10633829e-01
      1.95394874e-01</_>
    <_>
      3.44107337e-02 1.10321857e-01 1.65699556e-01 1.37019709e-01
      1.34204939e-01 1.11025549e-01 1.19771756e-01 8.18422511e-02
      2.88827624e-02</_>
    <_>
      2.14404732e-01 7.53357485e-02 1.88932903e-02 1.11916047e-02
      8.15681964e-02 7.97032565e-03 1.31186116e-02 1.20270193e-01
      2.57406026e-01</_>
    <_>
      2.73190979e-02 1.35919871e-02 1.06566951e-01 1.95663705e-01
      2.58449972e-01 1.79933891e-01 8.23103562e-02 6.95833052e-03
      2.66280416e-02</_>
    <_>
      1.25188921e-02 4.38302569e-02 1.63251370e-01 1.58298671e-01
      1.92394361e-01 1.05985433e-01 1.00752421e-01 3.26669440e-02
      1.21552832e-02</_>
    <_>
      1.25939593e-01 7.20318966e-03 2.48055160e-03 2.11956501e-02
      2.68657714e-01 2.17556152e-02 2.85516051e-03 7.56728742e-03
      1.23332791e-01</_>
    <_>
      1.12137176e-01 1.66463833e-02 8.43076129e-03 6.95449635e-02
      2.75475442e-01 6.24755360e-02 6.41459832e-03 1.89209040e-02
      1.10804431e-01</_>
    <_>
      3.49083133e-02 3.26537080e-02 4.03194688e-02 1.42537177e-01
      3.31499606e-01 1.38906360e-01 4.60762456e-02 3.55786048e-02
      4.08084318e-02</_>
    <_>
      5.44834845e-02 8.25197771e-02 1.54433697e-01 1.34682164e-01
      2.04918817e-01 1.25090256e-01 1.53653517e-01 6.48423582e-02
      5.60454130e-02</_>
    <_>
      2.46047691e-01 5.13052568e-02 1.45426644e-02 2.21065562e-02
      8.80007073e-02 3.33197005e-02 2.64749788e-02 6.36338890e-02
      2.59113252e-01</_>
    <_>
      2.47974947e-01 8.14585686e-02 3.38006057e-02 2.56197229e-02
      5.06269597e-02 3.04491892e-02 3.74313965e-02 8.48085135e-02
      2.48822153e-01</_>
    <_>
      2.67373770e-01 9.38736200e-02 2.16790941e-02 1.60497092e-02
      6.53460249e-02 1.78831313e-02 1.89534724e-02 6.37930259e-02
      2.32840180e-01</_>
    <_>
      2.37832338e-01 9.04957354e-02 4.01631221e-02 9.68931150e-03
      4.92125452e-02 1.23133184e-02 3.53527628e-02 9.57733020e-02
      2.29703441e-01</_>
    <_>
      3.90437096e-02 1.84409991e-02 1.23056546e-01 1.21973075e-01
      1.09086484e-01 1.75396979e-01 1.82527155e-01 2.69675348e-02
      3.83665115e-02</_>
    <_>
      2.39253882e-02 1.56677037e-01 1.72464386e-01 4.98864613e-02
      8.84919688e-02 5.82888573e-02 1.52388379e-01 1.44075185e-01
      2.84119621e-02</_>
    <_>
      3.55578922e-02 6.91669062e-02 1.85217142e-01 1.00351535e-01
      1.02401160e-01 1.02156602e-01 1.63317516e-01 5.69279827e-02
      3.61675248e-02</_>
    <_>
      2.75384963e-01 8.20995420e-02 1.49109187e-02 3.06036510e-02
      7.64231756e-02 2.68610250e-02 2.07596738e-02 6.49717823e-02
      2.31388763e-01</_>
    <_>
      2.79432297e-01 1.39394641e-01 5.13014644e-02 1.24082621e-02
      2.94014942e-02 1.00385305e-02 2.37010047e-02 6.19753525e-02
      2.10751384e-01</_>
    <_>
      2.49023631e-01 3.64917628e-02 2.65241563e-02 3.33526284e-02
      1.03186466e-01 4.03321646e-02 2.70574410e-02 4.45934795e-02
      2.38889694e-01</_>
    <_>
      2.80981481e-01 5.74882329e-02 3.96411084e-02 1.80103928e-02
      6.83154538e-02 1.67972948e-02 4.21280079e-02 5.13045713e-02
      2.42533773e-01</_>
    <_>
      3.04279208e-01 3.23267654e-02 1.21549470e-02 1.49527509e-02
      3.31666768e-02 1.80981718e-02 2.32695788e-02 3.98807041e-02
      2.98604101e-01</_>
    <_>
      2.98652053e-01 3.29019539e-02 2.01626811e-02 1.66331287e-02
      4.21393104e-02 1.70240048e-02 2.38349549e-02 3.14846374e-02
      2.90269315e-01</_>
    <_>
      3.05022269e-01 3.87316793e-02 4.55681570e-02 1.20750032e-02
      2.69065667e-02 9.67557076e-03 3.68447825e-02 3.65428105e-02
      2.97011703e-01</_>
    <_>
      2.66328365e-01 1.89744700e-02 1.91232227e-02 1.65274348e-02
      8.22489411e-02 1.93037782e-02 2.43766420e-02 1.84060186e-02
      2.65942723e-01</_>
    <_>
      2.66765833e-01 6.96593225e-02 3.48455533e-02 3.13682780e-02
      9.72081646e-02 3.14416364e-02 3.67313996e-02 6.20196424e-02
      2.62540162e-01</_>
    <_>
      2.21217453e-01 1.43538907e-01 7.99848959e-02 1.43713215e-02
      5.44888601e-02 1.37313129e-02 5.30878715e-02 1.03337727e-01
      2.03582227e-01</_>
    <_>
      3.02292079e-01 4.98691089e-02 2.38783248e-02 2.60955505e-02
      4.32152599e-02 2.53923647e-02 2.15283111e-02 3.33790891e-02
      2.50235468e-01</_>
    <_>
      2.74182826e-01 2.91432440e-02 2.28459928e-02 2.29002386e-02
      7.26123676e-02 2.30889544e-02 2.70873029e-02 3.49065252e-02
      2.75453091e-01</_>
    <_>
      2.47587748e-02 1.59470394e-01 2.18892813e-01 2.03311928e-02
      1.79538913e-02 1.62511244e-02 1.73683643e-01 1.30720735e-01
      2.35836878e-02</_>
    <_>
      6.55110702e-02 1.73943769e-02 2.48157270e-02 1.26264468e-01
      3.23467553e-01 1.61820814e-01 2.26655304e-02 1.67028215e-02
      6.52497038e-02</_>
    <_>
      7.87959099e-02 1.65705964e-01 9.94178578e-02 5.67601528e-03
      7.48463348e-02 8.75984505e-03 1.28088638e-01 1.97264910e-01
      9.23389196e-02</_>
    <_>
      2.34563872e-02 4.06715199e-02 6.74238876e-02 9.77613926e-02
      2.65592366e-01 1.14729598e-01 6.91844076e-02 3.76431495e-02
      2.54922695e-02</_>
    <_>
      3.01368594e-01 3.77942696e-02 1.34375822e-02 1.16897449e-02
      5.65337129e-02 1.59558300e-02 1.74460839e-02 4.74739634e-02
      2.86570400e-01</_>
    <_>
      7.59739801e-02 1.42317370e-01 1.09288253e-01 6.26268890e-03
      1.83644705e-02 9.53501184e-03 1.71367079e-01 2.24818230e-01
      9.57932472e-02</_>
    <_>
      4.64417562e-02 1.90466139e-02 1.51087135e-01 1.79064348e-01
      1.22426376e-01 1.39573380e-01 1.06584176e-01 1.08274370e-02
      4.79847193e-02</_>
    <_>
      5.93148656e-02 1.35229692e-01 1.28463760e-01 5.67148579e-03
      4.80809771e-02 6.65918319e-03 1.93796083e-01 1.93006799e-01
      7.33704865e-02</_>
    <_>
      3.44411582e-02 1.23131342e-01 1.61231473e-01 1.49433352e-02
      8.20407718e-02 3.10626589e-02 1.75346702e-01 1.42753541e-01
      3.95962745e-02</_>
    <_>
      8.83636158e-03 5.39882034e-02 2.32426465e-01 1.07961565e-01
      8.50812122e-02 7.55651221e-02 1.64283827e-01 4.03558426e-02
      8.90691858e-03</_>
    <_>
      2.52145916e-01 6.57852069e-02 3.47072184e-02 3.04657705e-02
      6.51668608e-02 3.07316836e-02 3.78923640e-02 8.92346948e-02
      2.72617638e-01</_>
    <_>
      7.84448683e-02 8.48808587e-02 2.11806118e-01 4.70006019e-02
      2.92619634e-02 3.43289711e-02 1.78600580e-01 7.36912042e-02
      7.25653693e-02</_>
    <_>
      4.62149978e-02 1.89086106e-02 1.48779944e-01 2.16396838e-01
      9.06164348e-02 1.44396916e-01 1.00514710e-01 7.49921147e-03
      4.28067222e-02</_>
    <_>
      4.69175205e-02 1.73084065e-02 1.35343894e-01 1.40841976e-01
      4.27197255e-02 1.99782416e-01 1.80800810e-01 2.43530702e-02
      4.68644425e-02</_>
    <_>
      2.11389989e-01 1.19205013e-01 5.37161492e-02 2.58153193e-02
      4.76899110e-02 2.53627393e-02 6.96408600e-02 1.52696580e-01
      2.27970123e-01</_>
    <_>
      5.07382676e-02 1.62712678e-01 1.99470580e-01 3.07504609e-02
      1.68588068e-02 2.18525752e-02 1.64133102e-01 1.32581636e-01
      4.57904153e-02</_>
    <_>
      3.77501473e-02 5.23832925e-02 7.15343282e-02 1.14994697e-01
      2.24445209e-01 1.35706082e-01 7.06797168e-02 5.06856032e-02
      3.74068245e-02</_>
    <_>
      3.85944098e-02 1.45568773e-02 1.97571144e-02 8.85334462e-02
      3.38622838e-01 1.14644691e-01 3.09894942e-02 1.73372049e-02
      3.95363197e-02</_>
    <_>
      2.81179935e-01 5.60928732e-02 1.38009069e-02 9.73638333e-03
      5.70585243e-02 1.11759081e-02 1.16330115e-02 5.89668378e-02
      2.82371223e-01</_>
    <_>
      1.61356956e-01 1.70261636e-01 1.07653573e-01 3.53839993e-02
      2.26919167e-02 1.93852820e-02 9.49884504e-02 1.71591073e-01
      1.52114421e-01</_>
    <_>
      1.51823089e-02 2.39116494e-02 1.29455641e-01 1.15411215e-01
      8.31412151e-02 1.86903685e-01 2.04800829e-01 3.75269018e-02
      1.77708231e-02</_>
    <_>
      4.17032391e-02 1.33138970e-01 2.06633717e-01 4.02755961e-02
      1.24268189e-01 4.10657972e-02 1.66754901e-01 1.07532732e-01
      3.95127721e-02</_>
    <_>
      2.91608512e-01 3.71651128e-02 2.74575092e-02 2.07532179e-02
      4.40904982e-02 1.31505150e-02 2.08765808e-02 2.65305955e-02
      2.73468256e-01</_>
    <_>
      2.85613704e-02 4.17998582e-02 1.21298999e-01 1.47876173e-01
      2.15473771e-01 1.22457080e-01 9.04565305e-02 4.85098511e-02
      3.30550522e-02</_>
    <_>
      3.08788031e-01 1.62806585e-02 5.28447051e-03 4.85517131e-03
      4.08984572e-02 5.84912021e-03 5.13398275e-03 1.97490137e-02
      3.22441578e-01</_>
    <_>
      2.67099023e-01 6.66235089e-02 1.73305590e-02 4.49139439e-03
      3.50648798e-02 6.05645729e-03 1.59623642e-02 8.49758387e-02
      2.97132999e-01</_>
    <_>
      6.37375144e-03 9.86404438e-03 2.77978200e-02 1.31689653e-01
      3.49570155e-01 1.87376812e-01 2.62955781e-02 8.53992254e-03
      6.28515519e-03</_>
    <_>
      6.00024238e-02 4.98983450e-02 5.90764880e-02 1.65949434e-01
      2.72568434e-01 1.53223500e-01 5.85515313e-02 4.10943888e-02
      4.97590005e-02</_>
    <_>
      7.40956888e-02 2.00946406e-02 4.21252288e-02 1.02817960e-01
      3.05104852e-01 1.16609551e-01 4.96772900e-02 2.21280400e-02
      7.38708526e-02</_>
    <_>
      5.81775606e-02 7.66256675e-02 2.09472060e-01 5.23615591e-02
      7.07141384e-02 5.59048541e-02 1.75593928e-01 7.06533864e-02
      5.13321199e-02</_>
    <_>
      3.71409319e-02 1.42343268e-01 1.26162425e-01 1.96082089e-02
      1.16767935e-01 2.08892357e-02 1.59102455e-01 1.61355838e-01
      4.04709503e-02</_>
    <_>
      3.37567478e-02 2.77308691e-02 6.13641739e-02 1.24852382e-01
      2.29099199e-01 1.13630988e-01 6.91690594e-02 3.15004475e-02
      3.75352539e-02</_>
    <_>
      1.63765758e-01 1.95005462e-01 1.41561612e-01 1.66018475e-02
      1.48098003e-02 9.77420248e-03 8.69501010e-02 1.28534555e-01
      1.33016855e-01</_>
    <_>
      4.19004075e-02 9.43063945e-02 1.27914920e-01 1.31875470e-01
      2.17529073e-01 1.39855832e-01 1.59494162e-01 1.08088873e-01
      3.86226960e-02</_>
    <_>
      9.78535339e-02 3.29280347e-02 3.58023196e-02 5.20385578e-02
      3.28475475e-01 4.28090505e-02 3.06549426e-02 3.81104089e-02
      1.05707288e-01</_>
    <_>
      2.71279603e-01 8.30935389e-02 2.38385871e-02 1.89039335e-02
      9.07423943e-02 1.54395662e-02 1.80755053e-02 5.43342829e-02
      2.21692324e-01</_>
    <_>
      2.03966964e-02 4.94355410e-02 1.44492090e-01 5.85910156e-02
      1.35550320e-01 7.68658966e-02 2.05511600e-01 7.27191269e-02
      2.13353001e-02</_>
    <_>
      4.66251411e-02 1.20893627e-01 1.59650430e-01 6.77080220e-03
      2.98995450e-02 7.88181089e-03 1.93168253e-01 1.44257307e-01
      4.59960997e-02</_>
    <_>
      4.65185344e-02 5.76137267e-02 1.37397870e-01 1.28777936e-01
      2.27112606e-01 1.02073073e-01 1.25364870e-01 5.88054359e-02
      4.90650572e-02</_>
    <_>
      2.05975007e-02 4.95430976e-02 1.02690451e-01 1.57086954e-01
      2.29952976e-01 1.64273441e-01 1.04765825e-01 5.91212064e-02
      2.59272326e-02</_>
    <_>
      4.40469384e-02 1.46265939e-01 1.52333662e-01 1.12123573e-02
      3.15749124e-02 1.36966417e-02 1.88542739e-01 1.92142829e-01
      4.78249751e-02</_>
    <_>
      3.18838596e-01 3.28536890e-02 2.24869940e-02 1.81563310e-02
      2.82739494e-02 1.75068825e-02 1.60072315e-02 1.92861650e-02
      3.03371042e-01</_>
    <_>
      9.04806852e-02 1.45065919e-01 1.27507508e-01 2.39075930e-03
      5.58854826e-02 3.08256783e-03 1.65520385e-01 1.82171717e-01
      9.70493332e-02</_>
    <_>
      2.76152998e-01 6.03391379e-02 3.92149538e-02 3.28605920e-02
      6.75632581e-02 3.40122879e-02 4.00901027e-02 4.60465103e-02
      2.59823114e-01</_>
    <_>
      5.05509824e-02 1.09215327e-01 1.36847302e-01 1.55617893e-01
      1.74190089e-01 1.31419346e-01 1.12008914e-01 9.42255333e-02
      4.45479974e-02</_>
    <_>
      6.77430630e-02 1.92587763e-01 1.44114569e-01 1.08316811e-02
      5.60033508e-02 1.88311394e-02 1.17918029e-01 1.61779970e-01
      5.14555126e-02</_>
    <_>
      5.10785133e-02 1.36067763e-01 1.60070658e-01 1.00220824e-02
      6.36545718e-02 1.01521518e-02 1.99748889e-01 1.68775499e-01
      4.58523892e-02</_>
    <_>
      2.55472183e-01 9.19420868e-02 2.19803248e-02 2.74670944e-02
      8.61308575e-02 2.26271152e-02 2.05167141e-02 6.56815320e-02
      2.19721749e-01</_>
    <_>
      2.01489747e-01 1.20897859e-01 6.25579134e-02 2.29529236e-02
      2.46226024e-02 2.18592305e-02 7.45696276e-02 1.44560993e-01
      1.99713051e-01</_>
    <_>
      1.62635505e-01 1.27349168e-01 8.56754333e-02 2.40455084e-02
      3.74693871e-02 2.64048483e-02 7.01299161e-02 1.24747872e-01
      1.70301765e-01</_>
    <_>
      1.97164953e-01 1.00447126e-01 6.53530359e-02 1.28708677e-02
      3.26325558e-02 2.17857044e-02 6.77275509e-02 1.40061200e-01
      2.16560304e-01</_>
    <_>
      2.28200257e-01 1.99376658e-01 4.14149612e-02 1.14212893e-02
      7.33144358e-02 2.14059148e-02 2.75802296e-02 8.43876451e-02
      1.37746334e-01</_>
    <_>
      2.61977702e-01 1.60028115e-01 4.55618873e-02 8.31515342e-03
      2.84923483e-02 6.75404351e-03 3.03281695e-02 1.01984933e-01
      2.27820396e-01</_>
    <_>
      3.50659639e-02 4.58364896e-02 1.40920654e-01 1.22695953e-01
      1.20500714e-01 1.51640564e-01 1.54763281e-01 2.78415903e-02
      3.25599983e-02</_>
    <_>
      1.80987403e-01 1.95028290e-01 1.21768512e-01 3.29396017e-02
      3.19965966e-02 2.78623719e-02 8.53582323e-02 1.34644166e-01
      1.68325245e-01</_>
    <_>
      4.58023101e-02 4.79477495e-02 9.08300281e-02 1.22129090e-01
      2.19636604e-01 1.24150582e-01 5.01091778e-02 2.26739645e-02
      4.49490137e-02</_>
    <_>
      2.86595523e-02 1.91600874e-01 2.11678073e-01 2.13129390e-02
      1.78167839e-02 1.88440345e-02 1.69186503e-01 1.58183128e-01
      2.77623720e-02</_>
    <_>
      4.98292260e-02 1.80266593e-02 1.56669721e-01 8.65218863e-02
      1.26017675e-01 1.06510401e-01 2.24721983e-01 2.80801523e-02
      5.27081154e-02</_>
    <_>
      7.91888312e-02 1.49190307e-01 1.05151020e-01 7.09369034e-03
      6.96750060e-02 8.29150621e-03 1.54540479e-01 2.07893923e-01
      9.47631150e-02</_>
    <_>
      3.08211707e-02 2.40934677e-02 5.49042113e-02 1.15511864e-01
      3.10566932e-01 1.55749232e-01 5.08097932e-02 1.82216782e-02
      2.83413865e-02</_>
    <_>
      2.34985858e-01 3.38861533e-02 7.72568509e-02 5.95164895e-02
      7.65233040e-02 6.17292635e-02 6.68971390e-02 2.78632641e-02
      2.18868107e-01</_>
    <_>
      1.74143147e-02 1.09021582e-01 2.28102639e-01 1.15242451e-02
      7.05364347e-02 8.56382214e-03 1.88979581e-01 9.31628346e-02
      1.60834920e-02</_>
    <_>
      1.14232160e-01 5.00349104e-02 4.30243164e-02 1.78221777e-01
      2.65244573e-01 1.61341473e-01 4.02900204e-02 5.53421490e-02
      1.14277259e-01</_>
    <_>
      2.80588306e-02 3.49484943e-02 5.61935790e-02 1.92126811e-01
      3.09600770e-01 1.50681406e-01 5.47304265e-02 3.58766653e-02
      2.71246377e-02</_>
    <_>
      4.42677177e-02 1.47642745e-02 8.91954377e-02 1.36483923e-01
      1.78316295e-01 2.12287024e-01 1.33822769e-01 2.61601135e-02
      4.81534787e-02</_>
    <_>
      6.25201091e-02 7.00479224e-02 1.69929728e-01 4.49352562e-02
      7.00000003e-02 5.73854409e-02 2.02895343e-01 9.15941000e-02
      6.06202222e-02</_>
    <_>
      1.95518866e-01 1.42007358e-02 2.24062912e-02 5.29716350e-02
      2.83464402e-01 4.95470427e-02 3.85295637e-02 2.37023849e-02
      1.87719494e-01</_>
    <_>
      4.39047031e-02 2.00763159e-02 1.60989407e-02 5.90014122e-02
      4.30852145e-01 4.98689860e-02 9.14912578e-03 1.80645678e-02
      4.29008640e-02</_>
    <_>
      1.67842299e-01 5.47642559e-02 1.56271271e-02 5.96609041e-02
      2.96418637e-01 3.85712869e-02 2.71456409e-02 4.92120273e-02
      1.60319060e-01</_>
    <_>
      1.60525873e-01 3.34346145e-02 1.63350794e-02 5.36858775e-02
      3.22273731e-01 5.93893938e-02 3.05814222e-02 3.31940129e-02
      1.59749970e-01</_>
    <_>
      2.79570594e-02 1.00481659e-02 4.94553596e-02 1.22816809e-01
      3.20010036e-01 1.63103253e-01 5.29771484e-02 1.12645961e-02
      2.79845726e-02</_>
    <_>
      6.29490986e-02 1.46860462e-02 2.55614519e-02 1.08313181e-01
      3.41816396e-01 1.09304920e-01 3.03505417e-02 1.64225921e-02
      6.42412379e-02</_>
    <_>
      2.21271083e-01 1.30332544e-01 1.13562308e-01 2.67816652e-02
      2.75066588e-02 2.63193250e-02 1.07514553e-01 1.17202848e-01
      2.11585343e-01</_>
    <_>
      2.96754271e-01 7.19130263e-02 1.84311047e-02 5.75831207e-03
      7.19514340e-02 6.33788668e-03 1.47484709e-02 5.57830669e-02
      2.58737803e-01</_>
    <_>
      3.06779832e-01 4.36722673e-02 9.56031214e-03 5.64408535e-03
      4.09877636e-02 3.77877639e-03 5.89867868e-03 2.99738310e-02
      2.80277878e-01</_>
    <_>
      2.39706323e-01 8.26403871e-02 4.82245013e-02 1.21982777e-02
      7.99416080e-02 4.68352577e-03 3.28214839e-02 5.92341423e-02
      2.19118088e-01</_>
    <_>
      2.19278157e-01 1.62738919e-01 6.27138019e-02 5.17891534e-02
      4.32322435e-02 4.33994830e-02 5.28225899e-02 1.59766674e-01
      2.18727797e-01</_>
    <_>
      1.92695260e-01 1.27167597e-01 7.12770447e-02 2.81907618e-02
      3.01096272e-02 2.23829951e-02 6.81261718e-02 1.29719272e-01
      1.89796314e-01</_>
    <_>
      2.50225127e-01 5.62280156e-02 5.55572510e-02 2.96818763e-02
      8.69346559e-02 3.23222242e-02 7.13649914e-02 6.63033873e-02
      2.54438698e-01</_>
    <_>
      3.82416062e-02 1.03498437e-01 1.23700030e-01 1.42657787e-01
      1.44064888e-01 1.19062521e-01 9.59732234e-02 8.65032747e-02
      3.30512933e-02</_>
    <_>
      7.96846449e-02 2.49095131e-02 2.04282198e-02 1.61031187e-01
      2.92286247e-01 1.10753380e-01 1.56017048e-02 1.80881713e-02
      7.85014331e-02</_>
    <_>
      4.34020422e-02 3.59492972e-02 5.56235723e-02 1.28190801e-01
      3.15809101e-01 1.40632302e-01 4.33108211e-02 3.57776657e-02
      4.87271622e-02</_>
    <_>
      2.68053263e-02 1.42830625e-01 1.74651206e-01 5.84697984e-02
      5.72158843e-02 5.74515723e-02 1.70740426e-01 1.49415225e-01
      2.72520948e-02</_>
    <_>
      1.60620794e-01 1.56688586e-01 1.05416596e-01 1.35487691e-02
      2.23943572e-02 1.30742332e-02 9.85741019e-02 1.51112139e-01
      1.59644291e-01</_>
    <_>
      4.36265059e-02 4.83291112e-02 1.69738486e-01 1.37593150e-01
      1.41772091e-01 1.04354829e-01 1.33128688e-01 3.80344167e-02
      3.99502926e-02</_>
    <_>
      5.45619689e-02 3.93592007e-02 5.24188690e-02 1.52653262e-01
      3.02776128e-01 1.26489863e-01 4.42883633e-02 3.56902666e-02
      5.63272424e-02</_>
    <_>
      6.27077743e-02 6.54996559e-02 1.56166777e-01 1.43517539e-01
      2.21148565e-01 1.18672520e-01 1.34294212e-01 6.05492182e-02
      5.84029257e-02</_>
    <_>
      3.07800993e-02 6.63887709e-02 1.47333890e-01 1.23576708e-01
      1.61879957e-01 1.04601838e-01 1.31177574e-01 6.35789707e-02
      3.17038074e-02</_>
    <_>
      1.09248303e-01 3.04337982e-02 3.31144743e-02 8.83465707e-02
      2.75189996e-01 7.73611292e-02 3.30188163e-02 1.76819060e-02
      1.01728760e-01</_>
    <_>
      2.69478321e-01 3.78281400e-02 2.88086180e-02 3.51672992e-02
      6.07802793e-02 2.62125824e-02 2.63090227e-02 3.49849649e-02
      2.76001185e-01</_>
    <_>
      2.22477660e-01 8.96177739e-02 6.35340139e-02 2.19971519e-02
      2.72130780e-02 3.05876117e-02 6.73032552e-02 8.54733735e-02
      2.27409139e-01</_>
    <_>
      5.93482964e-02 3.66272070e-02 1.77781746e-01 1.75372303e-01
      6.74788803e-02 1.33279487e-01 1.42301887e-01 3.68576534e-02
      5.92290424e-02</_>
    <_>
      8.17808136e-02 6.77487478e-02 6.20322004e-02 1.71521053e-01
      2.60032862e-01 1.40212238e-01 5.60600981e-02 4.04097065e-02
      7.63018653e-02</_>
    <_>
      1.56718642e-01 7.89667070e-02 5.33993393e-02 1.20521039e-01
      2.87047118e-01 1.11936353e-01 3.94018441e-02 6.99882135e-02
      1.53128326e-01</_>
    <_>
      3.55767645e-02 1.00917816e-01 1.23901077e-01 1.54060423e-01
      1.66100800e-01 1.52437627e-01 1.18748516e-01 1.03576444e-01
      3.40752788e-02</_>
    <_>
      2.34103099e-01 6.59053251e-02 4.34615687e-02 4.64707427e-02
      5.79853877e-02 3.92013416e-02 5.15229590e-02 8.85016471e-02
      2.46557176e-01</_>
    <_>
      3.30596529e-02 1.66603580e-01 1.40516475e-01 1.95675138e-02
      8.12177137e-02 2.33423784e-02 1.75050482e-01 1.85510442e-01
      3.22255380e-02</_>
    <_>
      3.12469993e-02 4.73123137e-03 5.17641893e-03 1.31818950e-01
      3.89218092e-01 8.75989795e-02 6.35984400e-03 5.36202546e-03
      3.13772261e-02</_>
    <_>
      3.19417976e-02 2.15666760e-02 8.88248757e-02 1.43983677e-01
      2.47070238e-01 1.36643246e-01 8.41178298e-02 1.24475807e-02
      2.99592707e-02</_>
    <_>
      2.01756373e-01 4.50574346e-02 2.08553653e-02 3.59048657e-02
      1.39599994e-01 4.01321501e-02 2.93761715e-02 7.69607350e-02
      2.37226024e-01</_>
    <_>
      2.24465102e-01 4.10389528e-02 2.25475468e-02 2.20270474e-02
      1.04306072e-01 2.14796048e-02 2.33968254e-02 6.54564574e-02
      2.56494164e-01</_>
    <_>
      3.05885583e-01 2.47671697e-02 1.23363351e-02 1.18162055e-02
      3.91888432e-02 1.29749039e-02 1.62430983e-02 2.37749834e-02
      3.03749740e-01</_>
    <_>
      1.31820545e-01 1.72266781e-01 7.99582452e-02 1.11975074e-02
      6.03881180e-02 1.11851133e-02 7.22998902e-02 1.78835899e-01
      1.49876893e-01</_>
    <_>
      2.71896660e-01 7.52091482e-02 3.67414169e-02 1.83365233e-02
      9.28557813e-02 1.63371526e-02 2.89277676e-02 5.12471683e-02
      2.51181632e-01</_>
    <_>
      4.49219942e-02 4.40571643e-02 1.43266290e-01 1.05263114e-01
      6.57599345e-02 1.56918958e-01 1.81195602e-01 5.45869470e-02
      4.13504988e-02</_>
    <_>
      4.15474027e-02 5.74485101e-02 9.72734466e-02 1.31076008e-01
      2.08392560e-01 1.13170505e-01 9.29640159e-02 6.17199615e-02
      4.23119105e-02</_>
    <_>
      3.03801224e-02 5.81511520e-02 1.59628183e-01 6.27219602e-02
      1.04811758e-01 8.71886984e-02 2.19084933e-01 7.14036748e-02
      3.13638262e-02</_>
    <_>
      2.24085256e-01 1.35070100e-01 3.14899869e-02 2.09118091e-02
      5.92126176e-02 1.71645004e-02 2.37355810e-02 6.13104887e-02
      1.54028341e-01</_>
    <_>
      2.25877687e-01 1.26995817e-01 7.24667609e-02 4.05686349e-02
      4.16677445e-02 2.73014884e-02 6.46228418e-02 1.30478993e-01
      2.21111819e-01</_>
    <_>
      1.80831596e-01 1.46783769e-01 6.13195151e-02 1.42809795e-02
      3.51836346e-02 1.36809302e-02 7.09910244e-02 1.32208526e-01
      1.54968917e-01</_>
    <_>
      1.40820518e-01 2.03004152e-01 8.81045759e-02 8.94334819e-03
      4.63248529e-02 6.39599329e-03 7.29090497e-02 1.59064040e-01
      1.18201658e-01</_>
    <_>
      3.23672414e-01 6.39430061e-02 1.31018395e-02 1.81945984e-03
      3.29278335e-02 1.92164117e-03 1.22758932e-02 5.97297773e-02
      3.13033760e-01</_>
    <_>
      2.60739774e-01 7.53089711e-02 4.17242199e-02 2.11077202e-02
      7.78199583e-02 2.41497327e-02 4.18397486e-02 7.91340098e-02
      2.56691009e-01</_>
    <_>
      2.39889637e-01 5.42157181e-02 3.53508778e-02 7.67614022e-02
      1.23133235e-01 6.39223456e-02 2.87587214e-02 4.13195305e-02
      2.13557288e-01</_>
    <_>
      2.34226331e-01 1.05003685e-01 3.59582491e-02 1.66286696e-02
      1.93757508e-02 1.62776876e-02 4.78557348e-02 1.67730033e-01
      2.68857539e-01</_>
    <_>
      4.19216342e-02 4.80228104e-02 1.47986829e-01 1.38239041e-01
      1.44681796e-01 1.44719139e-01 1.78983226e-01 6.09057546e-02
      4.58257832e-02</_>
    <_>
      1.91140518e-01 6.54286146e-02 3.99227738e-02 2.03435868e-02
      5.19499592e-02 2.05161199e-02 5.18736839e-02 1.28073588e-01
      2.48395145e-01</_>
    <_>
      6.95040599e-02 7.45000243e-02 7.38686472e-02 1.52177840e-01
      2.69662529e-01 1.47700116e-01 6.26911297e-02 7.68148825e-02
      7.16441870e-02</_>
    <_>
      3.53820771e-02 4.27188985e-02 1.60989746e-01 2.02837288e-01
      1.28386945e-01 1.28335148e-01 9.10893083e-02 2.37943456e-02
      2.97813322e-02</_>
    <_>
      2.43419454e-01 1.18489191e-01 2.02195421e-02 1.12150460e-02
      1.03976794e-01 9.33542755e-03 1.60249379e-02 5.53003177e-02
      1.81963637e-01</_>
    <_>
      2.64963210e-01 4.32165377e-02 3.52404825e-02 4.08175774e-02
      5.68629578e-02 3.67337801e-02 3.49637084e-02 4.67195846e-02
      2.86075860e-01</_>
    <_>
      2.38503397e-01 9.67252180e-02 5.97756393e-02 4.32089381e-02
      3.25193144e-02 4.34212387e-02 4.75618094e-02 8.99958611e-02
      2.20485389e-01</_>
    <_>
      5.50149716e-02 2.70887539e-02 1.77010074e-01 1.91999719e-01
      8.72590244e-02 1.20780818e-01 1.12536393e-01 2.16211472e-02
      5.07042445e-02</_>
    <_>
      2.04989269e-01 9.20964926e-02 1.21968659e-02 6.79531088e-03
      5.55139184e-02 4.93899919e-03 1.83343980e-02 1.47913396e-01
      2.79870123e-01</_>
    <_>
      2.49790192e-01 1.02173410e-01 3.77403162e-02 1.81564298e-02
      5.24500944e-02 1.25024021e-02 3.07122152e-02 8.04326162e-02
      2.41494432e-01</_>
    <_>
      2.67855614e-01 1.29810035e-01 2.43920311e-02 5.89556899e-03
      5.28934188e-02 4.68186056e-03 1.89865846e-02 9.41868052e-02
      2.42786080e-01</_>
    <_>
      4.19464372e-02 3.14225964e-02 7.19376281e-02 2.09456682e-01
      2.82935888e-01 9.96098965e-02 3.15791555e-02 2.25418750e-02
      4.04687785e-02</_>
    <_>
      4.41540927e-02 4.99776900e-02 4.50283177e-02 1.32384956e-01
      2.68435776e-01 1.34091213e-01 5.55586405e-02 5.76137565e-02
      5.08406535e-02</_>
    <_>
      2.58055598e-01 3.42441238e-02 3.63203511e-02 3.58869061e-02
      6.15474805e-02 2.45684329e-02 2.34046690e-02 2.55800541e-02
      2.65435725e-01</_>
    <_>
      2.59921458e-02 1.07819624e-02 1.64487604e-02 1.81812689e-01
      3.61866057e-01 8.55155662e-02 1.00095365e-02 1.08670192e-02
      2.74335537e-02</_>
    <_>
      1.79274753e-01 1.06407709e-01 8.84818658e-03 2.08073459e-03
      5.99986464e-02 2.72654719e-03 1.51488977e-02 1.87136710e-01
      2.54073113e-01</_>
    <_>
      7.52623305e-02 4.93904948e-02 5.93332984e-02 1.09801419e-01
      2.59968311e-01 1.87503144e-01 6.50356933e-02 5.31271473e-02
      7.23955110e-02</_>
    <_>
      4.89175804e-02 4.42642532e-02 7.45517090e-02 1.66264459e-01
      2.99760669e-01 1.10633425e-01 5.65340258e-02 3.41737010e-02
      3.33759077e-02</_>
    <_>
      2.39477679e-01 3.82486880e-02 2.34819818e-02 4.30649891e-02
      8.32390562e-02 4.41434197e-02 2.77938191e-02 4.16828170e-02
      2.44632855e-01</_>
    <_>
      1.90451354e-01 1.72431052e-01 1.15422986e-01 3.14347483e-02
      4.00220938e-02 2.58501489e-02 1.03181496e-01 1.45207182e-01
      1.83280513e-01</_>
    <_>
      4.53966260e-02 6.92535117e-02 1.16566420e-01 9.92667377e-02
      2.46445909e-01 1.16014786e-01 1.47936285e-01 1.06784470e-01
      4.56778258e-02</_>
    <_>
      5.48604317e-02 1.28312847e-02 2.26340797e-02 1.15700193e-01
      3.54190022e-01 8.16775858e-02 1.48091512e-02 1.04265818e-02
      5.44739142e-02</_>
    <_>
      2.10898682e-01 4.23286445e-02 1.93240326e-02 3.35896313e-02
      1.60903752e-01 3.86648625e-02 2.52472814e-02 4.69277091e-02
      2.14845821e-01</_>
    <_>
      2.14475632e-01 1.61589552e-02 1.40330065e-02 3.58112566e-02
      1.88363776e-01 5.80418631e-02 1.42481346e-02 2.05711816e-02
      2.30926305e-01</_>
    <_>
      2.01523915e-01 1.18311472e-01 5.15756905e-02 2.42184848e-02
      5.10204993e-02 1.29867513e-02 4.75164652e-02 1.18688799e-01
      2.14200869e-01</_>
    <_>
      4.22095321e-02 5.21529801e-02 1.32546410e-01 1.27777204e-01
      2.20973134e-01 9.95637700e-02 1.00781448e-01 4.31395955e-02
      4.81468178e-02</_>
    <_>
      3.24496888e-02 1.59528330e-01 1.21096969e-01 7.36453244e-03
      9.18956175e-02 1.01484461e-02 1.49426207e-01 1.89389989e-01
      3.70102860e-02</_>
    <_>
      2.72210330e-01 7.10534975e-02 1.33748557e-02 1.96470805e-02
      3.94442491e-02 9.70151462e-03 1.17910374e-02 5.05803153e-02
      2.61029810e-01</_>
    <_>
      3.63873616e-02 4.10580114e-02 1.34326279e-01 1.52531669e-01
      2.19827652e-01 1.24376208e-01 9.81843099e-02 3.59249078e-02
      2.85533313e-02</_>
    <_>
      5.38788438e-02 1.37966322e-02 1.34820286e-02 1.15623638e-01
      3.65629077e-01 5.40780723e-02 2.08646413e-02 2.46382970e-02
      5.79999574e-02</_>
    <_>
      2.25399006e-02 1.16333470e-03 3.88327078e-03 1.25499129e-01
      3.55543226e-01 2.16125771e-01 6.64643245e-03 7.87962810e-04
      2.23485045e-02</_>
    <_>
      6.98330253e-02 1.19867502e-02 1.53924590e-02 9.95063707e-02
      3.12611371e-01 1.54048368e-01 2.04975381e-02 1.51654677e-02
      6.87006414e-02</_>
    <_>
      1.49363391e-02 1.03885636e-01 1.48578122e-01 7.18805045e-02
      5.54596223e-02 8.33531171e-02 2.01325536e-01 1.43124834e-01
      1.51329534e-02</_>
    <_>
      2.13687927e-01 1.81505084e-01 8.32850337e-02 3.22557986e-02
      2.23923419e-02 3.27791385e-02 6.24579377e-02 1.23741977e-01
      1.85897112e-01</_>
    <_>
      2.51010805e-01 6.06685318e-02 1.96837913e-02 4.01615687e-02
      1.07937835e-01 3.96752320e-02 1.63172875e-02 5.08218259e-02
      2.47334123e-01</_>
    <_>
      5.33824004e-02 3.36407088e-02 1.90620616e-01 1.43289864e-01
      1.63745448e-01 9.83718559e-02 1.23593718e-01 2.36805528e-02
      5.14907651e-02</_>
    <_>
      4.29863669e-02 6.49492368e-02 1.53996333e-01 1.04310624e-01
      2.01523364e-01 1.07494861e-01 1.13179393e-01 5.22151738e-02
      4.01448794e-02</_>
    <_>
      3.25361073e-01 3.60383652e-02 8.84234160e-03 5.89787774e-03
      2.37029586e-02 5.17045846e-03 1.10544059e-02 4.54927199e-02
      3.25307399e-01</_>
    <_>
      5.94553873e-02 3.24867070e-02 4.42261547e-02 6.81087524e-02
      2.89830297e-01 7.76270404e-02 6.46748319e-02 4.45846468e-02
      6.29432574e-02</_>
    <_>
      4.33614329e-02 1.21658474e-01 2.11620867e-01 6.90454245e-02
      8.81288722e-02 6.16155341e-02 1.75885990e-01 9.54474285e-02
      4.25419323e-02</_>
    <_>
      2.25672305e-01 9.55429971e-02 3.97149362e-02 7.92554114e-03
      5.57580665e-02 8.61272682e-03 3.48911434e-02 8.67877901e-02
      2.24332735e-01</_>
    <_>
      2.39136428e-01 8.26283321e-02 2.69115828e-02 1.56155219e-02
      6.62039146e-02 1.59988552e-02 1.91460699e-02 9.24743563e-02
      2.47254431e-01</_>
    <_>
      2.66968340e-01 6.26933947e-02 4.05856781e-02 4.54199985e-02
      6.77290484e-02 4.90079634e-02 3.77937183e-02 5.39007075e-02
      2.65163451e-01</_>
    <_>
      5.73996641e-02 5.03894053e-02 6.27736375e-02 1.56553760e-01
      2.69011289e-01 1.45507991e-01 7.07789361e-02 6.03254251e-02
      6.25540689e-02</_>
    <_>
      5.67138083e-02 3.85677405e-02 2.00157046e-01 1.01734221e-01
      8.85399804e-02 8.76298845e-02 1.59498215e-01 3.49904709e-02
      5.22215515e-02</_>
    <_>
      2.30330840e-01 6.02587499e-02 2.06824150e-02 1.47602968e-02
      8.31257477e-02 1.36308484e-02 1.66795552e-02 9.70377401e-02
      2.72717804e-01</_>
    <_>
      2.01732680e-01 6.36994392e-02 7.03180507e-02 6.42909035e-02
      4.89497520e-02 6.59261495e-02 1.03853911e-01 8.44808072e-02
      2.08185822e-01</_>
    <_>
      2.56320462e-02 3.74874771e-02 1.37839511e-01 1.98754713e-01
      2.39105836e-01 1.54865161e-01 1.09938480e-01 2.98954882e-02
      2.38755140e-02</_>
    <_>
      7.56172696e-03 3.26363742e-02 1.62134960e-01 1.03457749e-01
      8.01753774e-02 1.31532758e-01 2.26017162e-01 3.51447426e-02
      7.56172696e-03</_>
    <_>
      3.41322385e-02 5.39834946e-02 1.31640568e-01 9.19024274e-02
      3.33990380e-02 1.34524301e-01 2.06607342e-01 9.05593261e-02
      3.73980068e-02</_>
    <_>
      5.26772588e-02 1.65764764e-02 1.78968888e-02 8.70562717e-02
      3.34168315e-01 1.51345581e-01 2.34879833e-02 2.14453135e-02
      5.49401492e-02</_>
    <_>
      2.58613020e-01 7.76261538e-02 4.55010571e-02 6.60022050e-02
      7.85814226e-02 6.06871992e-02 4.13092151e-02 9.00044292e-02
      2.63508588e-01</_>
    <_>
      3.18423957e-01 4.60901670e-02 6.41112681e-03 1.83075818e-03
      4.48098220e-02 1.88177289e-03 4.90658311e-03 2.96217017e-02
      2.88111031e-01</_>
    <_>
      1.64903879e-01 1.41119421e-01 2.95196734e-02 1.19653894e-02
      1.89983565e-02 1.72575973e-02 4.71169241e-02 2.06379309e-01
      2.16439903e-01</_>
    <_>
      2.64350444e-01 2.09956408e-01 7.59331658e-02 2.02466417e-02
      3.75124589e-02 1.42078120e-02 2.76985131e-02 5.39569706e-02
      1.35422945e-01</_>
    <_>
      2.76490420e-01 1.34407833e-01 3.90063301e-02 1.00857560e-02
      2.27502249e-02 1.16932960e-02 3.22195217e-02 1.01377778e-01
      2.37514660e-01</_>
    <_>
      2.18763471e-01 1.08433470e-01 3.72947827e-02 2.54604798e-02
      5.58397919e-02 1.89670157e-02 2.73860469e-02 1.26100957e-01
      2.43091926e-01</_>
    <_>
      2.33989492e-01 1.94582671e-01 1.98974051e-02 1.41519951e-02
      4.07082215e-02 1.29805394e-02 2.22354457e-02 1.24481268e-01
      1.80652514e-01</_>
    <_>
      4.48538736e-02 2.83409860e-02 3.72490920e-02 1.27621338e-01
      2.81824738e-01 1.47134721e-01 7.13207871e-02 4.55471165e-02
      6.02370054e-02</_>
    <_>
      3.72257978e-02 3.66100073e-02 4.77260761e-02 1.42020479e-01
      2.90357858e-01 1.30704314e-01 5.03672995e-02 4.39271778e-02
      4.02425453e-02</_>
    <_>
      2.95766331e-02 3.93751375e-02 7.60129988e-02 1.89861983e-01
      3.07848126e-01 1.48364767e-01 3.45390067e-02 1.92685612e-02
      1.39078870e-02</_>
    <_>
      2.99883578e-02 3.64172123e-02 1.31523505e-01 1.44867718e-01
      1.23305023e-01 1.55086949e-01 1.58031076e-01 3.62754837e-02
      2.92393193e-02</_>
    <_>
      2.25856185e-01 2.15361360e-02 2.59946063e-02 4.64636683e-02
      1.21353626e-01 3.04189343e-02 2.39217449e-02 2.31777057e-02
      2.18871370e-01</_>
    <_>
      3.34507763e-01 1.30626513e-02 3.28325271e-03 1.98668661e-03
      4.24858779e-02 1.79726828e-03 2.57352157e-03 9.96996649e-03
      2.91637868e-01</_>
    <_>
      2.32990623e-01 9.52547491e-02 4.64778133e-02 2.07552891e-02
      4.33665924e-02 1.91851798e-02 3.77242826e-02 1.26165107e-01
      2.65680850e-01</_>
    <_>
      2.08304331e-01 1.78592876e-01 7.67490193e-02 1.29954703e-02
      6.70647398e-02 1.90328304e-02 6.55657649e-02 1.46711543e-01
      2.08438873e-01</_>
    <_>
      2.45201409e-01 1.48928270e-01 7.12487847e-02 2.60972343e-02
      3.80129516e-02 1.83599386e-02 3.18368599e-02 8.64949673e-02
      2.19915599e-01</_>
    <_>
      2.37251058e-01 1.80626065e-01 6.93763271e-02 1.85032990e-02
      1.91529170e-02 1.07688997e-02 3.93917672e-02 1.10331744e-01
      1.78453997e-01</_>
    <_>
      2.04370782e-01 9.41534042e-02 3.82755585e-02 7.78168999e-03
      4.85537276e-02 8.81897192e-03 7.71634877e-02 1.73805788e-01
      2.59083986e-01</_>
    <_>
      2.08193272e-01 1.34059742e-01 7.66137689e-02 9.46918596e-03
      1.69785582e-02 1.15461256e-02 6.34957850e-02 9.50021893e-02
      1.83757320e-01</_>
    <_>
      4.93676513e-02 3.34211253e-02 5.25897257e-02 1.16393410e-01
      2.85402209e-01 1.45175442e-01 6.65743873e-02 4.78315018e-02
      5.28199226e-02</_>
    <_>
      2.39336073e-01 7.86425620e-02 5.33472672e-02 3.08693759e-02
      5.60208932e-02 1.85137894e-02 3.09622977e-02 4.49896455e-02
      2.02116549e-01</_>
    <_>
      6.03708439e-02 1.89147312e-02 4.33771610e-02 1.66037783e-01
      3.24803114e-01 1.75772354e-01 3.42587233e-02 1.50839072e-02
      5.84927537e-02</_>
    <_>
      5.84999956e-02 5.71251549e-02 6.96983039e-02 1.37046576e-01
      2.82682925e-01 1.14331037e-01 5.54870591e-02 4.97745834e-02
      6.71375245e-02</_>
    <_>
      2.62341410e-01 8.55808184e-02 3.18548866e-02 1.60349607e-02
      4.29478884e-02 1.25070512e-02 2.38808580e-02 5.99639267e-02
      2.36732811e-01</_>
    <_>
      2.50307709e-01 7.78523013e-02 3.69487554e-02 1.90333631e-02
      4.98129614e-02 7.73011660e-03 3.00001185e-02 9.03138816e-02
      2.54229039e-01</_>
    <_>
      2.25254357e-01 9.30499882e-02 3.12841833e-02 1.64467655e-02
      4.21135277e-02 1.57843865e-02 4.90141883e-02 1.20080404e-01
      2.37390742e-01</_>
    <_>
      7.54327998e-02 4.18127030e-02 4.14966643e-02 1.44286484e-01
      2.76051402e-01 1.14657335e-01 2.48496253e-02 3.43739279e-02
      7.84428418e-02</_>
    <_>
      1.89584151e-01 1.21688195e-01 2.02897843e-02 8.16862844e-03
      9.43423137e-02 8.73803999e-03 2.55287420e-02 1.68716788e-01
      2.11768493e-01</_>
    <_>
      2.03915253e-01 1.85470045e-01 8.44365880e-02 2.50775199e-02
      2.91873310e-02 2.37223599e-02 6.24537319e-02 1.26541495e-01
      1.76232621e-01</_>
    <_>
      3.10242742e-01 5.98028339e-02 1.12407273e-02 1.40142217e-02
      4.36329134e-02 1.05338031e-02 7.31495488e-03 4.26788628e-02
      2.90087759e-01</_>
    <_>
      2.53016293e-01 6.88969344e-02 3.15493718e-02 2.60803532e-02
      4.88404185e-02 1.35981366e-02 2.39792205e-02 8.12653899e-02
      2.76286185e-01</_>
    <_>
      3.94004621e-02 1.24698998e-02 8.83548558e-02 2.26749897e-01
      1.52756199e-01 1.46444708e-01 6.35000765e-02 1.03399381e-02
      3.90599966e-02</_>
    <_>
      1.99824169e-01 8.39925259e-02 4.54210024e-03 1.61318872e-02
      8.40809345e-02 1.60174910e-02 5.70915779e-03 1.32224113e-01
      2.37657055e-01</_>
    <_>
      4.58710976e-02 4.74662110e-02 6.87315911e-02 1.71133608e-01
      2.86853015e-01 1.95007309e-01 6.64560273e-02 4.39498648e-02
      4.67050858e-02</_>
    <_>
      2.16450050e-01 1.79802313e-01 4.90673631e-02 1.14402389e-02
      4.77779955e-02 8.81743059e-03 4.04888205e-02 1.22086614e-01
      1.56194866e-01</_>
    <_>
      3.90816741e-02 4.51509096e-02 7.94837177e-02 9.47377384e-02
      2.63019592e-01 1.00508101e-01 7.79875740e-02 4.45607640e-02
      3.61256562e-02</_>
    <_>
      1.56541541e-01 1.32113919e-01 6.21633120e-02 2.88233534e-02
      2.10851450e-02 3.71026509e-02 9.50382650e-02 2.00379550e-01
      1.83015525e-01</_>
    <_>
      3.34928304e-01 1.50342295e-02 7.81899039e-03 5.05306339e-03
      1.67108718e-02 7.02368189e-03 6.64305175e-03 9.53168049e-03
      3.29458296e-01</_>
    <_>
      2.53031224e-01 4.22843918e-02 2.55575757e-02 2.57204920e-02
      9.60401297e-02 2.48197969e-02 4.02441993e-02 4.87459600e-02
      2.58585364e-01</_>
    <_>
      2.08331734e-01 8.43004063e-02 1.25384443e-02 1.17960265e-02
      6.87101558e-02 1.45072751e-02 1.21582951e-02 1.23503827e-01
      2.75108069e-01</_>
    <_>
      2.51352161e-01 1.09105825e-01 1.83689222e-02 5.31747984e-03
      5.85282817e-02 5.22717973e-03 1.18072815e-02 8.50780308e-02
      2.29645178e-01</_>
    <_>
      2.37086162e-01 5.13080806e-02 2.13208441e-02 2.17790231e-02
      8.99154693e-02 2.32645087e-02 2.50686910e-02 7.24051073e-02
      2.53409117e-01</_>
    <_>
      3.98581214e-02 4.41266596e-02 1.36644468e-01 8.96173418e-02
      1.40522823e-01 1.33842781e-01 1.79832578e-01 6.14591986e-02
      4.51591723e-02</_>
    <_>
      2.41162941e-01 4.13500369e-02 3.32911499e-02 2.66580023e-02
      6.77354857e-02 3.15709040e-02 2.87376214e-02 6.14082515e-02
      2.66301215e-01</_>
    <_>
      4.12916765e-02 1.27560660e-01 2.06642926e-01 2.07013972e-02
      5.73168956e-02 1.96589753e-02 1.76482871e-01 1.10124156e-01
      4.12016362e-02</_>
    <_>
      2.15186760e-01 1.90162845e-02 3.18978950e-02 6.15375154e-02
      1.26608655e-01 8.24133977e-02 4.13174517e-02 3.46905217e-02
      2.17656404e-01</_>
    <_>
      1.87770858e-01 1.25530452e-01 6.57382905e-02 1.69707332e-02
      2.53994912e-02 2.60434542e-02 1.03857569e-01 1.81451127e-01
      2.31241718e-01</_>
    <_>
      1.53743580e-01 7.76604339e-02 4.26670574e-02 2.39032712e-02
      5.73568083e-02 3.15875895e-02 5.43425009e-02 1.75037712e-01
      2.32186273e-01</_>
    <_>
      2.91507632e-01 5.21481596e-02 2.12768614e-02 1.55198732e-02
      2.85759792e-02 1.20013310e-02 2.51654740e-02 6.00335822e-02
      2.91147858e-01</_>
    <_>
      2.99459577e-01 7.63992816e-02 2.75304541e-02 1.66870262e-02
      1.99670177e-02 1.94409601e-02 3.03416345e-02 7.27044269e-02
      2.89315999e-01</_>
    <_>
      2.61875719e-01 7.31972829e-02 8.44848249e-03 6.30232831e-03
      6.80660680e-02 5.40206116e-03 8.56642611e-03 7.62226358e-02
      2.76007295e-01</_>
    <_>
      2.51553655e-01 6.14778399e-02 2.79552713e-02 2.67151278e-02
      7.10874721e-02 2.87929904e-02 3.04613784e-02 6.69481009e-02
      2.66829073e-01</_>
    <_>
      2.59836942e-01 4.17214967e-02 2.10466832e-02 2.34797746e-02
      7.24460632e-02 1.72542408e-02 2.48317290e-02 4.73337993e-02
      2.62551427e-01</_>
    <_>
      2.01054916e-01 6.71644360e-02 1.54395560e-02 2.20847819e-02
      8.46184790e-02 2.46238615e-02 1.91722736e-02 1.22594833e-01
      2.58570582e-01</_>
    <_>
      7.22196400e-02 5.29613681e-02 1.91523004e-02 1.20916344e-01
      3.06187868e-01 1.49698600e-01 2.89281998e-02 5.26435301e-02
      7.95006454e-02</_>
    <_>
      4.00656089e-02 4.57667708e-02 1.56476125e-01 1.78543538e-01
      1.36195228e-01 1.19436391e-01 1.05693437e-01 4.07709293e-02
      3.94112356e-02</_>
    <_>
      2.25206077e-01 5.95364235e-02 5.10035306e-02 1.43448720e-02
      5.24826497e-02 1.79087035e-02 5.31176329e-02 7.63684437e-02
      2.41728172e-01</_>
    <_>
      2.32133567e-01 1.77755073e-01 1.57701001e-02 6.00526808e-03
      6.07589744e-02 8.93509854e-03 1.67043153e-02 1.03896283e-01
      1.78957924e-01</_>
    <_>
      5.02482951e-02 6.20582439e-02 1.75297558e-01 1.06134564e-01
      1.47296652e-01 1.03992015e-01 1.34871647e-01 4.21421342e-02
      5.05452193e-02</_>
    <_>
      3.98965552e-02 1.74314491e-02 5.28352745e-02 1.43465728e-01
      3.30086887e-01 1.20977119e-01 5.14156409e-02 2.32363902e-02
      4.02666293e-02</_>
    <_>
      7.73198977e-02 2.33067628e-02 1.29632577e-01 1.61627144e-01
      1.75387114e-01 1.10943735e-01 9.46869701e-02 2.86314879e-02
      8.12724084e-02</_>
    <_>
      9.02267471e-02 2.70881206e-02 2.12960411e-02 4.72225137e-02
      3.27251107e-01 6.35656863e-02 2.98666190e-02 2.38398425e-02
      9.33948904e-02</_>
    <_>
      3.26944739e-01 1.47682913e-02 8.81827623e-03 1.27540678e-02
      2.29961667e-02 1.32657960e-02 7.12243188e-03 1.23926057e-02
      3.30942601e-01</_>
    <_>
      3.10195863e-01 1.31956749e-02 1.28351506e-02 7.64073757e-03
      3.91683318e-02 8.33356008e-03 1.06508778e-02 1.21647790e-02
      3.10448974e-01</_>
    <_>
      3.24683994e-01 1.20042870e-02 6.73321448e-03 6.16546068e-03
      1.84551887e-02 6.36096997e-03 7.18078017e-03 1.16911177e-02
      3.23207915e-01</_>
    <_>
      3.04097474e-01 1.78751498e-02 1.87829379e-02 2.31294688e-02
      5.17828353e-02 1.88664477e-02 1.78392418e-02 1.93000771e-02
      3.07691813e-01</_>
    <_>
      3.12979907e-01 2.02293787e-02 1.46505265e-02 8.08916707e-03
      4.16141786e-02 8.23975727e-03 1.15658240e-02 1.83823761e-02
      3.13473970e-01</_>
    <_>
      7.41640478e-02 3.11855990e-02 4.89541329e-02 1.35282442e-01
      1.93454698e-01 1.68298304e-01 7.18486905e-02 3.33495587e-02
      7.97471702e-02</_>
    <_>
      3.11416417e-01 2.40040347e-02 1.90957263e-02 1.13644795e-02
      3.78006399e-02 1.09392321e-02 1.73656847e-02 2.24590842e-02
      3.10730338e-01</_>
    <_>
      2.18626142e-01 8.10627565e-02 5.60969971e-02 6.04407676e-02
      3.55092324e-02 5.61361760e-02 6.30642027e-02 8.37085992e-02
      2.18833044e-01</_>
    <_>
      6.71549067e-02 1.68299913e-01 1.47609040e-01 3.93740945e-02
      5.53674065e-02 2.66489405e-02 1.26060367e-01 1.46080777e-01
      5.89875691e-02</_>
    <_>
      3.10459603e-02 1.40864819e-01 1.37398660e-01 3.98286991e-02
      2.89433300e-02 4.81389649e-02 1.75101653e-01 1.71198785e-01
      3.56098674e-02</_>
    <_>
      5.46466820e-02 2.31870152e-02 1.05402119e-01 1.65888086e-01
      2.64278144e-01 1.47788748e-01 8.32524374e-02 1.82796512e-02
      5.43742515e-02</_>
    <_>
      1.00289114e-01 1.58069238e-01 9.42699611e-02 1.31089389e-02
      4.70507033e-02 1.24252168e-02 1.19078189e-01 1.91678882e-01
      1.12517439e-01</_>
    <_>
      3.00207809e-02 6.35012016e-02 1.29331902e-01 1.62625015e-01
      1.49096951e-01 1.77239358e-01 1.36615813e-01 5.86945005e-02
      3.29936594e-02</_>
    <_>
      5.46174049e-02 3.65572274e-02 1.58330426e-01 9.13810357e-02
      1.56088829e-01 8.97838026e-02 1.95413634e-01 4.43929061e-02
      6.06602542e-02</_>
    <_>
      1.89149350e-01 1.75011978e-01 5.13386428e-02 1.95380487e-02
      3.88484746e-02 1.70607399e-02 5.46160042e-02 1.66039035e-01
      1.76138371e-01</_>
    <_>
      2.74564058e-01 8.78992751e-02 3.34007517e-02 1.28152901e-02
      3.33184078e-02 1.28537072e-02 2.76944470e-02 8.71068314e-02
      2.84726501e-01</_>
    <_>
      2.34126434e-01 9.30756778e-02 1.92366596e-02 4.15423978e-03
      7.13724494e-02 5.11554955e-03 2.79826242e-02 1.39879897e-01
      2.68202752e-01</_>
    <_>
      5.39973974e-02 2.92309318e-02 1.58760637e-01 1.65300757e-01
      1.52808681e-01 1.18822239e-01 1.15228653e-01 2.45127697e-02
      5.52244335e-02</_>
    <_>
      2.74337649e-01 4.63139899e-02 2.29936410e-02 2.44927630e-02
      5.79192191e-02 2.02412028e-02 1.74123291e-02 3.77349481e-02
      2.66577989e-01</_>
    <_>
      2.33321548e-01 1.69596791e-01 5.36459312e-02 2.13198680e-02
      3.36999595e-02 1.59621686e-02 3.84332873e-02 1.07522011e-01
      1.80804014e-01</_>
    <_>
      2.47109294e-01 1.55794024e-01 3.34655270e-02 2.91363373e-02
      5.37506230e-02 4.43651490e-02 4.13169377e-02 1.27315581e-01
      2.12774873e-01</_>
    <_>
      2.26224825e-01 9.45376828e-02 3.07038315e-02 3.19400951e-02
      8.55989903e-02 2.46926453e-02 3.43137048e-02 1.22287899e-01
      2.63510197e-01</_>
    <_>
      2.38941222e-01 1.29262954e-01 6.31702393e-02 1.44908577e-02
      6.16047867e-02 2.07275786e-02 5.36682308e-02 1.24632202e-01
      2.33731493e-01</_>
    <_>
      2.50838190e-01 1.14957064e-01 2.78710984e-02 1.82423480e-02
      2.52298526e-02 1.83309857e-02 3.79512906e-02 1.11750416e-01
      2.47825325e-01</_>
    <_>
      2.90875554e-01 1.02028549e-01 2.39746552e-02 1.09292055e-02
      6.32987469e-02 1.45014450e-02 1.95297543e-02 8.09582919e-02
      2.62210369e-01</_>
    <_>
      1.92852125e-01 1.70904323e-01 9.86547470e-02 1.07914293e-02
      7.97478482e-02 1.27386255e-02 9.81962979e-02 1.54828444e-01
      1.89412534e-01</_>
    <_>
      2.28133932e-01 3.45902890e-02 2.47756988e-02 3.35283950e-02
      1.36813983e-01 3.99498045e-02 3.53627764e-02 4.55453061e-02
      2.36566097e-01</_>
    <_>
      3.78255695e-02 1.60916224e-02 5.19783981e-02 1.48091599e-01
      2.84435660e-01 9.30118114e-02 2.63893120e-02 1.07295904e-02
      3.38032320e-02</_>
    <_>
      2.81056970e-01 3.30415927e-02 2.23637316e-02 1.94775052e-02
      7.59837255e-02 1.73149742e-02 1.74321216e-02 2.73407008e-02
      2.68459022e-01</_>
    <_>
      2.05095205e-02 1.71625223e-02 3.43558304e-02 1.56303242e-01
      3.42557222e-01 1.33013323e-01 3.61615345e-02 2.42435336e-02
      2.53786538e-02</_>
    <_>
      4.01667915e-02 2.44179163e-02 2.33942494e-02 1.05074197e-01
      2.87638664e-01 1.01407193e-01 4.69380058e-02 4.94135134e-02
      5.02576157e-02</_>
    <_>
      6.19384125e-02 5.40886745e-02 9.06770080e-02 1.68705136e-01
      2.54961133e-01 1.52891934e-01 9.18982551e-02 4.39830646e-02
      5.99667057e-02</_>
    <_>
      3.52542475e-02 8.19430649e-02 1.58082023e-01 9.97779891e-02
      1.72198787e-01 9.07214507e-02 1.44656464e-01 7.10450709e-02
      3.34895961e-02</_>
    <_>
      2.74564803e-01 7.14389384e-02 2.36384124e-02 2.39072032e-02
      5.98476604e-02 2.68454347e-02 1.94282960e-02 6.56341687e-02
      2.84817070e-01</_>
    <_>
      2.53442138e-01 1.52746975e-01 5.33600263e-02 1.43647352e-02
      1.78321768e-02 8.04368500e-03 3.60294208e-02 1.08962990e-01
      2.37449631e-01</_>
    <_>
      1.70616396e-02 1.57279179e-01 1.99335560e-01 2.67874431e-02
      7.18097389e-02 2.59000435e-02 1.68145955e-01 1.26248822e-01
      1.64490622e-02</_>
    <_>
      2.02218313e-02 4.84984256e-02 1.34468555e-01 1.80035710e-01
      2.09317014e-01 1.68426529e-01 1.31640539e-01 4.99826036e-02
      2.34368071e-02</_>
    <_>
      2.46020108e-01 1.51304558e-01 1.60214454e-02 1.86746009e-02
      7.68391415e-02 1.60173196e-02 1.61711946e-02 1.28661424e-01
      2.16357246e-01</_>
    <_>
      2.70741880e-01 1.57988183e-02 1.02904662e-02 8.89478251e-03
      4.21718135e-02 6.44142088e-03 8.14210996e-03 2.30669100e-02
      3.30344319e-01</_>
    <_>
      2.92011380e-01 1.18978433e-02 4.97776084e-04 1.50503562e-04
      3.03897541e-02 9.06408532e-05 6.32558425e-04 1.92603208e-02
      3.51549655e-01</_>
    <_>
      3.08473200e-01 6.99566072e-03 2.91973958e-03 5.04139112e-03
      3.22280377e-02 6.37659151e-03 3.73642473e-03 1.11616338e-02
      3.42072099e-01</_>
    <_>
      1.11158840e-01 1.42056510e-01 4.98926565e-02 1.47900758e-02
      8.44910890e-02 1.65728629e-02 7.00488091e-02 2.09403500e-01
      1.34007573e-01</_>
    <_>
      3.17904979e-01 2.04542670e-02 7.48832338e-03 7.56302290e-03
      4.51107509e-02 1.20339822e-02 7.16863899e-03 1.62569564e-02
      2.89269805e-01</_>
    <_>
      2.74059892e-01 8.59414488e-02 1.87865272e-02 1.89134665e-02
      8.72562826e-02 1.66260526e-02 1.24008963e-02 5.26556373e-02
      2.30411768e-01</_>
    <_>
      4.22692150e-02 9.26020518e-02 1.08093761e-01 1.18300505e-01
      1.97377503e-01 9.80515555e-02 1.11510336e-01 8.59809294e-02
      4.10273112e-02</_>
    <_>
      3.19009572e-02 1.06863290e-01 1.42971575e-01 1.33595616e-01
      1.61139190e-01 1.36885345e-01 1.43290550e-01 1.14522882e-01
      4.09574658e-02</_>
    <_>
      8.29499736e-02 1.20129690e-01 1.22102514e-01 4.40551341e-02
      2.61583608e-02 3.12599614e-02 1.75517559e-01 1.48639485e-01
      7.98910931e-02</_>
    <_>
      2.19800532e-01 1.36797324e-01 5.42696007e-02 1.84748787e-02
      4.01936360e-02 1.84496380e-02 6.29049391e-02 1.51926547e-01
      2.36544326e-01</_>
    <_>
      1.18679814e-02 1.36342600e-01 2.29784176e-01 5.72914556e-02
      7.63857290e-02 4.89397272e-02 1.62519753e-01 9.94745865e-02
      1.03701819e-02</_>
    <_>
      5.96401729e-02 4.58935509e-03 7.50477910e-02 1.46032900e-01
      1.78017259e-01 2.14751795e-01 9.88146439e-02 5.14168292e-03
      6.23332597e-02</_>
    <_>
      6.27839491e-02 2.15725955e-02 1.29663080e-01 1.24899969e-01
      1.35650843e-01 1.56820238e-01 1.81383520e-01 3.02345119e-02
      6.55768737e-02</_>
    <_>
      2.59990275e-01 1.80211097e-01 2.57272664e-02 1.49255749e-02
      3.99877355e-02 1.23298028e-02 2.38563195e-02 1.07676849e-01
      1.73658207e-01</_>
    <_>
      2.51546741e-01 1.87528342e-01 1.17453784e-02 3.10849538e-03
      5.54245822e-02 3.22090532e-03 9.06131230e-03 1.18094482e-01
      1.73812240e-01</_>
    <_>
      2.52809346e-01 5.35198934e-02 2.95310244e-02 2.69439761e-02
      7.74207711e-02 2.16230527e-02 2.55161021e-02 4.32363860e-02
      2.43610010e-01</_>
    <_>
      2.28791997e-01 1.61279768e-01 2.13918425e-02 7.96337333e-03
      9.00281668e-02 9.84623469e-03 1.77432820e-02 1.09877072e-01
      1.82704642e-01</_>
    <_>
      1.26082718e-01 1.53283969e-01 3.70232649e-02 9.10220016e-03
      9.09316391e-02 8.55533872e-03 4.70488481e-02 2.06109002e-01
      1.55147657e-01</_>
    <_>
      8.37888643e-02 3.62769105e-02 5.47843874e-02 1.13688380e-01
      2.86003679e-01 1.00085236e-01 4.13075946e-02 3.10252234e-02
      7.57263526e-02</_>
    <_>
      1.48868458e-02 1.20940451e-02 1.08894676e-01 1.26348346e-01
      1.37628287e-01 1.93528131e-01 1.76778764e-01 2.44697537e-02
      1.68334804e-02</_>
    <_>
      2.36786067e-01 1.69741809e-01 1.48386713e-02 1.31072970e-02
      4.99177910e-02 6.85209921e-03 1.82454996e-02 1.27840832e-01
      1.96279123e-01</_>
    <_>
      2.52671063e-01 1.01647191e-01 2.97248829e-02 1.66193470e-02
      5.33703342e-02 1.83750093e-02 3.16635817e-02 1.23024449e-01
      2.65915602e-01</_>
    <_>
      2.04252422e-01 1.93154618e-01 8.60331282e-02 3.21207419e-02
      2.41331067e-02 1.74231511e-02 5.35146855e-02 1.28716782e-01
      1.67504802e-01</_>
    <_>
      2.30450686e-02 2.10294724e-02 3.69506441e-02 1.15711413e-01
      3.34168226e-01 1.72055572e-01 5.88082932e-02 1.79624334e-02
      1.94937550e-02</_>
    <_>
      5.92977405e-02 6.13687485e-02 5.93333654e-02 1.16536133e-01
      2.57694066e-01 1.30266637e-01 7.11799487e-02 7.36024380e-02
      6.76003471e-02</_>
    <_>
      5.84335327e-02 2.50788573e-02 1.15853183e-01 1.17513195e-01
      2.65356809e-01 1.38985872e-01 1.29657969e-01 2.62991060e-02
      5.79087548e-02</_>
    <_>
      2.30796058e-02 1.11112341e-01 1.68733031e-01 8.17961246e-02
      4.57514487e-02 8.35430622e-02 1.96472242e-01 1.31243706e-01
      2.37708315e-02</_>
    <_>
      6.96457773e-02 8.65138024e-02 1.25083715e-01 1.36526883e-01
      2.52860993e-01 1.34095207e-01 1.21489339e-01 8.09298605e-02
      6.84606358e-02</_>
    <_>
      6.17560707e-02 9.87232029e-02 1.09112136e-01 1.50745541e-01
      2.44372874e-01 1.38494179e-01 9.82918441e-02 9.66204628e-02
      6.24418706e-02</_>
    <_>
      2.10459437e-02 5.79737462e-02 1.10046759e-01 1.60772175e-01
      2.50121146e-01 1.77339599e-01 9.63313952e-02 4.91623096e-02
      1.82677731e-02</_>
    <_>
      6.74415305e-02 5.71130216e-02 4.78489883e-02 1.29944488e-01
      3.08461964e-01 1.28014028e-01 2.98373364e-02 4.23196815e-02
      5.56993075e-02</_>
    <_>
      1.82251006e-01 1.07786439e-01 4.81493631e-03 1.32230045e-02
      6.09638020e-02 1.33226346e-02 6.23889128e-03 1.64669842e-01
      2.47103050e-01</_>
    <_>
      2.54253656e-01 7.91800544e-02 3.88057046e-02 4.65933681e-02
      9.52027366e-02 4.40673530e-02 3.13174278e-02 6.57171756e-02
      2.41602257e-01</_>
    <_>
      2.35384926e-01 1.18444785e-01 4.02956232e-02 3.66810597e-02
      3.81043702e-02 3.34334448e-02 4.26940322e-02 1.41173631e-01
      2.49653190e-01</_>
    <_>
      2.32348502e-01 9.75509658e-02 3.13738286e-02 2.13433187e-02
      1.25791639e-01 2.31058281e-02 2.48825718e-02 4.07294445e-02
      1.93431556e-01</_>
    <_>
      6.12387024e-02 1.66835207e-02 1.99529398e-02 1.53661489e-01
      3.19492549e-01 8.68973210e-02 1.84880830e-02 1.46661941e-02
      5.98280281e-02</_>
    <_>
      1.99266613e-01 9.50431451e-02 7.54695833e-02 5.80901578e-02
      4.30870131e-02 4.93400656e-02 6.25914559e-02 1.14475630e-01
      2.24367335e-01</_>
    <_>
      1.95140123e-01 1.01075508e-01 3.43887284e-02 1.30800372e-02
      2.52998825e-02 1.11493953e-02 6.23693801e-02 1.80898681e-01
      2.53180921e-01</_>
    <_>
      6.74225241e-02 7.37369657e-02 8.66747499e-02 1.02396324e-01
      2.69391805e-01 7.27582052e-02 2.61147544e-02 2.43758708e-02
      5.39102815e-02</_>
    <_>
      2.36809343e-01 1.05224937e-01 4.22637910e-02 3.04276459e-02
      3.42512354e-02 3.26154605e-02 5.86636923e-02 1.39845327e-01
      2.54119247e-01</_>
    <_>
      1.92561477e-01 1.87804759e-01 5.41439950e-02 2.41620950e-02
      6.44669160e-02 1.71540733e-02 3.98825631e-02 1.50426313e-01
      1.90970972e-01</_>
    <_>
      4.27028388e-02 1.98227093e-02 8.95663500e-02 2.09095553e-01
      2.80984193e-01 1.71814874e-01 6.68434426e-02 1.84804257e-02
      4.00030240e-02</_>
    <_>
      9.43779200e-02 1.16990909e-01 1.81894958e-01 3.48970965e-02
      6.85078725e-02 3.46678607e-02 1.85734391e-01 1.15479045e-01
      1.03050776e-01</_>
    <_>
      2.25444555e-01 1.16790578e-01 3.56290564e-02 2.07156111e-02
      6.69081658e-02 1.63390953e-02 3.65467928e-02 1.34089947e-01
      2.37413228e-01</_>
    <_>
      2.37256780e-01 5.70861921e-02 1.02032442e-02 1.28817270e-02
      7.71543160e-02 6.46110717e-03 1.42816231e-02 8.96883607e-02
      2.84447730e-01</_>
    <_>
      2.35162228e-01 1.48373291e-01 2.42298134e-02 8.52676854e-03
      4.19648141e-02 1.24272993e-02 3.32234614e-02 1.04726270e-01
      2.06817999e-01</_>
    <_>
      2.54076183e-01 1.26067042e-01 1.34514365e-02 1.47559345e-02
      9.28665400e-02 1.82810593e-02 1.04211690e-02 7.81434923e-02
      2.06153482e-01</_>
    <_>
      6.24425448e-02 4.42126580e-02 2.56268587e-02 7.57132247e-02
      2.99052715e-01 6.68067038e-02 5.71424477e-02 6.51265308e-02
      7.00728744e-02</_>
    <_>
      2.29102477e-01 9.96723548e-02 3.21249776e-02 7.69831426e-03
      2.97668446e-02 1.42766936e-02 5.41198999e-02 1.37066305e-01
      2.35567063e-01</_>
    <_>
      3.73071395e-02 1.43725321e-01 1.55769855e-01 6.43758802e-03
      8.80734846e-02 6.35722652e-03 1.90005675e-01 1.54489413e-01
      4.60232347e-02</_>
    <_>
      1.58198252e-02 1.22799248e-01 1.69008970e-01 1.48442192e-02
      6.76723942e-02 1.31383482e-02 2.06550241e-01 1.58056214e-01
      1.57592446e-02</_>
    <_>
      7.80069530e-02 5.51066846e-02 4.18465696e-02 5.04481941e-02
      3.04502904e-01 7.52219856e-02 4.36575711e-02 3.06598507e-02
      6.02718443e-02</_>
    <_>
      1.27283819e-02 7.48652890e-02 2.20363960e-01 8.87462795e-02
      1.20982431e-01 7.24595562e-02 1.83430791e-01 6.42677918e-02
      1.25446459e-02</_>
    <_>
      2.09822029e-01 1.77033320e-01 3.21345814e-02 1.62547864e-02
      7.30808899e-02 1.59775950e-02 2.63688508e-02 1.22686781e-01
      1.73455179e-01</_>
    <_>
      4.52801995e-02 3.85418087e-02 7.14601055e-02 9.95319113e-02
      3.00985008e-01 1.04273550e-01 6.51502907e-02 3.76860537e-02
      3.94339301e-02</_>
    <_>
      2.40798950e-01 3.78957875e-02 3.42942439e-02 2.20514834e-02
      1.13576271e-01 2.55917180e-02 3.75045724e-02 4.99181747e-02
      2.39502549e-01</_>
    <_>
      2.63090253e-01 1.50493607e-01 7.51907676e-02 2.62440089e-02
      2.47886404e-02 2.29052100e-02 3.74150686e-02 9.43777859e-02
      2.25682184e-01</_>
    <_>
      3.28784436e-01 5.57662454e-03 3.43454466e-03 2.52384390e-03
      1.55887315e-02 2.42866459e-03 3.60044767e-03 6.00996241e-03
      3.27476710e-01</_>
    <_>
      2.17579514e-01 1.81584105e-01 1.40070897e-02 1.40251508e-02
      9.17558745e-02 1.76605452e-02 1.15596922e-02 1.17925562e-01
      1.80024743e-01</_>
    <_>
      2.58251637e-01 6.73315376e-02 3.86151895e-02 5.00106923e-02
      7.12478161e-02 5.87355122e-02 4.11129557e-02 6.96405396e-02
      2.63151079e-01</_>
    <_>
      2.74144441e-01 4.10655253e-02 3.01097762e-02 1.60435773e-02
      4.67715971e-02 1.44123780e-02 3.31760757e-02 4.91709113e-02
      3.02632302e-01</_>
    <_>
      2.53265172e-01 1.01154074e-01 3.48337106e-02 1.83842070e-02
      3.95028777e-02 2.08511427e-02 4.17428687e-02 1.15274437e-01
      2.63153166e-01</_>
    <_>
      2.61912555e-01 1.59194916e-01 1.97544377e-02 2.87243463e-02
      7.67144859e-02 2.58097425e-02 2.33802367e-02 7.28889108e-02
      1.71806678e-01</_>
    <_>
      2.61768550e-02 1.57618746e-02 7.28094531e-03 1.85630843e-01
      3.52239460e-01 1.08817630e-01 6.08555088e-03 1.58128999e-02
      2.58855764e-02</_>
    <_>
      2.72776335e-01 1.22620136e-01 4.28499142e-03 1.68184191e-02
      7.01926649e-02 1.74670164e-02 4.86435834e-03 5.80739900e-02
      1.95004463e-01</_>
    <_>
      2.48171374e-01 9.98006836e-02 3.34753394e-02 1.91351548e-02
      2.94377208e-02 1.90385953e-02 3.85893099e-02 1.17001593e-01
      2.61282980e-01</_>
    <_>
      2.68034309e-01 7.76673779e-02 1.91173758e-02 8.79978668e-03
      4.28575762e-02 9.21871979e-03 2.38408986e-02 1.14016972e-01
      2.94947356e-01</_>
    <_>
      6.10224195e-02 6.13720827e-02 7.13097155e-02 1.23074427e-01
      2.78541237e-01 1.35055110e-01 5.96612357e-02 4.08218913e-02
      5.10803759e-02</_>
    <_>
      2.34431177e-01 1.17128596e-01 3.13400589e-02 1.18039381e-02
      3.63381691e-02 6.31339103e-03 3.09763104e-02 1.37245402e-01
      2.64257878e-01</_>
    <_>
      5.93862422e-02 3.63913290e-02 8.96106884e-02 1.91630691e-01
      2.32747152e-01 1.47543043e-01 7.75896460e-02 3.91895734e-02
      5.72673902e-02</_>
    <_>
      2.66482770e-01 8.79331827e-02 1.75942294e-02 1.83479637e-02
      1.17464121e-02 1.16694700e-02 1.59298219e-02 1.12687796e-01
      2.98208922e-01</_>
    <_>
      6.32935092e-02 1.37033850e-01 1.35324806e-01 3.05430088e-02
      1.23238839e-01 3.74862365e-02 1.55392870e-01 1.45636916e-01
      6.81631342e-02</_>
    <_>
      2.69902378e-01 1.03943400e-01 3.19957994e-02 1.16870701e-02
      6.11727014e-02 9.51653160e-03 4.11764607e-02 9.48933214e-02
      2.58668959e-01</_>
    <_>
      2.32295647e-01 1.19222231e-01 4.48642075e-02 1.23622548e-02
      6.13900237e-02 1.14559038e-02 5.47069944e-02 1.52272046e-01
      2.59285033e-01</_>
    <_>
      2.66668469e-01 2.75318399e-02 3.16820480e-02 1.84891392e-02
      8.73564556e-02 1.30392350e-02 3.91007923e-02 2.84167994e-02
      2.58027732e-01</_>
    <_>
      2.24937275e-01 1.14913948e-01 2.96334755e-02 1.02717094e-02
      1.53713115e-02 1.34275788e-02 4.42847088e-02 1.52536198e-01
      2.63090819e-01</_>
    <_>
      2.32637838e-01 2.88463216e-02 3.37710418e-02 4.40810472e-02
      1.61375389e-01 2.86312122e-02 2.29265746e-02 1.95906237e-02
      2.32240736e-01</_>
    <_>
      2.50177532e-01 8.67162794e-02 2.50809677e-02 8.76415428e-03
      6.06704950e-02 7.43435323e-03 3.00341807e-02 1.13357089e-01
      2.64168948e-01</_>
    <_>
      6.67880550e-02 1.40419111e-01 1.48799017e-01 1.23527348e-02
      2.83852424e-02 1.43730119e-02 1.82076499e-01 1.59621015e-01
      6.50952384e-02</_>
    <_>
      2.77746111e-01 7.63603821e-02 2.75731161e-02 1.91222727e-02
      3.77707705e-02 1.58813521e-02 3.69437858e-02 9.36425477e-02
      2.81828254e-01</_>
    <_>
      2.58901507e-01 9.80064645e-02 3.55335139e-02 1.07257450e-02
      4.11313400e-02 1.10054696e-02 4.50187437e-02 1.20142065e-01
      2.67830342e-01</_>
    <_>
      3.66245769e-02 2.60922350e-02 3.52072716e-02 1.34536877e-01
      3.33406925e-01 1.16744995e-01 3.92731838e-02 2.64207851e-02
      3.65573615e-02</_>
    <_>
      2.19887033e-01 1.62899613e-01 3.07663865e-02 5.70828142e-03
      1.14664771e-01 4.60009975e-03 2.26553492e-02 1.08166799e-01
      1.49973169e-01</_>
    <_>
      2.44596735e-01 3.10591813e-02 4.03216071e-02 4.06275205e-02
      1.21409684e-01 3.15700322e-02 2.47614551e-02 3.33313979e-02
      2.19888836e-01</_>
    <_>
      2.08477959e-01 6.08663671e-02 3.08814198e-02 1.81181058e-02
      3.86470109e-02 1.41290836e-02 5.37070185e-02 1.08938873e-01
      2.45648459e-01</_>
    <_>
      2.49685198e-01 6.12532645e-02 3.28924432e-02 7.11339246e-03
      4.54072356e-02 1.50703546e-02 3.59776206e-02 8.91114399e-02
      2.65680104e-01</_>
    <_>
      5.76357655e-02 1.24684624e-01 1.42460540e-01 1.55641930e-02
      5.56033850e-02 2.06085425e-02 2.02257231e-01 1.77922606e-01
      5.93124442e-02</_>
    <_>
      2.69718140e-01 9.60168168e-02 3.33591364e-02 2.87593901e-02
      3.96608263e-02 2.85349414e-02 3.25976238e-02 8.35935399e-02
      2.64416665e-01</_>
    <_>
      3.01166810e-02 1.05866045e-01 2.20165104e-01 3.85198519e-02
      6.19492382e-02 2.61497796e-02 1.59384668e-01 7.45474547e-02
      3.00957188e-02</_>
    <_>
      3.04413348e-01 5.33384457e-02 6.81265863e-03 6.68919319e-03
      6.53590262e-02 6.56484719e-03 7.79418880e-03 3.59015353e-02
      2.47362345e-01</_>
    <_>
      2.02090934e-01 1.03289962e-01 4.73102629e-02 3.55199985e-02
      4.13292870e-02 2.93445531e-02 4.65898402e-02 1.28418490e-01
      2.38282681e-01</_>
    <_>
      1.50790840e-01 6.21286109e-02 1.31820338e-02 7.73198018e-03
      3.82156819e-02 1.31820347e-02 2.99420450e-02 1.49166718e-01
      2.18733862e-01</_>
    <_>
      2.69728899e-02 4.35839482e-02 1.19044662e-01 9.63130221e-02
      7.57402107e-02 1.70309067e-01 2.30731055e-01 6.38744608e-02
      2.76791826e-02</_>
    <_>
      2.17404678e-01 1.86074644e-01 8.79841298e-03 1.19401766e-02
      6.32548854e-02 1.06058074e-02 1.02096107e-02 1.30889833e-01
      1.58046141e-01</_>
    <_>
      2.07123473e-01 1.85619563e-01 2.47614756e-02 3.97669850e-03
      4.31446917e-02 1.66686978e-02 2.12713871e-02 1.38262138e-01
      1.65726110e-01</_>
    <_>
      2.08252877e-01 8.89222473e-02 5.65475784e-03 1.81872910e-03
      9.77549795e-03 1.86993426e-03 9.38384980e-03 1.56830624e-01
      2.83754587e-01</_>
    <_>
      2.17836410e-01 2.03895062e-01 3.25661227e-02 4.77618957e-03
      2.84404866e-02 2.69942055e-03 1.76116787e-02 1.23657092e-01
      1.58987328e-01</_>
    <_>
      1.66373849e-01 1.93326265e-01 5.91572262e-02 2.65329666e-02
      4.75681201e-02 2.48633213e-02 5.71352914e-02 1.64838731e-01
      1.54092908e-01</_>
    <_>
      2.15213329e-01 1.40944749e-01 5.30323200e-02 4.49646125e-03
      2.62373816e-02 4.55990713e-03 4.64343540e-02 1.22758992e-01
      2.04601526e-01</_>
    <_>
      5.25985993e-02 2.42664348e-02 6.13896511e-02 1.27737299e-01
      2.49050900e-01 1.59852698e-01 6.26758561e-02 3.57270874e-02
      5.85065074e-02</_>
    <_>
      1.63778380e-01 1.14532143e-01 5.41255586e-02 9.34867561e-03
      1.57875568e-02 9.49362572e-03 8.87002423e-02 1.80604219e-01
      1.96610555e-01</_>
    <_>
      3.39619339e-01 3.92710371e-03 3.02010402e-03 1.54307717e-03
      1.95230804e-02 1.99294370e-03 3.21796397e-03 3.28555400e-03
      3.35137784e-01</_>
    <_>
      2.64920563e-01 1.05631433e-01 1.26846805e-02 1.47649022e-02
      7.03336522e-02 1.81688536e-02 1.40613029e-02 7.00086951e-02
      2.23463431e-01</_>
    <_>
      5.56434058e-02 4.14517596e-02 4.75507937e-02 1.22980550e-01
      3.10563236e-01 9.88028646e-02 3.81511748e-02 2.84904465e-02
      4.92723323e-02</_>
    <_>
      2.61172444e-01 1.87987592e-02 1.16446950e-02 1.18470173e-02
      1.04151018e-01 2.05043778e-02 1.97208952e-02 2.60558072e-02
      2.69360900e-01</_>
    <_>
      2.16838956e-01 1.71501070e-01 5.70443347e-02 2.78705675e-02
      2.68521756e-02 1.82897318e-02 3.91178653e-02 1.34370118e-01
      2.02140942e-01</_>
    <_>
      2.97909938e-02 1.69936940e-01 1.77537262e-01 7.71284401e-02
      5.53006791e-02 7.43586197e-02 1.43603131e-01 1.39756471e-01
      2.50997040e-02</_>
    <_>
      4.54061069e-02 4.08808105e-02 7.05825612e-02 1.31669864e-01
      2.62321919e-01 1.67080060e-01 9.26600173e-02 5.31876311e-02
      4.77205850e-02</_>
    <_>
      2.64200449e-01 1.13194384e-01 4.12966684e-02 2.75039058e-02
      9.43550840e-02 2.92778090e-02 2.68868636e-02 9.16081890e-02
      2.33603790e-01</_>
    <_>
      7.90178552e-02 1.72710374e-01 1.82312638e-01 2.70591471e-02
      3.30246389e-02 3.37991491e-02 1.74186885e-01 1.62194118e-01
      7.93795660e-02</_>
    <_>
      2.00715467e-01 7.82779679e-02 4.36163545e-02 1.40847452e-02
      1.27595542e-02 2.05492545e-02 7.23170489e-02 1.30409673e-01
      2.47593477e-01</_>
    <_>
      1.92555964e-01 1.43413350e-01 4.53762971e-02 2.48050746e-02
      1.24642290e-01 2.69261058e-02 4.22335826e-02 1.54737964e-01
      1.86079994e-01</_>
    <_>
      1.86465397e-01 2.06533536e-01 8.88150632e-02 1.12227118e-02
      3.25325839e-02 7.20685720e-03 6.13218285e-02 1.33376166e-01
      1.33747786e-01</_>
    <_>
      2.27050230e-01 7.63515830e-02 4.09357920e-02 9.72615369e-03
      3.24215554e-02 1.41818877e-02 6.52210712e-02 1.06151275e-01
      2.34884992e-01</_>
    <_>
      5.11690862e-02 4.22504060e-02 6.16724938e-02 1.42646775e-01
      2.70766109e-01 1.48857713e-01 7.27061927e-02 4.37849164e-02
      5.49703091e-02</_>
    <_>
      3.31874877e-01 3.16968448e-02 7.04551581e-03 4.48897993e-03
      1.71234235e-02 4.36576689e-03 6.81002811e-03 2.91901920e-02
      3.15495819e-01</_>
    <_>
      3.25282574e-01 6.50455356e-02 1.11634973e-02 5.39867207e-03
      4.44515608e-02 6.06866460e-03 1.31005142e-02 5.07982671e-02
      3.05008411e-01</_>
    <_>
      2.93899804e-01 6.94728941e-02 2.19605304e-02 1.99682843e-02
      3.61991040e-02 1.64125115e-02 1.77789871e-02 5.88112697e-02
      2.73024201e-01</_>
    <_>
      2.60816425e-01 5.91790266e-02 4.20834422e-02 2.37027742e-02
      5.12824282e-02 2.24542897e-02 5.24302498e-02 7.99676105e-02
      2.62404501e-01</_>
    <_>
      3.14970970e-01 5.67906350e-02 2.26864610e-02 1.08196475e-02
      4.58333977e-02 1.14223361e-02 2.12688167e-02 3.79920006e-02
      2.99866050e-01</_>
    <_>
      1.32548377e-01 1.39218107e-01 3.97416241e-02 1.39723103e-02
      7.52298236e-02 1.02493837e-02 4.94941249e-02 2.06095532e-01
      1.70347542e-01</_>
    <_>
      4.12719212e-02 4.54659835e-02 5.67252897e-02 1.37764052e-01
      3.03096026e-01 1.29231736e-01 5.32738939e-02 3.70858796e-02
      4.16944027e-02</_>
    <_>
      2.18333192e-02 1.66654643e-02 2.70023085e-02 1.33789971e-01
      3.81702125e-01 1.27693772e-01 2.32468378e-02 1.40545517e-02
      2.03773919e-02</_>
    <_>
      1.09289801e-02 2.10002400e-02 2.55706552e-02 1.22291043e-01
      4.06225830e-01 1.11199401e-01 2.13169586e-02 1.52694676e-02
      9.22794547e-03</_>
    <_>
      2.89302282e-02 3.23922597e-02 3.98552530e-02 1.21556751e-01
      3.60669553e-01 1.05758704e-01 3.09538785e-02 2.80363839e-02
      2.82305423e-02</_>
    <_>
      6.35984391e-02 4.04805876e-02 4.73597050e-02 1.30377501e-01
      3.25400293e-01 1.16739102e-01 4.51991707e-02 4.10333313e-02
      5.61101176e-02</_>
    <_>
      2.83527434e-01 3.11023910e-02 2.44495887e-02 1.87585354e-02
      5.33626564e-02 1.86332390e-02 2.95541622e-02 2.64952108e-02
      2.68594176e-01</_>
    <_>
      3.53384055e-02 4.22970243e-02 6.67283833e-02 1.80236802e-01
      2.67945021e-01 1.83410585e-01 7.66243711e-02 4.53814641e-02
      3.89844477e-02</_>
    <_>
      4.65691574e-02 6.32192716e-02 1.02255128e-01 1.64444283e-01
      2.36955762e-01 1.43499061e-01 9.87948403e-02 5.06870560e-02
      4.98828702e-02</_>
    <_>
      3.99322659e-02 8.76006261e-02 1.51821047e-01 7.79249594e-02
      6.95762113e-02 8.47008675e-02 1.96473181e-01 9.31184590e-02
      3.44894528e-02</_>
    <_>
      2.26423129e-01 6.62025213e-02 8.11604224e-03 2.39922516e-02
      7.82539696e-02 2.50413269e-02 1.17202029e-02 1.05285577e-01
      2.63036817e-01</_>
    <_>
      9.44480598e-02 1.35725871e-01 1.23733588e-01 3.11974203e-03
      6.38627484e-02 3.26759461e-03 1.47534207e-01 1.72380134e-01
      1.07458569e-01</_>
    <_>
      2.14682326e-01 1.98407635e-01 4.81763929e-02 4.81539825e-03
      7.05360696e-02 2.02184892e-03 2.37999260e-02 1.28169864e-01
      1.66057035e-01</_>
    <_>
      2.35826895e-01 1.74784765e-01 2.24242751e-02 3.39668687e-03
      4.56384756e-02 2.35541840e-03 1.94974262e-02 1.14574514e-01
      1.72799900e-01</_>
    <_>
      1.02189191e-01 2.09906206e-01 1.17723100e-01 9.65108443e-03
      5.97624294e-02 1.26972245e-02 8.68983194e-02 1.51629150e-01
      8.97452310e-02</_>
    <_>
      1.95379630e-01 2.15382800e-01 8.57775584e-02 9.13708378e-03
      5.62464185e-02 7.72723462e-03 5.20358533e-02 8.85995924e-02
      1.16737843e-01</_>
    <_>
      5.66157214e-02 3.11335269e-02 4.93071787e-02 6.96431100e-02
      2.50403374e-01 1.46360055e-01 8.57695937e-02 3.30029055e-02
      5.30543365e-02</_>
    <_>
      2.33440790e-02 1.58124007e-02 2.48888228e-02 1.68334678e-01
      3.47092807e-01 9.70865116e-02 5.15241735e-02 3.72081771e-02
      2.98121572e-02</_>
    <_>
      2.17832383e-02 2.20650509e-02 8.64844471e-02 1.38174593e-01
      2.54186749e-01 1.77388400e-01 1.18581668e-01 2.86111794e-02
      2.11816933e-02</_>
    <_>
      4.52035330e-02 5.04769757e-02 1.17741331e-01 1.73583731e-01
      2.03431129e-01 1.58117235e-01 9.36346278e-02 3.70190740e-02
      5.26891276e-02</_>
    <_>
      3.00645292e-01 8.93926099e-02 9.10290424e-03 1.93627067e-02
      6.36443272e-02 1.50004877e-02 1.16939209e-02 5.94357699e-02
      2.47179762e-01</_>
    <_>
      2.69408941e-01 7.76863247e-02 3.58213149e-02 3.07424441e-02
      7.64745325e-02 2.57503409e-02 2.68453434e-02 5.72066419e-02
      2.35926718e-01</_>
    <_>
      5.45938276e-02 2.82364879e-02 5.17081432e-02 1.49629146e-01
      3.01415712e-01 1.28260568e-01 6.32633939e-02 2.98707411e-02
      5.40287085e-02</_>
    <_>
      4.84390371e-02 6.72686920e-02 1.75887957e-01 9.82152820e-02
      3.81590985e-02 1.03862889e-01 1.99615121e-01 8.68801400e-02
      4.80816476e-02</_>
    <_>
      1.46464333e-01 1.25218704e-01 2.85030436e-02 1.20448705e-03
      8.71141534e-03 1.76740147e-03 4.77841794e-02 2.07709208e-01
      2.09284410e-01</_>
    <_>
      4.63365167e-02 3.94728631e-02 8.79250243e-02 1.06373303e-01
      2.56838679e-01 1.35904819e-01 8.32254067e-02 5.00782169e-02
      4.21185046e-02</_>
    <_>
      2.66144156e-01 7.90783465e-02 1.98088903e-02 2.56187990e-02
      6.72300011e-02 2.66994294e-02 2.08615083e-02 8.72592106e-02
      2.84093350e-01</_>
    <_>
      2.75028259e-01 8.20097923e-02 1.21022332e-02 6.44961081e-04
      5.22599369e-02 6.67276559e-04 1.32041294e-02 9.33246091e-02
      2.86101371e-01</_>
    <_>
      2.45044231e-02 1.35585785e-01 1.90922916e-01 1.89421792e-02
      6.89263567e-02 1.36152795e-02 1.97865903e-01 1.59174755e-01
      2.62408163e-02</_>
    <_>
      1.78019807e-01 2.03611687e-01 5.35436757e-02 5.56709850e-03
      6.65394515e-02 5.73973218e-03 4.58209217e-02 1.40601888e-01
      1.28924251e-01</_>
    <_>
      4.49045002e-02 3.76056097e-02 6.68250769e-02 1.51254758e-01
      3.16290945e-01 1.50906622e-01 5.33799902e-02 3.50861847e-02
      4.86168414e-02</_>
    <_>
      4.31493558e-02 1.13669755e-02 1.75265335e-02 1.73081115e-01
      3.45776886e-01 1.13898672e-01 1.14154238e-02 7.68822944e-03
      3.79594788e-02</_>
    <_>
      2.84102354e-02 2.35895365e-02 4.08842377e-02 1.86271742e-01
      3.32460016e-01 1.67899922e-01 3.79193835e-02 1.97341647e-02
      2.21605580e-02</_>
    <_>
      4.89409454e-02 4.86346409e-02 6.56136870e-02 1.54409289e-01
      2.72874594e-01 1.82432309e-01 7.09331483e-02 4.65940274e-02
      5.04800081e-02</_>
    <_>
      3.43621299e-02 3.94727848e-02 9.50717553e-02 2.07152113e-01
      2.61620879e-01 1.67890787e-01 7.03313202e-02 3.28797996e-02
      3.36398333e-02</_>
    <_>
      5.79885095e-02 8.80053453e-03 1.05687499e-01 1.85609400e-01
      1.82378098e-01 1.35251358e-01 6.90912977e-02 9.34515800e-03
      5.91780990e-02</_>
    <_>
      3.53109501e-02 2.39991322e-02 7.78728351e-02 1.49011478e-01
      1.79467440e-01 2.04662666e-01 9.48554575e-02 2.94178687e-02
      3.69074605e-02</_>
    <_>
      3.13252062e-02 4.87165898e-02 9.63038355e-02 1.47030324e-01
      2.54118651e-01 1.08401373e-01 5.61936535e-02 3.27261724e-02
      3.56327258e-02</_>
    <_>
      2.47546494e-01 4.27577570e-02 2.65543107e-02 3.87322456e-02
      9.08684358e-02 3.52693908e-02 2.11605690e-02 4.62107509e-02
      2.46342331e-01</_>
    <_>
      4.05984372e-02 6.86272457e-02 1.53982982e-01 1.49340883e-01
      1.67494282e-01 1.36486754e-01 1.38285846e-01 5.92783019e-02
      4.74005416e-02</_>
    <_>
      7.67547218e-03 1.32115737e-01 2.14878261e-01 3.53384204e-02
      9.78870615e-02 3.02020311e-02 1.76087037e-01 1.10770196e-01
      7.49874068e-03</_>
    <_>
      3.66688557e-02 2.42032632e-02 4.44676951e-02 9.70772877e-02
      3.24331224e-01 1.26826689e-01 4.23185527e-02 2.81349290e-02
      3.69608849e-02</_>
    <_>
      3.33778933e-02 3.12189925e-02 9.63755026e-02 1.52092561e-01
      2.82515913e-01 1.17238723e-01 6.32365867e-02 2.16348767e-02
      3.54701318e-02</_>
    <_>
      4.23258692e-02 5.05141728e-02 1.20110750e-01 1.73842683e-01
      1.97241440e-01 1.09013788e-01 8.17948505e-02 4.00385819e-02
      3.69061753e-02</_>
    <_>
      5.32322824e-02 1.18222749e-02 1.89887896e-01 1.34020850e-01
      8.89456198e-02 1.06435984e-01 1.59322947e-01 8.44529178e-03
      5.40648513e-02</_>
    <_>
      2.39745930e-01 3.84987295e-02 2.92333476e-02 5.79486601e-02
      1.22114085e-01 6.14915676e-02 4.13638577e-02 4.33652699e-02
      2.38236114e-01</_>
    <_>
      2.00191334e-01 1.07382894e-01 1.64616313e-02 1.10822311e-02
      3.26295085e-02 9.18104313e-03 1.64145473e-02 1.46587327e-01
      2.24396810e-01</_>
    <_>
      8.61524232e-03 7.36254156e-02 1.41443998e-01 4.01825421e-02
      2.28430741e-02 6.56766146e-02 2.64092386e-01 1.36520058e-01
      8.93859193e-03</_>
    <_>
      5.46330810e-02 7.32799107e-03 2.26034503e-02 1.36731580e-01
      3.00278306e-01 1.46910131e-01 2.21874546e-02 6.34819642e-03
      5.55246808e-02</_>
    <_>
      4.15957011e-02 1.10247053e-01 1.82556570e-01 8.97155702e-02
      1.44622311e-01 7.07544684e-02 1.33646697e-01 8.15372989e-02
      3.97661254e-02</_>
    <_>
      6.60159215e-02 3.92617173e-02 1.64697811e-01 6.83749616e-02
      5.16680740e-02 8.97558704e-02 2.28718385e-01 6.15155064e-02
      6.19885959e-02</_>
    <_>
      7.64333382e-02 5.32981157e-02 8.56769681e-02 1.06784157e-01
      2.88468540e-01 1.17820345e-01 1.06819816e-01 6.37572333e-02
      7.70873353e-02</_>
    <_>
      1.90517858e-01 1.90873504e-01 7.10876733e-02 1.22437188e-02
      3.59771289e-02 5.59034711e-03 5.05236536e-02 1.57935962e-01
      1.72066495e-01</_>
    <_>
      1.72659680e-01 2.18073279e-01 1.35009512e-02 1.79821183e-03
      8.31199586e-02 1.94631540e-03 9.76518076e-03 1.55325085e-01
      1.34302229e-01</_>
    <_>
      1.76500425e-01 2.14753985e-01 8.66715014e-02 2.33608503e-02
      2.20379829e-02 2.18401309e-02 6.32044002e-02 1.52198747e-01
      1.36473864e-01</_>
    <_>
      3.42782766e-01 4.77926582e-02 1.41662091e-03 2.57111271e-04
      3.65402214e-02 1.90989958e-04 9.56375443e-04 2.84233484e-02
      2.67418236e-01</_>
    <_>
      3.03917944e-01 7.22697601e-02 2.29816455e-02 1.25299897e-02
      2.78165154e-02 1.57377422e-02 2.46277414e-02 5.95280901e-02
      2.83528268e-01</_>
    <_>
      2.72138804e-01 9.27132890e-02 5.18019497e-02 2.64533646e-02
      4.53146696e-02 2.64789201e-02 4.06942889e-02 6.38523251e-02
      2.26135865e-01</_>
    <_>
      2.42815450e-01 7.13782087e-02 3.86561714e-02 1.09294737e-02
      2.88175438e-02 1.47689534e-02 3.12100835e-02 8.64434242e-02
      2.91392028e-01</_>
    <_>
      3.15870762e-01 6.89747036e-02 1.35816904e-02 1.09738363e-02
      3.39638703e-02 7.97680207e-03 1.29411006e-02 5.11172973e-02
      2.67516673e-01</_>
    <_>
      3.25789094e-01 2.75886469e-02 5.95122762e-03 3.78714874e-03
      1.08088618e-02 4.08210652e-03 7.11674802e-03 3.92931886e-02
      3.35667610e-01</_>
    <_>
      3.10054958e-01 4.53447588e-02 8.04703124e-03 4.15211963e-03
      2.55006421e-02 3.41308559e-03 7.90637173e-03 4.62612025e-02
      3.24514687e-01</_>
    <_>
      2.48479377e-02 1.13875866e-01 1.92358688e-01 1.13383628e-01
      9.07606855e-02 8.55105147e-02 1.55299380e-01 1.01851188e-01
      2.36335266e-02</_>
    <_>
      2.65974611e-01 4.09349501e-02 8.86112731e-03 1.98505120e-03
      4.99359667e-02 1.61767798e-03 7.98993371e-03 6.27615377e-02
      3.28513175e-01</_>
    <_>
      2.55914897e-01 5.36379740e-02 3.66154057e-03 1.06649811e-03
      6.06577285e-03 1.53650704e-03 3.41470330e-03 9.37185511e-02
      3.27297240e-01</_>
    <_>
      2.27505773e-01 5.11918291e-02 1.96260400e-02 1.56165957e-02
      3.25069465e-02 1.15925586e-02 2.17586812e-02 1.08391054e-01
      3.19851637e-01</_>
    <_>
      2.10922673e-01 8.94073471e-02 2.73321895e-03 5.28707518e-04
      5.22285178e-02 2.16827466e-04 4.11107624e-03 1.52226076e-01
      2.72036701e-01</_>
    <_>
      2.65216410e-01 7.04435036e-02 2.99777389e-02 1.97365303e-02
      6.75028116e-02 1.67155750e-02 2.34253127e-02 3.91615145e-02
      2.06356719e-01</_>
    <_>
      2.21069399e-02 3.95262316e-02 7.53092021e-02 1.38363853e-01
      2.68666685e-01 1.51459098e-01 7.25897849e-02 2.68092845e-02
      2.30744220e-02</_>
    <_>
      3.14985029e-02 4.48206849e-02 1.12001635e-01 1.12735987e-01
      1.79806545e-01 1.52841762e-01 1.91830873e-01 5.94993420e-02
      2.96210628e-02</_>
    <_>
      8.33082423e-02 3.07422429e-02 1.23357803e-01 1.30704448e-01
      2.58472323e-01 1.21087782e-01 1.22249454e-01 3.59427743e-02
      9.53543410e-02</_>
    <_>
      8.39701146e-02 2.16951743e-01 1.53917015e-01 1.67991892e-02
      1.19619314e-02 1.29406489e-02 9.93562192e-02 1.36553660e-01
      6.78386316e-02</_>
    <_>
      3.51455659e-02 5.72518036e-02 1.34927049e-01 1.61932379e-01
      1.51027128e-01 1.27429605e-01 1.34729967e-01 7.13226646e-02
      3.47379819e-02</_>
    <_>
      2.42299318e-01 9.70766768e-02 6.16592094e-02 2.41400432e-02
      4.03903350e-02 1.64832156e-02 2.09791325e-02 5.97482845e-02
      2.46013030e-01</_>
    <_>
      3.23943272e-02 3.24914828e-02 1.55052766e-01 1.85251847e-01
      1.41725048e-01 1.67102560e-01 1.26232147e-01 3.45893838e-02
      3.38355154e-02</_>
    <_>
      2.37973809e-01 5.88471368e-02 3.93863730e-02 9.39202532e-02
      2.50151485e-01 9.76947248e-02 3.31296586e-02 5.28915860e-02
      2.34591842e-01</_>
    <_>
      1.19471578e-02 2.77698264e-02 2.17164576e-01 1.84264123e-01
      8.52500200e-02 1.14038572e-01 1.35325521e-01 2.10873280e-02
      1.18939225e-02</_>
    <_>
      1.78264618e-01 1.53338581e-01 8.42595994e-02 2.68423930e-02
      2.79349908e-02 2.34599393e-02 8.78751278e-02 1.45052910e-01
      1.81336716e-01</_>
    <_>
      4.74886149e-02 3.73139307e-02 1.37737423e-01 1.09728001e-01
      1.33342803e-01 1.49186060e-01 1.72491133e-01 4.44987454e-02
      4.72904183e-02</_>
    <_>
      2.19639972e-01 7.95761123e-02 9.39831045e-03 1.18372105e-02
      2.77181529e-02 8.05063266e-03 1.12099117e-02 1.32649869e-01
      2.75837690e-01</_>
    <_>
      6.52453005e-02 1.74630702e-01 1.41736045e-01 2.96508837e-02
      8.09454918e-02 2.40830034e-02 1.24878593e-01 1.77919939e-01
      6.81064427e-02</_>
    <_>
      5.57881817e-02 3.74005251e-02 7.28516430e-02 1.13880225e-01
      2.74714381e-01 1.74112648e-01 6.96594715e-02 3.06004491e-02
      5.51873855e-02</_>
    <_>
      7.95646161e-02 3.11160460e-02 2.57199630e-02 6.25784993e-02
      3.06495458e-01 9.19081718e-02 2.28242204e-02 3.14672068e-02
      8.34634900e-02</_>
    <_>
      2.95192637e-02 4.70425300e-02 9.59713012e-02 1.52920216e-01
      2.47028276e-01 1.45876884e-01 9.03351530e-02 4.66462076e-02
      3.14442664e-02</_>
    <_>
      3.37575637e-02 1.68008599e-02 9.93815809e-02 1.43528864e-01
      2.50648677e-01 1.07149579e-01 4.70132157e-02 9.91942361e-03
      3.30261476e-02</_>
    <_>
      5.90056814e-02 4.55699116e-02 4.21138518e-02 1.14233084e-01
      3.21622163e-01 1.32138833e-01 3.43679972e-02 4.26638611e-02
      5.96341752e-02</_>
    <_>
      2.70456731e-01 4.03422378e-02 3.49369794e-02 2.54137460e-02
      5.46466149e-02 1.36760650e-02 2.95036603e-02 3.53686400e-02
      2.55879313e-01</_>
    <_>
      5.18768393e-02 2.23738793e-02 3.66291180e-02 1.45495519e-01
      3.10596317e-01 6.85012490e-02 4.24571224e-02 4.29797843e-02
      5.75543381e-02</_>
    <_>
      5.60146980e-02 3.35003138e-02 3.22197154e-02 7.30468854e-02
      3.13205361e-01 7.15009794e-02 4.19455394e-02 5.78278974e-02
      6.17414378e-02</_>
    <_>
      5.50560169e-02 3.79268527e-02 4.30521108e-02 1.16292000e-01
      2.48579875e-01 9.59919542e-02 7.38633946e-02 8.63992721e-02
      7.27993399e-02</_>
    <_>
      4.78729159e-02 2.37340834e-02 2.28242613e-02 5.30056916e-02
      3.51577103e-01 5.99215887e-02 4.06776965e-02 4.66654561e-02
      5.22697866e-02</_>
    <_>
      4.46875207e-02 3.45079638e-02 1.84031129e-02 4.01901938e-02
      3.56886864e-01 4.15185802e-02 3.74889411e-02 5.28866202e-02
      4.56251986e-02</_>
    <_>
      5.87136149e-02 3.64676490e-02 4.39911783e-02 1.53603181e-01
      2.89216995e-01 1.16922818e-01 4.29830551e-02 4.51130792e-02
      6.26337081e-02</_>
    <_>
      2.85382271e-01 3.54400352e-02 1.70738101e-02 1.56812891e-02
      8.88948068e-02 1.62879899e-02 1.63972434e-02 3.04831341e-02
      2.83140779e-01</_>
    <_>
      6.61508068e-02 3.47058661e-02 3.49406339e-02 1.33039206e-01
      2.99331516e-01 8.83639008e-02 4.66621593e-02 3.63067612e-02
      6.83322176e-02</_>
    <_>
      3.48290019e-02 2.70060953e-02 2.98030097e-02 9.46359560e-02
      3.49756658e-01 1.59995526e-01 5.30773625e-02 3.33094001e-02
      3.77079956e-02</_>
    <_>
      9.05969068e-02 4.08307016e-02 6.77743182e-02 5.65611497e-02
      2.90516645e-01 6.69865310e-02 8.34178776e-02 4.18301448e-02
      9.27049965e-02</_>
    <_>
      3.41132432e-02 2.85021234e-02 2.76440363e-02 5.11977524e-02
      3.86239409e-01 8.41703862e-02 4.19023931e-02 2.59830561e-02
      3.51378173e-02</_>
    <_>
      3.96908671e-02 1.00618303e-02 8.96902904e-02 2.17467472e-01
      2.04052225e-01 1.32103667e-01 5.53942062e-02 1.96041428e-02
      4.00896296e-02</_>
    <_>
      3.44789438e-02 5.39004710e-03 2.12253649e-02 1.39792219e-01
      3.32433373e-01 2.04866827e-01 2.57813651e-02 5.88855566e-03
      3.46750580e-02</_>
    <_>
      1.57883596e-02 3.40399612e-03 4.96034101e-02 1.42822295e-01
      2.54833549e-01 2.18076125e-01 6.39548823e-02 4.50173998e-03
      1.56123023e-02</_>
    <_>
      2.31876090e-01 1.18707336e-01 3.27385627e-02 2.41584834e-02
      7.09245279e-02 2.01532189e-02 2.31529791e-02 1.30702421e-01
      2.52629131e-01</_>
    <_>
      5.83574399e-02 3.61960642e-02 1.38083354e-01 1.55538946e-01
      9.96385664e-02 1.63625538e-01 1.79400578e-01 5.03984056e-02
      5.83574399e-02</_>
    <_>
      2.08691224e-01 1.97482035e-01 4.56980802e-02 3.38444114e-03
      6.42161295e-02 3.09930369e-03 3.31412628e-02 1.25504673e-01
      1.56869903e-01</_>
    <_>
      3.24467570e-02 8.75894874e-02 1.89861268e-01 1.22959614e-01
      1.28947124e-01 1.04213782e-01 1.45984411e-01 8.20228681e-02
      3.67500372e-02</_>
    <_>
      7.10919574e-02 1.86491475e-01 1.48080423e-01 1.06716827e-02
      1.10456653e-01 9.63754859e-03 1.21251345e-01 1.55407563e-01
      7.62892291e-02</_>
    <_>
      1.98646486e-01 3.52275856e-02 3.62199694e-02 1.00946777e-01
      2.91003615e-01 9.30574313e-02 3.90794352e-02 4.34838459e-02
      2.11014479e-01</_>
    <_>
      3.55880223e-02 2.62275059e-02 1.28713861e-01 2.33441278e-01
      2.00282201e-01 1.34957165e-01 6.33201376e-02 1.59399677e-02
      3.06429025e-02</_>
    <_>
      1.25926267e-02 9.63981543e-03 9.48529318e-02 2.18484953e-01
      2.43035018e-01 1.43388018e-01 5.74322864e-02 6.33508898e-03
      1.22558158e-02</_>
    <_>
      6.67747855e-02 1.96014881e-01 1.80671349e-01 2.52406280e-02
      3.76408324e-02 3.29385884e-02 1.25248030e-01 1.41208827e-01
      6.19928427e-02</_>
    <_>
      1.88431889e-01 1.29499093e-01 4.29337509e-02 8.37053172e-03
      1.67394038e-02 1.03983814e-02 4.78046946e-02 1.65999666e-01
      2.08347902e-01</_>
    <_>
      2.66662985e-01 1.01550899e-01 2.88948119e-02 2.78357719e-03
      5.27056903e-02 2.41245260e-03 2.02033967e-02 6.24148138e-02
      2.42244080e-01</_>
    <_>
      7.41178468e-02 2.16131471e-02 1.45658359e-01 1.34549841e-01
      4.17017266e-02 1.83517814e-01 1.85033873e-01 2.75982320e-02
      7.77455270e-02</_>
    <_>
      3.34740281e-02 3.49054374e-02 1.30853176e-01 1.22038908e-01
      9.17486548e-02 1.51160493e-01 1.77408591e-01 4.46694046e-02
      3.29337381e-02</_>
    <_>
      4.57486399e-02 1.62538849e-02 1.35451937e-02 1.06005803e-01
      3.44806761e-01 1.49556816e-01 1.39322206e-02 1.37792621e-02
      4.51626331e-02</_>
    <_>
      4.51501384e-02 1.27151050e-02 1.23865902e-02 9.48829949e-02
      3.55233550e-01 1.39743537e-01 1.20205916e-02 1.43216914e-02
      4.53942344e-02</_>
    <_>
      1.45404236e-02 2.49278918e-03 1.24706645e-02 1.97869107e-01
      3.67298007e-01 1.16955191e-01 7.31147500e-03 1.02045864e-03
      1.44115603e-02</_>
    <_>
      3.14363129e-02 4.18502204e-02 1.58663973e-01 9.69530568e-02
      8.26223195e-02 1.25532016e-01 2.04091966e-01 6.52116984e-02
      3.39462832e-02</_>
    <_>
      3.91624458e-02 1.98479947e-02 1.24323756e-01 1.50393426e-01
      2.47387484e-01 1.21227942e-01 9.80793163e-02 1.84298977e-02
      4.20711190e-02</_>
    <_>
      2.15615854e-01 1.10673904e-01 4.75598276e-02 7.52889812e-02
      2.12463662e-01 8.09309408e-02 4.76368852e-02 9.99226198e-02
      2.25666717e-01</_>
    <_>
      2.95551550e-02 4.20364626e-02 1.64818898e-01 1.73706934e-01
      1.00248404e-01 1.38435647e-01 1.26556247e-01 1.86583865e-02
      2.95551550e-02</_>
    <_>
      9.64938328e-02 3.15231495e-02 1.56226903e-01 1.53113887e-01
      1.12704001e-01 1.19128771e-01 1.36058792e-01 2.65334900e-02
      9.75611135e-02</_>
    <_>
      2.43150201e-02 7.48407049e-03 7.06126392e-02 1.23985685e-01
      2.03788683e-01 1.95389107e-01 1.26835614e-01 1.61223970e-02
      2.33189967e-02</_>
    <_>
      2.87715614e-01 1.60572678e-02 1.77479852e-02 1.83966812e-02
      5.13791703e-02 1.47516318e-02 1.45196030e-02 1.67307239e-02
      2.95074165e-01</_>
    <_>
      2.50047714e-01 2.29044110e-02 1.58066265e-02 1.96935851e-02
      8.72948244e-02 1.97343789e-02 2.34728865e-02 2.12379526e-02
      2.71913618e-01</_>
    <_>
      2.45170012e-01 1.07122414e-01 6.16509616e-02 1.95373986e-02
      6.82356060e-02 2.10976489e-02 7.09213614e-02 1.14091054e-01
      2.48293817e-01</_>
    <_>
      4.27707694e-02 1.04834549e-01 1.34637028e-01 1.25509933e-01
      1.97180212e-01 1.21262804e-01 1.10823914e-01 7.70542100e-02
      3.70501839e-02</_>
    <_>
      2.81110406e-01 4.63174842e-02 2.79897992e-02 1.41534181e-02
      9.86964330e-02 1.40288221e-02 3.08453143e-02 3.77863310e-02
      2.57758915e-01</_>
    <_>
      6.03102371e-02 2.26727054e-02 1.33743510e-01 1.91055819e-01
      2.33114928e-01 1.50325134e-01 1.00405514e-01 2.14083921e-02
      5.87826930e-02</_>
    <_>
      2.91786492e-02 1.50148883e-01 1.56173065e-01 1.31013719e-02
      3.09590437e-02 1.76021606e-02 1.98943540e-01 1.84415996e-01
      3.01732812e-02</_>
    <_>
      5.71693666e-02 9.97713283e-02 8.55909213e-02 1.66415825e-01
      2.69199073e-01 1.54096499e-01 7.07833990e-02 9.20899510e-02
      5.43484278e-02</_>
    <_>
      3.11944205e-02 4.79645059e-02 1.31942123e-01 1.20768487e-01
      1.37744784e-01 1.30664483e-01 1.60424635e-01 5.05442917e-02
      2.96151489e-02</_>
    <_>
      2.40805205e-02 1.25666671e-02 5.06890193e-02 1.59820780e-01
      3.23057890e-01 1.52021587e-01 4.49704900e-02 1.29103269e-02
      2.28335913e-02</_>
    <_>
      1.41806789e-02 1.78226262e-01 1.85545012e-01 2.37913877e-02
      6.78312406e-02 2.04240754e-02 1.53410569e-01 1.40695021e-01
      1.37908766e-02</_>
    <_>
      4.33674455e-02 4.82751541e-02 8.03455636e-02 1.23388104e-01
      2.24665821e-01 1.30559117e-01 8.85928646e-02 5.08059673e-02
      4.35584038e-02</_>
    <_>
      6.56877160e-02 5.63897155e-02 4.44242358e-02 1.32343575e-01
      3.22077811e-01 1.42868772e-01 4.41299155e-02 5.93557283e-02
      4.95941006e-02</_>
    <_>
      6.63497820e-02 3.65337580e-02 5.96000738e-02 1.65675581e-01
      2.79776871e-01 1.55167297e-01 4.60912138e-02 4.24270183e-02
      8.31984505e-02</_>
    <_>
      2.66357120e-02 2.32755933e-02 4.77889553e-02 1.32639498e-01
      2.99609691e-01 2.37817809e-01 5.60808480e-02 2.12110132e-02
      2.76831184e-02</_>
    <_>
      4.79002334e-02 1.86150074e-02 9.60827917e-02 8.17995071e-02
      5.56928441e-02 1.87979504e-01 2.33254284e-01 3.08145769e-02
      5.19131832e-02</_>
    <_>
      2.36814499e-01 4.64596525e-02 3.81723903e-02 8.63628555e-03
      1.04155958e-01 9.33894981e-03 3.03978510e-02 6.63065985e-02
      2.67803133e-01</_>
    <_>
      2.44959190e-01 1.33050099e-01 3.94045748e-02 1.80351418e-02
      3.85155641e-02 1.56027144e-02 3.98109816e-02 1.24597669e-01
      2.51680702e-01</_>
    <_>
      1.98395625e-02 3.49912941e-02 1.10798076e-01 1.48955166e-01
      1.95836067e-01 1.38587371e-01 1.27100721e-01 3.98917235e-02
      1.94321293e-02</_>
    <_>
      3.52560729e-02 4.26717335e-03 6.38924958e-03 9.33891758e-02
      3.69950682e-01 1.50725201e-01 6.98445737e-03 5.36559336e-03
      3.53147723e-02</_>
    <_>
      2.48203099e-01 5.68499677e-02 2.97378730e-02 1.56412274e-02
      3.92903462e-02 1.83854047e-02 3.37575451e-02 7.42252842e-02
      2.51905441e-01</_>
    <_>
      2.55041182e-01 5.35879992e-02 2.42312420e-02 1.07074445e-02
      1.06894493e-01 1.28089851e-02 2.71682553e-02 7.15223029e-02
      2.67232418e-01</_>
    <_>
      6.34281412e-02 3.02175563e-02 4.57548574e-02 1.38107270e-01
      3.01728904e-01 1.27073258e-01 4.64109033e-02 2.98976079e-02
      6.29912093e-02</_>
    <_>
      1.89316303e-01 8.07734951e-02 1.78347044e-02 1.04153723e-01
